{
  "layers": [
    {
      "neurons": [
        {
          "weights": [
            0.040188816455238155,
            -0.09635271790933983,
            0.0001787643107176382,
            -0.010179978867221346,
            -0.02454883253800887,
            -0.025293434529095105,
            -0.0527141496740603,
            0.03491409303800035,
            0.04530371531154193,
            0.046646617857579196,
            -0.030068805988830608,
            0.06269100971269155,
            -0.06640468729194438,
            -0.04525608254926543,
            0.0962650653278214,
            0.06788650482649777,
            0.03848525050153689,
            -0.015455292392664294,
            -0.008212938409477741,
            -0.040354745671315494,
            -0.07973138424979112,
            -0.027218790409583856,
            -0.003758244762527947,
            0.07427495961943856,
            -0.0980861778390019,
            -0.031108736355611132,
            0.09952076561427077,
            0.007819904804564138,
            0.04976471021054026,
            -0.03297746837517254,
            -0.006541375696838056,
            -0.01343419286322333,
            -0.009422688820526284,
            0.05291623023237912,
            0.024850797615980916,
            0.07920491994258383,
            -0.050392909245620614,
            0.03761821332023313,
            0.012761135193566225,
            -0.058195303873966445,
            -0.012996806103861263,
            -0.0032676107917512976,
            0.0411776253398746,
            -0.0432499636817944,
            0.10366519631923955,
            -0.008762680027905123,
            -0.021915967526219153,
            -0.07439213748764359,
            0.005677635797002772,
            -0.05323623865671102,
            -0.04898582951245206,
            0.09513587887229848,
            -0.01911908923534866,
            -0.04932183781695878,
            -0.05155120499142295,
            -0.04369211617971872,
            -0.026727038008529935,
            -0.019132220800448446,
            0.08206291008173995,
            0.004249361290491929,
            -0.01963966331979931,
            -0.049069793770078717,
            -0.00011999504178078085,
            0.07143834704683796,
            -0.021709154746131228,
            0.009614697749361571,
            -0.007245528443811983,
            -0.03462713094558661,
            -0.08697939102379862,
            -0.01764700134336724,
            -0.061138867496936145,
            0.03422888756979146,
            0.02480090237240167,
            -0.002206906648218536,
            -0.05967314742992984,
            -0.009612619824544064,
            -0.0055083345820145825,
            0.0026837628650555044,
            -0.09976458189009814,
            -0.07822195400463974,
            -0.10537078210648818,
            0.0635658517966292,
            0.08518195477476558,
            -0.04803032751437966,
            0.07122901946810267,
            -0.01091340473917878,
            -0.029330180620027728,
            -0.10286405380743936,
            -0.06059321325440099,
            0.098307191599572,
            0.045985515435921,
            0.049280838899389945,
            -0.09436281021489783,
            -0.07226312837532185,
            -0.005771021061685289,
            0.05302914521035901,
            0.0038867883356775417,
            -0.003992418195584489,
            0.034176137521194784,
            -0.05768366935620501,
            0.008242471071707797,
            0.009824811483589036,
            -0.04599041088711126,
            -0.015587979156894166,
            0.03700296648739839,
            0.02444168706193373,
            -0.020394898170207308,
            -0.0009505194504411514,
            -0.006514874053409592,
            -0.09374265721729219,
            -0.02978640709293249,
            -0.0579645722462378,
            0.0023035847496436375,
            0.0058396336683375506,
            -0.0812268075584645,
            -0.028396693567606306,
            -0.008367115777423917,
            0.026387206065089545,
            0.01836143536934898,
            -0.05126465317308364,
            0.06080449238770393,
            -0.019899048634857273,
            0.01395285932481701,
            0.00022120543595335003,
            0.021549271292136254,
            0.10905149918556602,
            -0.021795661672296553,
            0.02262610366533526,
            -0.0008423746859446122,
            0.02665325413975395,
            0.0885574169562382,
            0.10848714473207824,
            -0.06275598352123454,
            0.0033797062838066866,
            0.00906769259203767,
            -0.05499246718953992,
            -0.01026986948021367,
            0.007056515337963966,
            0.05317978749312599,
            0.058154748238738764,
            0.012327846794872262,
            -0.0053584161899962865,
            0.011387468957230557,
            0.01932762359825939,
            -0.0005195733779787331,
            0.12193886290837293,
            -0.018699400813937183,
            -0.10068438602330436,
            0.04268641178162675,
            -0.06169930113344716,
            0.010425191620042025,
            -0.08689889623094751,
            -0.038715577075142366,
            -0.11557781566526003,
            0.08395213308395663,
            0.0377587495109795,
            -0.04397508291743814,
            -0.08030061633481102,
            0.04189396362752167,
            0.06731094736985331,
            -0.013888658517903019,
            -0.040955006445939635,
            -0.0656794393975801,
            -0.005473788894662062,
            -0.06424721313563513,
            0.0072922992563313445,
            0.005540250978830088,
            0.0036269829770015478,
            -0.01802151728114038,
            0.035761533794719816,
            0.010342407048810084,
            0.05078516719499053,
            -0.013013944566718151,
            0.08697727190592258,
            0.060398305160809615,
            -0.02478097840413038,
            -0.03470515199771862,
            -0.10552423546269617,
            -0.09044834712173042,
            -0.11704781967721838,
            -0.08234960712630322,
            -0.05221306928974174,
            0.13770047951006126,
            0.09006720514660049,
            0.0640454910465585,
            0.009365356643167863,
            0.014851846739596357,
            0.0021815527131253715,
            0.02039388836323266,
            0.019168201429032555,
            -0.08861055249827,
            0.03234846237567967,
            0.024573467738550278,
            0.03047246996844417,
            -0.026656515555002397,
            -0.07335270008982063,
            -0.021371396925876855,
            -0.09324478681585806,
            -0.08450467209563883,
            -0.04374768497475194,
            0.047419091547396375,
            0.04720957394126322,
            0.054929040647339986,
            0.06347509636713683,
            -0.009107655093877258,
            0.012026077824423963,
            0.07577600546707218,
            -0.02751879242922162,
            -0.020462305718476948,
            0.09668673368353609,
            0.0989218144908757,
            0.04150983243797413,
            -0.07396507280043058,
            0.03520275286949841,
            0.008974071370510818,
            0.015855458487136192,
            0.054555263299472044,
            -0.09600673671904739,
            -0.014393866359551259,
            0.032122604433495815,
            0.051819612092619906,
            0.013290325716430481,
            -0.031625640624650724,
            -0.045899985572528494,
            0.07883433866757189,
            -0.046527651159476185,
            0.03367223711361802,
            -0.018865904637051106,
            0.021250120270065016,
            -0.004779100141532105,
            -0.02054974360020844,
            0.12929758011898024,
            0.14954791772890821,
            0.06094608427482105,
            -0.03173255997775953,
            0.0016448274945679699,
            0.010831880453543238,
            0.2455800539462304,
            0.06596630797892128,
            -0.011057758661217172,
            -0.09918108078478681,
            -0.13178491585921326,
            -0.1347981108465059,
            0.02429778448710913,
            0.03084277330938888,
            -0.0845895103774307,
            -0.03795466198929502,
            -0.10903476750363653,
            0.009109465822359185,
            0.1018574314074033,
            -0.009555416994494892,
            -0.030529589982360862,
            -0.039842618592261035,
            -0.03855212690886342,
            0.00845669721341086,
            -0.040770651466022045,
            -0.09101307416593857,
            -0.07360621330129623,
            0.02696755303779933,
            0.1292448088876687,
            0.1331147510520054,
            -0.09927264893156613,
            -0.2129763520980258,
            -0.11354973803664029,
            0.01718965200578,
            0.07687576845937172,
            -0.13176603793941716,
            -0.20959588554243822,
            -0.08814066591326505,
            -0.25135233187186357,
            -0.0703680657664071,
            0.05006878485685426,
            -0.07344651029614827,
            -0.13864957190224916,
            -0.031611498154369776,
            -0.1156606720134065,
            -0.05570371060416368,
            0.0179736883744005,
            -0.046906576601450325,
            0.021946934427276188,
            -0.044603744810398256,
            -0.04426672615200935,
            -0.06957641569599497,
            -0.04146534478564506,
            0.018335861103431467,
            -0.12294808595984091,
            0.03595239696974884,
            0.0162534287252415,
            -0.07191049157306006,
            -0.07918571036220554,
            -0.09547370631003949,
            -0.06744236735505289,
            0.027592108789330917,
            0.03965804332319557,
            -0.07470615526461262,
            -0.18143967698830932,
            -0.14239992308730112,
            -0.18241888463238945,
            -0.15534754810269502,
            -0.04532678441053033,
            -0.10753296069769887,
            -0.1291014506654249,
            -0.12204638725597579,
            -0.04471540819770187,
            0.10525458183101412,
            0.03875512003534658,
            -0.008372268358309459,
            -0.02645128379285399,
            -0.02580660041035245,
            -0.01835783217274922,
            0.031899079002758846,
            0.004548976867356979,
            -0.010099397080507728,
            -0.06111024178682753,
            0.02354118518537158,
            -0.045992353589515735,
            0.04417299735643513,
            -0.05125956387901909,
            -0.20207956421300144,
            0.0065217135375632155,
            0.04204650759155135,
            0.10430795202295082,
            -0.011039076757446075,
            0.020465652960870828,
            -0.07740228243673236,
            -0.07676487828737631,
            -0.05472501440179847,
            0.007834615479430262,
            -0.09582090050876561,
            -0.07176950469962752,
            -0.029904113907832,
            -0.003949468242105615,
            -0.0743215131982775,
            0.04775749046542333,
            0.0011333906477888672,
            -0.06168667429738427,
            -0.046095574844588226,
            -0.01960998844495147,
            -0.04423402082533032,
            -0.026945855222705865,
            -0.059994922053084106,
            -0.15124542170817445,
            -0.01724694956696915,
            0.007215096221139396,
            0.007438042144959693,
            -0.0022297560898701502,
            -0.07911109976408202,
            0.07465675574109759,
            0.12357464569978195,
            0.19278246100432536,
            0.1298070578352783,
            0.027675077067918157,
            0.0676381212368265,
            0.13817819324184757,
            -0.006745844439544379,
            0.027263025032124664,
            0.050903674783439164,
            -0.026100468064286578,
            0.004255955065180184,
            -0.09133501295791784,
            -0.005663424162865873,
            -0.020519755240673173,
            0.0539723924916085,
            0.0759845592459644,
            0.031524314943007656,
            0.041319934699744765,
            -0.04284332627700892,
            0.052665603233458085,
            0.008628385979220266,
            -0.01686304893458813,
            0.008430404569932017,
            -0.12147110567066711,
            -0.06838289195548916,
            0.08425147719481685,
            0.05658358617245146,
            0.23237007329554474,
            0.24305177822791751,
            0.23007167874454118,
            0.3181327625981451,
            0.007258329570375751,
            0.009579457563360174,
            0.03733393971073036,
            -0.06469856411377826,
            -0.11523871150823496,
            0.09123557226237554,
            0.02145957386625605,
            -0.008790539556944092,
            -0.15863312240274893,
            -0.04326907364270863,
            -0.07564966759383003,
            0.013682599367341128,
            0.05705485530171239,
            0.13609856223704467,
            0.016624548202830994,
            -0.0031419591159023287,
            -0.04219077023598225,
            0.027533509937114037,
            0.02118054894662901,
            -0.018015443145549315,
            -0.032472355623657884,
            -0.01483816615371134,
            -0.02413700101558462,
            -0.16908973205491773,
            -0.06249970253330826,
            0.14222269098712678,
            0.2510875929952355,
            0.006901788797319807,
            0.0707199293934031,
            0.08600990820317736,
            -0.013502308062667025,
            -0.058951451706508576,
            -0.11619386402874418,
            -0.0519492516367768,
            0.045154628974586254,
            -0.012595047882628508,
            -0.035307329199380025,
            -0.02399437290137646,
            -0.007665201128393179,
            0.12538881252385545,
            -0.09027572160622424,
            -0.0007591389561344901,
            -0.01663712915171153,
            0.0749864681355506,
            -0.0720282444766267,
            0.013217478217092913,
            -0.003671357043275305,
            0.11394795725227012,
            0.030877107325508975,
            0.04277075020439781,
            -0.216309959399693,
            -0.2507217578755716,
            -0.23004319565717982,
            -0.12017089793897999,
            0.01911423240376981,
            0.13291000328949742,
            0.02567955543761984,
            0.19231985752394676,
            0.06216791531681209,
            -0.010614321014147922,
            -0.08471902684559793,
            -0.14906435618442143,
            -0.06844045576223459,
            0.08739053135383289,
            -0.026982548487465317,
            -0.025012777339933755,
            -0.03232790112282975,
            -0.0660093555668391,
            -0.00370918816553637,
            0.008532597657627396,
            -0.017579637738815008,
            -0.007788218107008253,
            0.07140246992379551,
            0.06636486166829927,
            -0.0019440112521942046,
            -0.0522345916397229,
            -0.010786446628826928,
            -0.0308136215291379,
            -0.09417074465492323,
            -0.21369053165889235,
            -0.14647969919466391,
            -0.13404378669103043,
            -0.033556154971597446,
            -0.07103630420236089,
            0.11473854615452385,
            0.048729726289241666,
            0.02317218212249735,
            -0.049995363989994934,
            -0.08870923955962187,
            -0.047899714105787555,
            -0.10013599892156982,
            -0.001636123378639664,
            0.11396371269395006,
            0.0764967461798936,
            -0.05707986747458776,
            0.030475160855545035,
            -0.016832138186692564,
            0.06097169109031757,
            -0.008318695419924284,
            0.02185527658641011,
            0.025301328916881527,
            -0.05517780358675999,
            -0.059351424454679114,
            -0.044279803768682006,
            -0.09603274816389558,
            -0.15010962766522726,
            -0.054397709332657966,
            -0.07412307340840203,
            -0.05182102314356812,
            -0.0672270676702738,
            0.11436937769244518,
            -0.03533141528782449,
            -0.018571028098916857,
            0.014261437654873912,
            -0.10948659037647551,
            -0.10080083684024957,
            -0.0460361436210261,
            -0.06673026967922414,
            -0.017697247798140633,
            0.1286282331345311,
            0.13388922234777736,
            0.1871431500593695,
            0.05952897881349266,
            0.016598562295441436,
            -0.04886573440772668,
            0.02260615865168247,
            0.019286556820889256,
            0.03188463944958491,
            0.009122009487153268,
            0.01978219365477757,
            -0.06604783354813837,
            -0.02398479532748495,
            -0.12699498706387372,
            -0.1885560362348142,
            -0.12687385821592753,
            -0.07026304512099539,
            -0.04356354128709796,
            0.10183280196719326,
            -0.006220395880663905,
            -0.07558223980154707,
            -0.05051497668335985,
            -0.01789944021541302,
            -0.1871771769963326,
            -0.16180057586001997,
            -0.03575633323337064,
            -0.2530546161375145,
            -0.08207177897076665,
            0.16714511265793577,
            0.13215336530122215,
            0.15685997871582974,
            0.03907053800027891,
            0.026497168069404282,
            -0.07140201441775103,
            -0.001351300412129931,
            0.022205197020173435,
            -0.06546045018382357,
            0.023549479838890084,
            -0.008828357035571874,
            0.011183126999254767,
            -0.10614224141869413,
            -0.12088524113501026,
            -0.09064819993483005,
            -0.04414233071919554,
            -0.12437454800824242,
            -0.046138337448885326,
            0.12929168643485564,
            -0.02313890087783687,
            -0.3081781599580455,
            -0.0869627497569332,
            0.03672259783959569,
            -0.2541773387772865,
            -0.08624986651595191,
            -0.19236652965186635,
            -0.21070555399486715,
            -0.10141976397792107,
            0.12117633168617038,
            0.10050405631731231,
            0.04896935905047638,
            0.011329004173571787,
            0.04002569780671112,
            -0.006369561759261257,
            -0.08294562005422025,
            -0.0336847844161846,
            -0.06048284009227382,
            0.021731816047018886,
            -0.04185673415225911,
            0.01995843354216668,
            0.07502199522916293,
            0.020808246292086365,
            -0.04376974939171366,
            0.10988444369841026,
            -0.05171045859522374,
            0.05267895287387472,
            0.15449300483377762,
            -0.04228544109944108,
            -0.20126091302020338,
            -0.08115255625411395,
            0.0040660142018355385,
            -0.1487413420466092,
            -0.05498950461019204,
            -0.2061605569969346,
            -0.017852693492374384,
            0.1701976939962308,
            -0.004670304474464395,
            0.1165090550286021,
            0.004439802472543732,
            0.024438487817275395,
            0.020090427446462313,
            0.025518275754082383,
            0.012576439913461312,
            -0.07446404657789067,
            -0.06162695105155399,
            0.05785619373702307,
            0.01047667328034138,
            -0.008958187616393146,
            0.01002261951120207,
            -0.01962246172714041,
            -0.04315307414333056,
            0.00934874324475562,
            0.018600232725733124,
            0.024290931159096488,
            -0.0657786041015607,
            -0.22351778513999018,
            -0.32347253537644416,
            -0.04317410823033579,
            -0.10006606328199319,
            -0.08511228609391575,
            0.013798752079725458,
            0.12716307792995654,
            0.20634211201462466,
            0.06341293245721288,
            -0.07283675090793477,
            -0.008506218074931966,
            -0.015302642257822456,
            0.07016253097443385,
            -0.01986072552499173,
            0.08146935393170376,
            0.09147010306921284,
            0.0452378983464662,
            -0.026377619353012128,
            0.07471517996475449,
            -0.12138324315942682,
            0.03324299618736981,
            -0.038458096827618145,
            -0.005300373594708884,
            -0.05466340073326832,
            -0.08404743396131592,
            -0.02484329822600683,
            0.09051978125776854,
            -0.004969375206221048,
            -0.05744490476651158,
            -0.12282378288623552,
            -0.1459737163217337,
            0.036135734860926735,
            0.06263975574684652,
            0.10174253435263261,
            0.15860037170343252,
            0.17058857974162786,
            0.06991410618731644,
            -0.02385707366884408,
            -0.01735878185074494,
            -0.0786729509944772,
            -0.09018788554845228,
            0.026990464739133968,
            -0.03475302195563773,
            -0.057992014691460404,
            -0.11709992455147171,
            -0.007462105192164275,
            0.08138415593844536,
            0.028310207743808134,
            -0.006310645547077871,
            -0.09319050607581858,
            0.055200596431555206,
            -0.028405370052727023,
            -0.04262961800940519,
            0.08864121980500628,
            0.053331325468138444,
            0.07626169115794817,
            0.09047555706469709,
            -0.018520499060630802,
            0.05864992076556615,
            0.20947423281664312,
            0.15890169494067546,
            0.017952355809982664,
            -0.006403132998635102,
            -0.0004619908607448775,
            0.011066572967440659,
            0.08009246906331326,
            0.02911973138156802,
            -0.05646861515744586,
            0.0027395747768543203,
            -0.011547674416249196,
            0.02985559722608338,
            0.05178013594052068,
            -0.008316887369889274,
            -0.02319633622857973,
            -0.02079735129198462,
            0.004787662813483989,
            -0.16315517046035374,
            -0.0573936967617633,
            -0.015184507632465946,
            -0.06084019818735818,
            0.004501610050384181,
            0.12079673365733633,
            0.10634368743200659,
            -0.018169322780027426,
            -0.03547421797901741,
            0.07113886627649331,
            -0.06329163645712696,
            0.0802492525024525,
            0.016744888100212355,
            -0.1123378865988344,
            0.02528857543656182,
            -0.09989115758596315,
            0.08249840932452879,
            0.03923130549581223,
            -0.06424938548149066,
            -0.009437214563995,
            -0.0335533087585767,
            -0.002297562476560832,
            -0.04606343917768259,
            0.024219913531937254,
            -0.0713730723395799,
            0.0064515623811853455,
            -0.10655185788865751,
            -0.0653230009848207,
            0.021484980706603263,
            -0.02507393917249303,
            0.058979858131847765,
            -0.05328959779951239,
            -0.08331998003337568,
            -0.0653891812578142,
            -0.06622799963871535,
            0.035794400133567106,
            0.0799563198094414,
            -0.11241985094068177,
            0.051777973063865876,
            -0.006751032289228309,
            -0.03848715491620968,
            0.054761469507265854,
            -0.03796222553368452,
            -0.028906863267492876,
            0.04872662170304514,
            -0.05443306058911418,
            -0.006580743658500457,
            0.054447956756421445,
            0.05418543224034432,
            -0.05292080535160603,
            0.04674289238947937,
            -0.036023501266596696,
            -0.041930913678809016,
            0.004202987574690505,
            0.028726552301447876,
            -0.017385731570953022,
            -0.045424581404111965,
            0.01721223566255298,
            0.03781066076310663,
            -0.027978994731979796,
            -0.11804462947904651,
            -0.08100273364600351,
            -0.03187343167513403,
            -0.06441510602289767,
            -0.05793132039908768,
            0.004320380036167233,
            -0.031165648676186354,
            -0.02656261204488268,
            -0.017491788104685716,
            0.05485836269596207,
            0.014152698251105754,
            -0.04096582324748733,
            -0.048924178660234394,
            -0.0891886939187911,
            0.02138257373608336,
            0.05169355085006816,
            -0.02125306264852425,
            -0.05470363082882302,
            -0.0437879802614303,
            0.002143740917506943,
            -0.08152896565530761,
            0.012811515988185236,
            0.005389128752939096,
            0.021533718575403215,
            -0.04173456156844286,
            0.001162296147360827,
            0.08928948002406226,
            -0.006958336610581157,
            -0.010279792780760548,
            -0.08923787543344183,
            -0.017054047155431514,
            0.07086154208500213,
            0.019642198483506106,
            0.010982715967154208,
            -0.014792096290218423,
            -0.11365307280703121,
            0.02746371615769967,
            0.02347052511788806,
            0.01612357638330247,
            -0.05565585953139292,
            0.018942036943380515,
            -0.004309738331792796,
            0.035232102131661426,
            0.01451616189239508,
            -0.08713738785455319,
            -0.04616701676656933,
            0.007256417483319917
          ],
          "bias": 0.14726767620148962
        },
        {
          "weights": [
            -0.061393962088635574,
            -0.030155808113035178,
            -0.06695463879911256,
            -0.07290062679209909,
            -0.013325626766754231,
            0.014618236611919662,
            -0.05405350721858965,
            -0.04820325844819541,
            0.0028840940516221916,
            0.03515888355629779,
            -0.03781879492991406,
            0.01886474375596554,
            -0.08533126322917735,
            0.01321459358355647,
            -0.024267593989575953,
            -0.056409001704632096,
            -0.0011736997033977069,
            0.04490567714903273,
            0.02528408990682244,
            -0.027092824340465598,
            0.05050627964264015,
            -0.0011381216237971766,
            0.009631806496445489,
            0.018219259271966645,
            0.040089473512465695,
            0.04951427841554747,
            0.022921031920042682,
            0.021462094433987194,
            0.00885593048828605,
            0.017002093504152556,
            0.030322561076756085,
            0.02773135462251994,
            0.03693989359063702,
            0.01873858168387634,
            0.03572713517321513,
            0.02471175679703037,
            0.05819157359550373,
            -0.026721650052642536,
            0.09541543010512901,
            -0.05429890884949635,
            -0.015753425469984383,
            -0.012353473375593085,
            -0.047610173436867055,
            0.011311105380882681,
            0.022582190079901008,
            -0.034913033615879996,
            -0.024451494424958694,
            -0.02237931621910171,
            -0.023568391664769067,
            0.027985838240182904,
            -0.003110733455482543,
            0.029950309296011505,
            0.0108126155661212,
            0.0252926657524274,
            0.02320209131665494,
            -0.03411124686016634,
            0.03221167308407678,
            -0.014157469701944987,
            0.03570960509598586,
            -0.06894879165464775,
            0.02178336547804415,
            -0.06579802628615183,
            0.06509238146575348,
            -0.02678220788440073,
            -0.06593058616510941,
            0.004194800472285616,
            -0.02344613652772886,
            0.05078420325476123,
            0.07626972122628803,
            0.06902029259950822,
            -0.10796119135018836,
            -0.08524458211793472,
            -0.07116229462958709,
            0.015496395126461756,
            0.012012160380650123,
            -0.053132820268429005,
            0.019332342265506907,
            0.04686550735055744,
            0.03407465926307022,
            0.0027197218913636015,
            -0.028550628499577606,
            -0.026698633974267687,
            0.03959714078589142,
            0.01590362923155095,
            -0.06858498649478986,
            0.04299603976388086,
            0.010433705728961525,
            0.0011113816172193666,
            -0.01697811965669827,
            -0.02908268320535172,
            0.012126689999231168,
            -0.004931206044519173,
            -0.009794284094364041,
            0.042105118248762126,
            0.011556602318502545,
            0.09660442133318164,
            0.16413659273413986,
            0.14458520952192866,
            0.1473765381214856,
            -0.08418496736268623,
            -0.13943397128927573,
            -0.26397308171475603,
            -0.18481623287335397,
            -0.09876138765124723,
            -0.06836351666402721,
            -0.04984860295425672,
            -0.04610234352319654,
            -0.08103323614875683,
            0.06672345054839256,
            -0.01250568036169088,
            -0.08001535602484398,
            0.05245981160733602,
            -0.017696930204929517,
            -0.007876075675638769,
            -0.0303385999404825,
            -0.02122718884964531,
            0.05523892832206923,
            0.03556740291527735,
            -0.02179517069011428,
            0.08349139017487343,
            0.11345677361865826,
            0.16320716981302666,
            0.1670102525799664,
            0.14836096399587476,
            0.19659165055296968,
            0.36600629883179536,
            0.17712491973630234,
            0.15497353425230895,
            -0.012702786135995658,
            -0.19983851276538736,
            -0.146083732088338,
            -0.1674544473467435,
            -0.08021701913140906,
            0.0749618597673211,
            0.0398680529920758,
            -0.034188214444875555,
            0.08174294006742916,
            -0.017102369031852586,
            0.10237538361810683,
            -0.002388381943364966,
            -0.0015556624891434852,
            0.06757826618627588,
            0.014398052183229175,
            -0.0379471926383134,
            -0.054738345902589886,
            -0.016482358431299953,
            -0.12032060206645738,
            0.08302942931404354,
            0.007951839027070758,
            0.1215507056041711,
            0.1783191807495585,
            0.20041065530589358,
            0.2013361695091498,
            0.1425869537811209,
            0.3077347542487299,
            0.14205682597448904,
            0.003206702888413677,
            -0.09768784497184385,
            -0.056795935432921454,
            -0.15216200154450193,
            -0.1182345698345845,
            -0.1189457366011291,
            -0.011403930412108826,
            0.02875077372672035,
            0.04303423865476438,
            -0.025480689679830297,
            -0.006927152855191846,
            -0.08683763702763037,
            -0.05555731330733595,
            -0.02629346036241448,
            0.09533477644138173,
            -0.029755096544219168,
            -0.048575277201028014,
            0.017092236732074613,
            -0.10728127677756615,
            -0.02107880435269614,
            -0.021221782043515797,
            0.0963366056843015,
            -0.03748390400572567,
            -0.0538338627706211,
            -0.06825448140278638,
            0.12732765667664492,
            0.2815201005928986,
            0.18462066615980344,
            -0.07599478628523282,
            -0.1921687951351071,
            -0.024212746864356618,
            -0.19427724760171797,
            -0.13976552621702315,
            -0.061701728345093,
            -0.08678059041180562,
            0.0009327969622117987,
            -0.14171033031103542,
            -0.00026245569349556195,
            0.06696035929739737,
            0.0015214208760780104,
            -0.06179925950928175,
            0.00719781230812942,
            -0.03982697013636967,
            -0.05896061336898504,
            -0.04586566460777743,
            -0.03711810558543132,
            0.03359544529582079,
            0.17901247014019495,
            0.20870917762570712,
            0.09844216590418045,
            -0.0671220106411688,
            -0.15919737388674227,
            -0.18638384419662718,
            -0.08178547420782836,
            -0.049519196263333766,
            0.0876442895833694,
            -0.13627429028844987,
            -0.27459535823026765,
            -0.04881107725782229,
            -0.17307665879638595,
            -0.12649645939697293,
            -0.06487131623926527,
            -0.18979141464178143,
            -0.1328279384266421,
            -0.044719656695484084,
            -0.017608537844280694,
            -0.00876461607515131,
            -0.004176892189761437,
            -0.11374808819372724,
            0.030110304211389268,
            0.0941213022569926,
            -0.03429594515233601,
            -0.07126140755914462,
            -0.08978855832681493,
            0.027735044434887734,
            0.04641451935795874,
            0.12185001592815925,
            -0.009326361972495992,
            0.007485613989344799,
            -0.2142799047743665,
            -0.20195098625549687,
            -0.3578249993357031,
            -0.2237525627974438,
            0.013780601597088448,
            0.1054937545589643,
            0.0016079414511335228,
            0.13604969070726977,
            -0.035328828036753517,
            -0.2658896493272987,
            -0.18354102209222548,
            -0.09308393370849169,
            -0.13770058527663628,
            0.08441641832608131,
            0.05924792296410258,
            -0.08427592827817891,
            -0.005319811060848074,
            -0.019579699358481403,
            -0.049127604364995005,
            -0.014392490535754004,
            -0.07942616979947949,
            0.020230858467936815,
            -0.05959081788274643,
            -0.11886599911548473,
            -0.10060608931804711,
            -0.04400840498854221,
            -0.11066764598317749,
            -0.011495897642209913,
            -0.10207956961352804,
            -0.1758049960817214,
            -0.2739914591418685,
            -0.3392402674377289,
            -0.02368395940061227,
            -0.015821663765892682,
            0.00838539915447088,
            0.051932969515111053,
            -0.14726442325675002,
            -0.19400422956899002,
            -0.12345242857691843,
            -0.1978120565958306,
            -0.017811659043115623,
            0.041170120699094384,
            -0.060042620186327146,
            -0.02194237078509899,
            0.010134333619726092,
            0.061104746239661736,
            0.030403661312769326,
            0.0610803033035372,
            -0.00245719637033938,
            0.04652498068431537,
            0.08399415203287146,
            -0.07319130338423253,
            -0.13673585780079778,
            -0.05321724273385013,
            -0.20061397146846108,
            -0.1013779642656908,
            -0.19245102346559925,
            -0.2767353054227562,
            -0.22315250857674532,
            -0.3780537972813928,
            -0.20099537479031085,
            0.004494012300601652,
            0.054466903607446514,
            0.03262245315241039,
            -0.1380529905924533,
            -0.18140983815757608,
            -0.15441625583100693,
            -0.02583360403487272,
            -0.1099715591785312,
            -0.046643771442766095,
            0.04814760810015335,
            -0.03414392178379621,
            -0.022682852136589413,
            0.02460346093749472,
            -0.03621722373407119,
            0.0019148746288189073,
            -0.020782182506651377,
            0.011973853081983031,
            -0.038594182173603477,
            -0.09495510341014568,
            -0.1551500723732837,
            -0.01985592999928244,
            -0.03624960540818212,
            -0.054178883612849726,
            -0.14419012252480087,
            -0.15593098680348358,
            -0.2699441888629167,
            -0.2565435559896185,
            -0.0743071652748884,
            0.03754914244945265,
            0.12062229413616167,
            -0.014078480470451496,
            -0.03612351344885504,
            -0.12409468735291282,
            -0.11601407824320588,
            -0.03005705907651083,
            -0.06935367517846285,
            -0.003641375773415896,
            -0.06292455580969782,
            -0.04631561996129946,
            -0.07595327403974385,
            -0.03176990714309042,
            -0.05719342191761651,
            -0.013050619622454412,
            0.03837152619301886,
            -0.0498416242151257,
            -0.034844290456439636,
            -0.20011541493191723,
            -0.11691100691873849,
            -0.11801382333861961,
            -0.11690304743307985,
            -0.08458666526883957,
            -0.14844596713834535,
            -0.18791096408731184,
            -0.2072349055200692,
            -0.10989616972198343,
            -0.05461713845693522,
            0.160218103780941,
            0.24894638982129183,
            0.05090735642363796,
            -0.08662485591319212,
            -0.032291656087191235,
            -0.028424239167426018,
            -0.030021002460293877,
            -0.016751048717704168,
            -0.027240989412778797,
            0.04128025701090721,
            0.03698585469233378,
            -0.0012888256538737214,
            0.012122038801872717,
            0.004815328096411142,
            -0.06772242444234425,
            -0.031100487983125053,
            0.011278384693271117,
            -0.0191915916603271,
            -0.1452927445661616,
            -0.11197203756767285,
            -0.1593799412190354,
            -0.20290351519223004,
            -0.18890325378248612,
            -0.18796990151066093,
            -0.16593534027041795,
            -0.19925915233216468,
            -0.10757677648842441,
            -0.1142610712759795,
            0.1451194326638569,
            0.06672525835673211,
            -0.09893202710476165,
            -0.08727052095846764,
            -0.19851915327454528,
            -0.023972281279784933,
            -0.08505824785393816,
            0.01766251132680086,
            -0.08318755723962977,
            -0.046400829701056336,
            0.04874392335680531,
            -0.046209895226320144,
            -0.020404652101015205,
            -0.05623527631562544,
            -0.04922869040681179,
            -0.03629322939282249,
            -0.054795105959681276,
            -0.03964000843905987,
            -0.09202048420158172,
            -0.13256900823690773,
            -0.18257052250771935,
            -0.1292581634195253,
            -0.18047936350574229,
            -0.21012802666697145,
            -0.1495759778479544,
            -0.12262726803411762,
            0.0654010608061426,
            -0.16971353197919586,
            0.3175285639121468,
            -0.04805989893124953,
            0.042843498979330846,
            -0.14256937345129034,
            -0.10933842158417229,
            -0.13418471746539706,
            0.03442317933351747,
            0.002234607993337026,
            0.038577031459856956,
            0.05907310613287853,
            0.026997858876206416,
            0.09269934802901489,
            0.003499817497257043,
            -0.05117725070366752,
            0.058755712536004326,
            -0.05192200778611733,
            0.028155121479560622,
            -0.07102367038184833,
            -0.09311528011440387,
            -0.1471540257655875,
            -0.08614329651363288,
            0.06037516878304542,
            -0.09236044476145976,
            0.0018084430763316798,
            -0.018832297561460837,
            0.10129259213165702,
            -0.09014855491024168,
            -0.08860460578537091,
            0.2071900865932963,
            0.06774488793669488,
            -0.045864388658352725,
            0.03414264338558997,
            -0.23668056813465346,
            -0.03837499294550478,
            0.021278279218585047,
            0.07992009657093645,
            -0.044963616291515164,
            -0.007254332569276822,
            0.0011577779373854993,
            -0.04323468501111172,
            -0.08065444871230179,
            0.032130876425273715,
            0.007150428851744492,
            -0.0006073298135370114,
            -0.04899424603032165,
            -0.044011669195964706,
            -0.006472163716355039,
            -0.1321429227975013,
            -0.16364987871635917,
            -0.07516874643973012,
            0.13412587969005585,
            0.10443578388029738,
            0.13282110804052,
            0.08525753568946337,
            -0.04245919561479234,
            -0.001500150096985395,
            0.029778565496889092,
            -0.08243511575660294,
            -0.13476593266751527,
            -0.03184207767145823,
            -0.16749601397894556,
            0.06497094138005231,
            0.05841320888132479,
            -0.010379216480356255,
            0.12208642959992204,
            -0.04828642335079942,
            -0.008420286663496732,
            -0.09915734348820411,
            -0.02503470336679176,
            -0.08440922948435162,
            -0.06817767368187551,
            0.025120590660466673,
            -0.018488604138854916,
            -0.06895229312703682,
            -0.21988728878858452,
            -0.1719536220505801,
            -0.06779606019624844,
            0.15346141746269049,
            0.2410074148160661,
            0.09231152518063375,
            0.014960856131412582,
            0.04297858127819742,
            0.22049164074625985,
            0.11109956015210053,
            -0.15919426449323143,
            0.0016154686235880424,
            0.009520828151880904,
            -0.1200517854685702,
            0.02359850886677954,
            0.06562382238957978,
            0.10102540912171078,
            0.08317445883803652,
            0.012478615219296765,
            -0.009507565743057991,
            -0.0814052044767821,
            -0.04054426368639051,
            -0.0017353130178931764,
            -0.008881061057548593,
            0.10289130939375532,
            -0.10140228781801894,
            0.06080081085507768,
            -0.06505127906087557,
            -0.12015657098057277,
            -0.0060979030829257565,
            -0.0979945132488917,
            0.2700911621777481,
            0.2960196840977578,
            0.1423772595122095,
            -0.029565903784436916,
            0.021707354025457096,
            0.09943088057855595,
            0.12789253466806946,
            -0.08194789499526542,
            -0.0755731176238962,
            0.01401145616038754,
            0.047389411403238275,
            0.13096744922731612,
            0.05967544185885115,
            0.11140967327206382,
            0.10678565572259073,
            0.04449313868720559,
            0.018796195786489608,
            0.006802732077343943,
            0.033572655011345036,
            0.04683930636574424,
            -0.04440276465834527,
            0.05382730939584369,
            0.019807719632715153,
            0.01442645789209439,
            -0.1597957377545958,
            -0.12625494350871344,
            -0.08254463350824816,
            0.06503476691259115,
            0.1218765698105955,
            0.09592639810939588,
            -0.07520943318623309,
            -0.10272304090305232,
            0.16194975936490674,
            0.154225877736949,
            0.039517046824826305,
            -0.055350181065285345,
            -0.1059589046851998,
            -0.18562173137368593,
            -0.059902671127405674,
            -0.0006565762046731227,
            -0.04914277392284253,
            -0.09203765091722611,
            -0.12470450882205578,
            0.004075669390172187,
            -0.019591753080309356,
            0.05247524207242283,
            -0.0015657377971876533,
            0.01113698256149383,
            0.04148285058882587,
            0.03068464119077562,
            0.03572241454639793,
            -0.06181501149644583,
            -0.03308217768719529,
            -0.21990155585166266,
            -0.04778935734341376,
            0.10028089933675909,
            0.1836082772325806,
            0.1027060746753153,
            -0.02936419680833181,
            0.074974540251148,
            0.13465342161847518,
            -0.01770888857489943,
            0.13060352521238397,
            0.03755486498902805,
            -0.0873936165751251,
            0.021447754776805272,
            -0.051973984960840984,
            -0.016180490547447243,
            0.007245775958062428,
            -0.032702311675467666,
            -0.08857331670379866,
            -0.03167514867484087,
            -0.0224896008912876,
            0.030035708752154524,
            0.06421837211834677,
            -0.019929553300166176,
            -0.060288550715928056,
            0.020775825808637127,
            0.012366660189255245,
            -0.01925398478691701,
            -0.07247927439291814,
            -0.2761080206543751,
            -0.02405563739049782,
            0.08349542456572225,
            0.21125854241666636,
            0.2929843594796038,
            0.09390755724296727,
            0.16850787114889476,
            0.2585869725106403,
            0.08089116218330877,
            -0.049695095053360325,
            -0.15370078364555154,
            -0.14097598824851912,
            0.09909558762199859,
            -0.03585948553614998,
            -0.035588100194816834,
            0.18208249071671836,
            0.009163109254030846,
            -0.03676003945479356,
            0.0013432027514936082,
            0.015298566437018532,
            -0.10355132958622561,
            -0.008867623238363,
            -0.07201876405343764,
            0.03634311201620246,
            0.02092107431822556,
            0.03697837502081262,
            -0.06293641676903412,
            -0.01851045674694816,
            -0.15064298557842204,
            -0.11125820296336031,
            -0.0250344817408605,
            0.2736687582903951,
            0.27467548011641263,
            0.11742552440562769,
            0.06915130641474443,
            0.11792622930083475,
            0.0505666722175218,
            -0.0970909703696892,
            -0.04963810326371226,
            -0.1716730169220271,
            -0.061858755721815546,
            0.08452719583408079,
            0.09194478176415721,
            0.12167190605084856,
            0.06828448634799615,
            0.06478687048180248,
            0.01680558315345394,
            0.11453950601065824,
            -0.03393594782099697,
            0.04530779984805382,
            -0.088293664249283,
            -0.05132368908066326,
            0.013887294648722239,
            0.014093710578936219,
            -0.02589619168389182,
            -0.011245564579909465,
            0.016181387453081817,
            -0.13677568960129158,
            -0.11874302182227892,
            0.2167106650047249,
            0.22809498467809836,
            0.10217682416344363,
            0.09499672288449554,
            0.03234603596484253,
            -0.05023907933413009,
            0.09096405058076797,
            0.005471066254298728,
            -0.00801718820190364,
            -0.022141140168656,
            -0.08385185690234374,
            0.0549111520396846,
            0.06924012414169713,
            0.07711049036389528,
            -0.00017175954310485916,
            -0.021091456303113224,
            -0.09884974531572505,
            -0.003444061598679429,
            -0.007259310655511692,
            0.014639355704417335,
            -0.11497771994136417,
            -0.017245939593864962,
            -0.015571177527670182,
            -0.11589383611116567,
            0.05584966302066885,
            -0.014597808487295827,
            -0.08557943433877133,
            -0.05365171750500765,
            -0.006528539253819068,
            -0.022057643740969215,
            -0.019294471481937237,
            0.09087598502386623,
            -0.03010816394686068,
            0.044557499562976104,
            0.08298313760074824,
            -0.02182742566627546,
            -0.06616190219349713,
            0.052457761055840345,
            0.057564778408854184,
            0.06893158252118144,
            -0.027251485629942136,
            0.14871527004365698,
            -0.0003893535138865951,
            0.050565934185789814,
            0.03460781445262604,
            -0.006015672675809249,
            -0.07759364315675003,
            -0.03240806781966754,
            -0.04942279203486309,
            -0.01692875135183824,
            0.044703294879295606,
            -0.02385885044082188,
            0.047010347531138585,
            -0.029101856232807283,
            0.019364098566790052,
            -0.06549300414595374,
            0.055288749030823175,
            -0.006769127753409514,
            -0.03034547497790296,
            0.0026428679896756146,
            -0.047350831685976584,
            0.07783988498254157,
            -0.037359227786101394,
            0.09089334809976407,
            0.08237194954516912,
            0.04597287102806774,
            -0.04943787268775213,
            -0.08018065122122695,
            -0.0661464535844919,
            -0.08589880524668299,
            0.01963650901836993,
            -0.1189181398669452,
            0.00440336726506358,
            -0.007146112229699117,
            -0.0699095094115778,
            0.02930864922350668,
            -0.09284408251983209,
            0.04444909000775351,
            -0.08869131274323572,
            0.0356722715565713,
            -0.032042243139227426,
            -0.07845681636063938,
            0.004950561027357536,
            -0.035359793237228085,
            0.03669596816026165,
            0.08517939419087672,
            -0.02950494340664771,
            0.0738181771744204,
            -0.01007020961259903,
            0.06841582796336794,
            0.05958677330952469,
            0.06193244281640801,
            0.024071393999283836,
            -0.00743081498488954,
            -0.009833312221388796,
            0.02417830994038754,
            -0.09393584423437357,
            0.09302224878721246,
            -0.044622112730041935,
            0.03172872726738254,
            0.016540293040374156,
            0.08743154357004566,
            -0.03971134963181435,
            -0.030954651958640923,
            0.02592062688059369,
            0.0984796897707123,
            -0.0015323263818709644,
            0.003041317415960348,
            0.02341546416075256,
            -0.05743690790634631,
            -0.050601983763925655,
            0.08637492625964606,
            -0.0319962336165108,
            0.0005618730413899536,
            0.008325957010187915,
            0.028534718515440323,
            0.040012413602511905,
            -0.034281572972250395,
            -0.004324075567839876,
            0.006997661011439632,
            -0.027898000584073903,
            -0.05139937799720064,
            0.08940828541356112,
            -0.007692137761361113,
            0.010087862869423423,
            0.028625019332023847,
            0.07250194591172952,
            -0.005108414392218638,
            0.008423760082800935,
            0.028428860890457933,
            -0.017078362163772298
          ],
          "bias": 0.037081756437565894
        },
        {
          "weights": [
            -0.0013558385298349926,
            -0.030102956674894047,
            0.05220363095957638,
            0.05026568500841925,
            -0.04500564847576473,
            0.08912544372423649,
            -0.009273593786743996,
            0.03907664771569054,
            0.025803953373936678,
            0.04748485817511602,
            0.009822492030237386,
            -0.006115532600621382,
            0.009216116041966479,
            0.05001736766128962,
            -0.07024764582782446,
            -0.03886658196175518,
            -0.031038002822537283,
            0.01586862944615857,
            0.03284185434091115,
            0.0704252819122745,
            -0.002395242834302972,
            -0.066400225368443,
            -0.017489447778821124,
            0.039704787218427795,
            -0.17215101726145554,
            0.02818285013424579,
            -0.012940030658031497,
            -0.025814964372470862,
            0.0948820905816157,
            0.01186001584638285,
            -0.04700485367647708,
            0.03147891720534994,
            0.015563354873652745,
            -0.02565160462051095,
            0.08964362605207125,
            -0.022453326568473316,
            -0.06823489976186646,
            -0.03533992843517027,
            0.005921530644383287,
            -0.06799450781688696,
            0.04980525543052285,
            -0.004839783958080404,
            -0.008553940732537986,
            -0.015460419954229289,
            0.045286899542195086,
            0.028209144010549463,
            -0.00225197524018062,
            -0.04164675299197848,
            -0.009276858612871187,
            0.02469539188116202,
            -0.015236578931004297,
            -0.004405953088887241,
            -0.030039136090737485,
            -0.04858865300494872,
            -0.025543140567402402,
            -0.008804799650328394,
            0.02682426398003059,
            -0.033943257596093644,
            0.04724726423297079,
            0.10201351182558493,
            0.02057098464037359,
            -0.03146981995073056,
            -0.03737498406235652,
            -0.05652108743029136,
            -0.025021430275120472,
            0.014160059665235087,
            -0.10755531374215843,
            0.01853565697721241,
            0.03304413148103165,
            -0.05962162918794398,
            -0.004744490116354742,
            -0.09714902289595621,
            0.032764836016681946,
            -0.02992708759403525,
            0.041464066170156196,
            -0.040804269755251255,
            0.029982839842782435,
            0.04181410546832367,
            0.06518097896822196,
            0.13702535380910016,
            0.060235531862271076,
            -0.03358942935045961,
            -0.052115051737806575,
            -0.05111576787484408,
            0.02402562118962821,
            0.09910772920022379,
            -0.020692315659692553,
            0.0004939697490462938,
            0.076391207732447,
            0.006276593805579024,
            -0.013878058724672465,
            -0.05409905163245065,
            -0.04927410316310326,
            -0.057724480977119484,
            0.005781302879084137,
            0.03591084872685477,
            0.026562135624213366,
            0.021273621201784054,
            -0.09703140695547634,
            -0.016009688947519765,
            -0.024957189094917797,
            -0.10714541594585397,
            -0.04854831998412864,
            -0.026207863378687024,
            -0.005149495298069413,
            0.009440671881156697,
            -0.01863402329827223,
            0.020893995814427087,
            -0.02849276655621631,
            -0.07481376338355603,
            -0.07840912477307613,
            -0.06103722816672384,
            0.006746735656683276,
            -0.07360530343556076,
            -0.014164930163433983,
            0.11070627935700257,
            0.00037169584873195116,
            -0.01214737847251255,
            -0.028504592603148745,
            -0.03553964351000474,
            -0.01847024863524292,
            -0.025302606701849324,
            0.08861720600017552,
            0.14765938027705341,
            0.0967298045952192,
            0.031202881411102695,
            0.023730249759712968,
            0.03762137607345194,
            0.014765175685325684,
            0.03791782860402322,
            0.07163175694988776,
            0.08251928277424635,
            -0.0048303511267149355,
            0.07504968455927136,
            0.17393298241958743,
            0.08918863043009913,
            -0.09463847328178833,
            0.0017834285240279021,
            -0.015947833612734073,
            0.037552369286541244,
            0.019237711079301528,
            -0.0994792053222475,
            -0.043288258246954134,
            -0.05336625075104076,
            0.046444072954885514,
            0.10546994216392577,
            0.03682943709605072,
            -0.02229843379357018,
            0.06708319280937064,
            0.10237652971591674,
            0.0950212616822108,
            0.024726873011946853,
            -0.07673971821722596,
            -0.0016461764154801438,
            0.06260287253144853,
            -0.04746087003222885,
            -0.06853198898676482,
            -0.0865482343659267,
            -0.1350835629847976,
            -0.0768103021794215,
            0.1385006998219392,
            0.20289621001245114,
            0.20369876785860175,
            0.3097959156975804,
            0.11301742799900355,
            0.07184212089980593,
            0.040026275769333944,
            -0.023381785350553668,
            0.031520471589913036,
            0.031625990028953,
            0.09249659417622066,
            0.06563440591645148,
            0.007580561731137846,
            0.013806789234797622,
            -0.07626826764026527,
            0.03252564853817809,
            -0.004281035665759995,
            0.018467976220691053,
            -0.20846146125161347,
            -0.15980462381570304,
            -0.10986213301643029,
            0.017524639847064875,
            -0.12397697351208,
            -0.1071912355143538,
            -0.14075617853258005,
            -0.1084697910375433,
            -0.10625837865268957,
            0.011948283820563944,
            0.2181904801781412,
            0.09456038613139646,
            0.13275025639134982,
            0.1720347308989673,
            0.2748723385687616,
            0.07239250672298912,
            0.08360721815647397,
            -0.032115526532674195,
            -0.038146977338277155,
            -0.0672484018923162,
            -0.029901261552964426,
            0.05138300862809469,
            -0.07570886385338893,
            -0.005859942552555538,
            -0.035950475303072715,
            0.007052085163720338,
            -0.006289454894761582,
            -0.10496735094388772,
            -0.2231354052800088,
            -0.2927124284568781,
            -0.08839990401153663,
            -0.01602185489573364,
            -0.23997322060531753,
            -0.1545392560111694,
            -0.07793312228079267,
            0.05295667711177091,
            -0.055112403680564345,
            0.008545438203574613,
            -0.004347668728271566,
            0.04027674734645,
            0.16719143806351364,
            0.31051190420533226,
            0.3403202430574813,
            0.14751245322566536,
            -0.015203707056290464,
            0.0011245047987571075,
            0.03187572488858611,
            -0.005199188004695399,
            0.020418116790382565,
            0.001727044500366666,
            0.027949398857473263,
            -0.09830351430463158,
            -0.045553143341855264,
            0.000446300242523021,
            -0.009719703134068622,
            -0.1710802303000737,
            -0.4936199001942947,
            -0.5375373349985905,
            -0.3475852348649173,
            -0.21945298548952996,
            -0.15688202750376531,
            -0.21344551318191918,
            -0.11043521502810588,
            -0.04702754238788685,
            0.09000786361995863,
            0.2472341855710219,
            0.16362539301011012,
            -0.09909774217260998,
            0.006851577827427537,
            0.10760485164558053,
            -0.041371677435478975,
            -0.16586285949690785,
            0.0010833625770689229,
            0.03725259651431852,
            0.009600731487437094,
            0.040604635969774656,
            -0.014493559094270117,
            0.09672139143925824,
            -0.06632090946756836,
            0.03270612310494795,
            0.03910557431139885,
            0.03274033723855084,
            -0.18447050906634946,
            -0.23650673645359369,
            -0.3843631196505853,
            -0.40161596946542544,
            -0.22635123275872412,
            -0.0014731316474540666,
            -0.019667415235336255,
            -0.09545047055629212,
            -0.20634787693305331,
            -0.18958480789311247,
            0.07971354631475389,
            0.5547401185400693,
            0.3507190768190116,
            -0.08140907229269019,
            -0.06159395445563938,
            0.09227846163007122,
            0.025956011518682428,
            -0.05003393604773461,
            -0.014179327352333517,
            0.08582976850087336,
            0.08747854376886943,
            -0.09882466928486108,
            0.07632580982735465,
            -0.02892737336042145,
            0.10187780453049872,
            0.10173342516305632,
            -0.021039748266958015,
            0.07185660483285554,
            -0.08781949699607575,
            -0.1344789102164426,
            -0.25767154895807626,
            -0.1109887538806742,
            0.011037222411759902,
            -0.19418756324914788,
            -0.09421624886822115,
            -0.05728760913072943,
            -0.10897889804697637,
            0.06414476191988562,
            0.11154183185498721,
            0.20894394427862778,
            0.11790961956873669,
            -0.07038603357091552,
            0.16502731211755328,
            0.18428464860391605,
            0.062495145077253796,
            -0.0836556387021164,
            -0.033851045634202145,
            0.013840089027922445,
            -0.02241892738569496,
            0.004989705310200437,
            0.09679944907857935,
            -0.06155794130877937,
            -0.0006294005838148297,
            -0.018516181183334025,
            0.004708882626975041,
            0.30481196055300114,
            0.16830010243736665,
            0.1278285019635252,
            -0.047123617870715506,
            -0.3057489038599643,
            -0.18101610024891845,
            -0.22771288793228417,
            -0.07107636773239542,
            -0.11785163856398585,
            -0.0802249174845111,
            -0.04525257231311853,
            -0.08131780262551644,
            -0.02275427561743624,
            0.04000462951971076,
            -0.13818426254198937,
            0.0901328846408504,
            0.11153647034617982,
            0.08770129540171026,
            0.012993453169858307,
            -0.04635375319340837,
            0.008903630256734124,
            -0.02714997423784682,
            -0.023549036026026343,
            -0.050880742277180965,
            0.01761934203684465,
            0.1749952559796369,
            0.08282985893700133,
            0.04791212276742482,
            0.11164580462285359,
            0.11829735773462607,
            0.20265605832528863,
            -0.15245323125251178,
            -0.03084067754822864,
            0.005205296025745763,
            -0.13115017683928837,
            -0.1383331724619435,
            -0.4327607896629414,
            -0.45825004087264165,
            -0.4094029337792158,
            -0.4595568125943282,
            -0.16487389662415758,
            -0.31468223175058896,
            -0.1108909510674242,
            0.10608166924187862,
            0.2129030770240109,
            0.15213219038201525,
            -0.03938583436816775,
            -0.03293039753106146,
            0.10737988900047565,
            -0.023972734778042935,
            -0.039385334208749886,
            -0.04890433612402722,
            -0.0690289767372183,
            0.16660454158690696,
            -0.11017407856309358,
            0.2154725274342181,
            0.227656401672465,
            0.20238789050545566,
            0.10438922822250045,
            -0.04579076623258442,
            -0.08834014463757733,
            -0.16041688761233325,
            -0.17371790739212323,
            -0.20032639573915084,
            -0.4049434683890936,
            -0.6119751917087615,
            -0.6655168693629744,
            -0.239581507526717,
            -0.15859817670217044,
            -0.26375878589549695,
            -0.1525201889260249,
            -0.08595632229562342,
            0.2652043041313746,
            0.029361682833733846,
            0.09298092574630526,
            0.04031093486041998,
            0.09621828853729784,
            0.026570815557060885,
            0.05492052927322544,
            -0.059222812500067334,
            -0.0760592588820274,
            -0.007358105764569305,
            0.25210873653930216,
            0.29560829118639875,
            0.3905024445123995,
            0.17599010898925085,
            0.2147994143652069,
            -0.25347634483735904,
            -0.16088621639620226,
            -0.2733526745354303,
            -0.37434965072733334,
            -0.3609494655961069,
            -0.4403135319706266,
            -0.3930606990416535,
            -0.18676772136580047,
            -0.21841463006216486,
            -0.14295097662668427,
            0.18870817713210808,
            0.3003772891706024,
            0.20097510569987834,
            0.1631466850581906,
            -0.04320101509118613,
            0.0006333247256006181,
            -0.038335123499806854,
            0.0794132749463579,
            -0.06287065003880522,
            0.09681526844031277,
            0.0027332157330892622,
            -0.11177228866233106,
            0.012275529353706103,
            0.37663663778800727,
            0.38387765544571445,
            0.34611190622002336,
            0.3371377860122264,
            -0.08406949794875837,
            -0.11041135903440652,
            -0.08876105700087276,
            -0.24519462932775582,
            -0.26614376882627877,
            -0.3940521138653425,
            -0.19134162531645516,
            0.052231898819027074,
            0.05971029015857594,
            -0.01476160023082351,
            0.10462210254686108,
            0.18100545374832608,
            0.19243260437836376,
            0.16262766564623987,
            0.039613983842300166,
            -0.020880896859277947,
            0.0028923050459608263,
            0.026025880980081288,
            0.06733552578004891,
            -0.007484040666994448,
            0.06725555095337281,
            -0.06926902328224284,
            -0.028411286201545365,
            -0.05335149562781186,
            0.15689200047441754,
            0.338828875654309,
            0.5191916975570047,
            0.1802419097287785,
            -0.17218165474041877,
            -0.2646876643373075,
            -0.32146376567143986,
            -0.2796240237790484,
            -0.40772923280259615,
            -0.15710977995487252,
            -0.06228660762721763,
            0.052606935335935,
            0.15616572166308704,
            0.09854843098328486,
            0.2008396139772822,
            0.2850908557795905,
            -0.024399483344398416,
            0.18432030176919437,
            0.00867907951056571,
            0.03788333080019368,
            0.04679626193528324,
            0.03148986358310778,
            0.0033443224468370216,
            0.051759310612378144,
            -0.014690516216500122,
            -0.006550966779197481,
            -0.15083292476889992,
            -0.08549314110718167,
            0.143513113386259,
            0.3843608023668456,
            0.6812832940311864,
            0.18051098637461588,
            -0.38604739791611187,
            -0.4241179182111667,
            -0.41732580562967986,
            -0.2404181884772512,
            -0.11843659587506047,
            -0.1883740534905353,
            -0.06729720759250689,
            -0.04030313190330035,
            0.010419987011110092,
            0.14766486636445078,
            0.22222283169891252,
            0.05622714323673875,
            0.10811790172969842,
            0.30131504735092907,
            0.15747192370618207,
            0.043669445139311855,
            -0.064009047156161,
            0.04275401336875171,
            0.013863337303456642,
            0.07723703479126402,
            0.010160544385998666,
            -0.021103830652291388,
            -0.12155426604254661,
            -0.09574139756870273,
            -0.03763527171281539,
            0.5443399877896707,
            0.7795229774132525,
            0.15009206035514625,
            -0.3390392111524674,
            -0.4109062856360787,
            -0.3336676957002407,
            -0.18885623196292214,
            -0.10812754652164663,
            0.010442441460851304,
            -0.01497305853418812,
            -0.03880272150770907,
            0.052040527720508704,
            0.03885290655830229,
            -0.08931571860256496,
            0.2478772602181483,
            0.26009743030767374,
            0.23571423623600593,
            0.2406047350006034,
            0.04964147465922143,
            0.009737124813337019,
            -0.021131300433155725,
            0.039187713554389894,
            0.06941061738814883,
            -0.017955090755418623,
            0.0769312473752892,
            -0.11407173960048178,
            -0.09472997912489994,
            0.10805583350038667,
            0.4189448985701188,
            0.4509040462524428,
            0.0954893811615841,
            -0.11574403267625234,
            0.0831585750750156,
            0.09489630438842699,
            0.023645937188647412,
            -0.0053892976766999195,
            0.054972070175728034,
            0.032353423473505734,
            -0.14014161816447682,
            -0.11602320346658611,
            -0.12049712815984372,
            0.01992236052044381,
            0.1400806624862308,
            0.28907779627272334,
            0.3140404519902989,
            0.005381981312802981,
            -0.15368383088074675,
            -0.04403519097553658,
            -0.01102022379139336,
            -0.05557825644736531,
            -0.06347292994036063,
            -0.044728368371745694,
            0.021422193227444247,
            0.04796872941106264,
            0.07590554238952876,
            0.2189232231795641,
            0.28831059499203715,
            0.459346367910839,
            0.2592856090339386,
            0.0990642605282735,
            0.13883152858812894,
            0.12212631471811772,
            -0.09268985577652293,
            0.07486167602010772,
            -0.28063527282381034,
            -0.1793712001646639,
            -0.21868985789419823,
            -0.331607438252941,
            -0.0352724872670129,
            0.02483621702447264,
            -0.024195299369911334,
            0.061171575111916156,
            0.14724449063540898,
            0.03827435803866741,
            -0.13731221837064575,
            0.049113026593471616,
            0.05341243935903189,
            -0.0013744723083641802,
            0.008861144214016192,
            -0.0012444375868885162,
            0.048744457409775746,
            0.07902593717246534,
            0.08595853312650469,
            0.24147545028520145,
            0.3883868173361872,
            0.4006824479318406,
            0.18736775312105292,
            0.0449486359029327,
            0.027630593980921433,
            -0.10425428541526904,
            -0.0804996521367678,
            -0.1692217958329626,
            -0.01815263638092204,
            -0.026635414090337484,
            -0.22881690109925712,
            -0.04245893276867258,
            -0.29017681613644003,
            -0.035363788344369436,
            -0.12316413240676165,
            -0.13820570769497703,
            0.01459033065319124,
            0.03386444860175646,
            -0.01305030642874288,
            -0.07412460243888266,
            0.13852014442164673,
            -0.05209028686241081,
            0.015290643598348915,
            -0.028252013982436444,
            -0.01901381762654053,
            0.07537143782864564,
            -0.01527493560359897,
            0.09998270032767949,
            0.21243983374034997,
            0.37614284652687585,
            0.2155342561001,
            0.15812730133419695,
            -0.05304446192069549,
            -0.03261839987640194,
            0.030461354220217507,
            -0.022919163974685793,
            -0.10056087276285845,
            -0.21489772000472132,
            -0.16269978827719433,
            -0.12296704399047659,
            -0.15459413408031533,
            -0.13977535459008844,
            -0.1186788498161631,
            -0.0290607367108306,
            0.09992577045621621,
            0.0673145561905702,
            0.019435685733767014,
            -0.007817700977332453,
            0.0022910288444894797,
            -0.03347014704756413,
            -0.03970881446968897,
            -0.009815258585700771,
            -0.06791987350254927,
            0.0012450213220584895,
            -0.09577636451502367,
            -0.01949156078157304,
            0.1968299048300367,
            0.3000546527250599,
            0.08752257925866741,
            0.03638959284922473,
            -0.06455207111247738,
            0.03673109856378078,
            -0.05663453612810992,
            -0.2299400240443372,
            -0.2023601312502975,
            -0.07238733824042919,
            -0.23791739930097064,
            -0.29403869526999943,
            -0.32385463230974143,
            -0.18578087169961088,
            -0.08807080906506715,
            -0.04401767948765701,
            0.047575430001039594,
            -0.055497757223723576,
            -0.037768506420813704,
            -0.08408381475924595,
            -0.06354010347459477,
            -0.02176947220321057,
            0.03178880959898757,
            0.011903467899296331,
            -0.02309225912218758,
            -0.030613553752796722,
            -0.039206423087917545,
            0.005183878867844325,
            -0.08946886811977856,
            -0.059852189698750516,
            -0.02689710139935084,
            0.17032713303722513,
            0.21005213032166511,
            0.12023265493842658,
            -0.003971821431946768,
            -0.1595817379115446,
            -0.14571013506807248,
            -0.03765393606075955,
            -0.34524733670636865,
            -0.32292769314856157,
            -0.21321815983485892,
            -0.07948530672721661,
            0.1064979334210193,
            -0.08633520815295789,
            -0.0250539166396788,
            0.09926618196679343,
            0.02666054393542662,
            -0.014058365812387095,
            -0.007163190382245302,
            0.009369788372967649,
            0.005795414803845415,
            -0.00025599800814620334,
            -0.0523763011188447,
            0.10191997579114567,
            -0.034051005824101914,
            -0.06650728514183915,
            -0.0635772439024103,
            0.010531907325182045,
            -0.1096681760531671,
            -0.04305379900621828,
            0.1919289498489717,
            0.09953861071075257,
            -0.012723479137846539,
            -0.11046876055741801,
            -0.044737047945449554,
            0.006672019356642698,
            -0.13572506925822578,
            -0.10803191586810201,
            -0.13998452805494135,
            0.037656642247227964,
            -0.07470661422348933,
            -0.09190974367488278,
            -0.09182341403726925,
            0.0409346925832225,
            0.052263378694649476,
            -0.05027286339994469,
            -0.00033177458835047756,
            0.007785855549630459,
            -0.02341033188448098,
            0.02143389171945073,
            -0.09511419370757047,
            0.11553547086074151,
            -0.04389258032024351,
            0.023947361798972656,
            0.008153213833494497,
            0.003324221951282481,
            -0.09261257084350984,
            0.025919618975090604,
            -0.006468926197416411,
            -0.018118890354244174,
            0.06979326580272911,
            -0.03340582075626801,
            0.016337942671726106,
            -0.037806873331227536,
            0.11152414372480204,
            -0.0989425836560013,
            -0.008861672201946828,
            -0.032158954950637676,
            -0.0002611460106406163,
            0.05496808378660982,
            -0.10285461960160937,
            0.008372215157596672,
            -0.024227161977980728,
            0.04175306330662478,
            -0.034313843546867714,
            0.030797366471835542,
            0.03503081486782519,
            -0.02605914426202196,
            -0.01666396745847664,
            -0.015303121501590859,
            0.0529028312006735,
            0.017517316303426525,
            0.07095118063218854,
            0.02987825371699421,
            -0.08713010377430042,
            -0.037983502076579,
            -0.06808123154336025,
            0.04268309267187995,
            -0.04202894916938159,
            0.021803942704490775,
            0.04217562430965185,
            0.03621199349519773,
            0.08698973502240305,
            0.08651515100624033,
            -0.10884151585605041,
            0.020485390213051072,
            0.07467293802922084,
            0.010082771597837398,
            -0.06574379293622848,
            0.07363508581478719,
            -0.03150779568109005,
            -0.05218390920318678,
            -3.300837857777193E-05,
            0.04129686415336618
          ],
          "bias": -0.3543666373605243
        },
        {
          "weights": [
            -0.00434596186017517,
            0.08005815098676461,
            0.007370096734300645,
            -0.07113487135132746,
            0.03318144765091427,
            0.054378518760419714,
            -0.003228312873791734,
            -0.09041826121014486,
            0.03661637723055521,
            0.024717649383388787,
            0.022700245996117703,
            0.06991805488219176,
            0.004226494219085089,
            0.014615443661558735,
            -0.04766189185922411,
            0.0008495326968370608,
            0.06128272055594352,
            0.006091032344999091,
            -0.0886334283038625,
            -0.007620661622321221,
            0.020424276788461284,
            0.06323314874611242,
            0.0013118364053473696,
            -0.055132959563276546,
            0.09381923543749024,
            0.0690386120480377,
            -0.023952345903371523,
            0.018389774367165497,
            -0.043033852153862365,
            -0.024439522697900843,
            -0.051883466714043286,
            -0.021503975778710778,
            -0.02780695504429224,
            -0.025113564093059763,
            -0.028974621433591648,
            0.029804141674791337,
            0.008838700875289518,
            -0.054869603975706116,
            0.02854302560886858,
            0.04587794521873324,
            0.12122837368894945,
            -0.029811520102607746,
            0.04105603362292539,
            0.030506991934262814,
            -0.0442503570029891,
            0.05453490080042813,
            0.030013970827992884,
            -0.011288029373631808,
            0.054932638324925266,
            0.0296131873134882,
            0.0727965527451058,
            0.04347270349097096,
            0.005096973010217904,
            -0.030230457517755976,
            0.04253725105190194,
            0.050210317299627195,
            0.01610717487821749,
            -0.014879570343170334,
            -0.034319854736886174,
            -0.07368794339175903,
            -0.026333087845988028,
            0.016723208095351483,
            -0.0003158928072449343,
            0.09788273598724415,
            0.1011202198269902,
            0.00800019767327934,
            0.1783279560707578,
            0.1924395743455955,
            0.1228389496937092,
            0.14301507278296482,
            0.18730728902158922,
            0.08291513004602855,
            0.03888666528567403,
            0.06003643225297463,
            0.0976748380213284,
            0.023422010519610667,
            0.037608509697116536,
            0.13227360316435074,
            0.1408212609103746,
            0.06678665635364335,
            -0.01814955229296156,
            0.006081471089067217,
            -0.07737242831422182,
            -0.07451623992010505,
            -0.029086759681765186,
            -0.07683437910018863,
            -0.011492714516824593,
            0.03320686565476899,
            -0.04244812938076349,
            -0.04793403702836979,
            0.024876913001265613,
            0.05503278390697782,
            0.159138118722831,
            0.2016133826161079,
            0.08664707244184512,
            0.04056718923377635,
            0.005068526329101268,
            0.09998948208304695,
            0.08388500274794043,
            0.1732711231832713,
            0.22144265043390304,
            0.015336342729901422,
            -0.09767764086672721,
            -0.050414598502296806,
            0.038874653225188,
            0.03546057554168985,
            -0.09212734571001355,
            -0.15646961493397235,
            0.10903559001672443,
            -0.02394214336516105,
            -0.04095590701490578,
            0.03063103935954056,
            -0.04803486210811851,
            0.030441462354046427,
            -0.012137640806616803,
            0.04754882076793621,
            -0.022424381749730393,
            0.06775875180714207,
            0.06583089408267287,
            0.07806385324007606,
            0.044674259281234925,
            0.15581999640315525,
            0.15266094504153987,
            0.07059063142116381,
            -0.1934476311782642,
            -0.20235573700040196,
            0.02424833706920987,
            0.032469969703233785,
            0.10827230795914902,
            0.2108008276185449,
            0.015342516291425594,
            0.001224054180742394,
            0.025946771725775586,
            -0.026317319246466266,
            -0.2270427368827124,
            -0.21383593332092962,
            -0.2059450726426891,
            -0.03310071130359229,
            -0.03990664144772922,
            -0.04591881801450911,
            0.06099413791265823,
            -0.030041589881769155,
            0.019041928752696554,
            0.009970681885294305,
            0.011156131644363515,
            -0.0882361258006142,
            -0.11718348308520432,
            -0.05180643787919539,
            0.18950035032578755,
            0.17183354863167208,
            0.1430494036405591,
            -0.14996937195216725,
            -0.25623333373250434,
            -0.2899774826431006,
            -0.20320918227760132,
            -0.038615851844197586,
            0.3560204274454924,
            0.3805257955141524,
            0.10726810943278406,
            -0.18016922945940522,
            0.07949681991821773,
            -0.1193534343657668,
            -0.2816804529906156,
            -0.23468672389011627,
            -0.2412060124499694,
            -0.09096008760023729,
            -0.11146350335674929,
            0.05380178868268574,
            -0.028252439653742252,
            -0.06527234262213379,
            0.0028924806157568463,
            0.043680942852535695,
            0.00955711365155587,
            -0.04718858902336131,
            -0.13759275839370824,
            -0.15458139514326402,
            -0.1516659370093567,
            -0.03657836514170791,
            -0.13471970183495768,
            0.12671068498163543,
            -0.024434635478944037,
            -0.17405843513824779,
            0.09150970282543275,
            0.06474998026206359,
            0.1978125128075239,
            0.1333082570402839,
            -0.24545824326609886,
            -0.30454487333571795,
            -0.260470320478539,
            -0.1350438268716691,
            -0.2838465854879155,
            -0.2836646633068216,
            -0.17428711615721068,
            -0.1320845664332567,
            0.07201031121286043,
            -0.018258658779123655,
            -0.03713587553917336,
            -0.0038305110195770743,
            0.030972927214005394,
            -0.01765358888424185,
            0.02269288574599672,
            -0.12027634084346507,
            -0.14203035224372698,
            -0.05803867826037836,
            0.18280777880112004,
            0.042140455694500346,
            0.13387870426235532,
            0.23688317859669536,
            -0.014717147483962927,
            0.015585891179424249,
            -0.38208962707220556,
            -0.04660245054823019,
            -0.3750482580654962,
            -0.4869556553750368,
            -0.44484251465525493,
            -0.5676225910068375,
            -0.385261961237679,
            -0.3979444034970457,
            -0.40328964631191005,
            -0.4192710287099912,
            -0.18269725854441388,
            -0.11187788967707424,
            -0.04718778764033899,
            -0.020903089013367092,
            -0.01928014741025908,
            -0.021560291731311156,
            0.015472061970376809,
            0.019948787134375954,
            -0.08502998928127435,
            -0.06622082330956272,
            0.1593843284939855,
            -0.01165459166965944,
            0.27802325227995217,
            0.026120812579317813,
            -0.0439283082608284,
            -0.052997271866027255,
            0.0007601691678723255,
            0.11588852496618007,
            -0.09583841130250917,
            -0.3553143186305534,
            -0.5979108745914813,
            -0.6573161282664355,
            -0.45404490480868315,
            -0.37254385248908595,
            -0.40066696408087416,
            -0.33807510735299867,
            -0.406150945052144,
            -0.41641589045674615,
            -0.18314917855204732,
            -0.12572196469535019,
            -0.06399688202053931,
            0.02906494381639982,
            0.06960436484570597,
            -0.009473075881529252,
            -0.035462720073358545,
            -0.014142565079212247,
            -0.16651961858648598,
            0.005999884023439173,
            -0.1497004079471675,
            0.028291309098439774,
            0.011853227841943778,
            -0.07783180083421767,
            -0.17439178509721617,
            -0.043267152561907045,
            -0.007221044036223968,
            -0.010195896425692052,
            0.0828117651459007,
            -0.2555008425559182,
            -0.607532591188354,
            -0.5474424176338492,
            -0.4306191997081574,
            -0.4981713165518462,
            -0.35423113669933226,
            -0.4500736231243366,
            -0.5271777720018639,
            -0.30131871825777573,
            -0.16361583998371207,
            -0.14486833149921988,
            -0.02399411930275972,
            -0.03221879026898959,
            0.036462597188578916,
            0.04457750561881709,
            0.011495624415709432,
            0.019682796321963972,
            -0.029646445183616723,
            -0.031318756344806846,
            -0.04328269697323785,
            0.024688025636550905,
            0.07979948511112131,
            -0.25160966117668787,
            -0.44165749588025977,
            -0.30347830165434214,
            -0.1264600186084346,
            -0.16219045305071403,
            -0.14505777035300768,
            -0.2846154501264372,
            -0.5877367197819227,
            -0.636904123964974,
            -0.40020385032054534,
            -0.3330152510838819,
            -0.4052247174604799,
            -0.5016211691622415,
            -0.490155132767509,
            -0.2142343940382751,
            -0.08773078111128041,
            -0.022188047117622796,
            0.00386872389616693,
            0.08229413701064642,
            0.034018856981439194,
            -0.0443460960650758,
            -0.07452201089708768,
            0.01207998560274642,
            -0.12808409354862757,
            -0.12459577428315796,
            -0.029174519940944395,
            0.07434848561889115,
            -0.005770906211327091,
            -0.0353970326260272,
            -0.34082664466894497,
            -0.16853810351599996,
            -0.24386391678870625,
            -0.32062578910784073,
            -0.2901040729658197,
            -0.4187438705994369,
            -0.1754933439070766,
            -0.29022616344902435,
            0.0046933697309336645,
            -0.051011758988501625,
            -0.14857786131031675,
            -0.268956151357151,
            -0.18417684692728578,
            -0.04566022190632328,
            -0.0004956421047960592,
            0.04407427958072675,
            -0.04786455731364818,
            -0.11307623224911889,
            -0.13545636996201924,
            -0.0027175582050193202,
            -0.022730820421401038,
            -0.02038827987433041,
            -0.1642355633855647,
            -0.24856279057912395,
            -0.19445401884778407,
            0.07085710279872466,
            -0.1988435282257117,
            -0.3537281559907677,
            -0.3822014004108145,
            -0.05575385021392871,
            -0.1023973007696275,
            -0.39204959317173016,
            -0.18617278316239072,
            -0.12652874190831379,
            0.27674921082136833,
            0.1257729322208374,
            0.12161621265459532,
            0.04430888883106291,
            0.17599065223241583,
            0.3028463271553724,
            0.07311117516236228,
            0.1291696382363002,
            0.2784884735378228,
            0.016847000896867893,
            0.0008232797724010938,
            0.003364672807156665,
            0.0346489828137092,
            -0.0037495826812631253,
            0.05567172194344421,
            -0.09416717373990686,
            -0.10003120859321527,
            -0.08677582269433065,
            -0.14796783404552846,
            -0.09759188659721175,
            -0.2936981358338221,
            -0.3505186378273483,
            -0.07543563115128599,
            -0.020346270918906947,
            -0.1757858110067027,
            0.02600777022598308,
            0.04372496773255046,
            0.3670558345967869,
            0.6636197229364637,
            0.08577938506737823,
            0.336587090357133,
            0.2908256737484697,
            0.0701979225295092,
            0.2606310338411223,
            0.33805994915951876,
            0.5270726256502055,
            0.35483391145633275,
            0.09828145772536616,
            -0.03754448101516413,
            -0.009833639036638824,
            -0.030380601144469478,
            -0.038940324766906946,
            0.003259013134219774,
            0.17033482908695474,
            -0.0039974553923135155,
            0.020253820871889785,
            -0.13771098626012127,
            -0.12239993536208439,
            -0.270488437231169,
            -0.12632639998059203,
            0.155053389081971,
            0.05582043268441936,
            -0.06507881454239832,
            0.17955504449262363,
            0.20640875098607694,
            0.5522843848153831,
            0.40088243293687353,
            0.0035882243311633703,
            0.31302684871220815,
            0.3508241547817418,
            0.2066506529200592,
            0.39021203442642066,
            0.5416157772580705,
            0.3711064162878132,
            0.1161179578322966,
            0.0677046817447272,
            0.05099405194879364,
            -0.06799003206570685,
            0.06891909160132365,
            0.11755899765352963,
            0.047864254179010184,
            -0.05606509053647375,
            -0.1249710022786053,
            -0.03555351197598679,
            0.0006598012846099546,
            -0.1378658105975557,
            -0.3224893593249737,
            -0.25986381115648977,
            -0.03259998725843276,
            -0.024539885593524956,
            -0.01800563972944875,
            0.23022203891759743,
            0.05164556682900561,
            0.18227566945198764,
            0.2931659937540662,
            -0.04975638811683116,
            0.08588730403555447,
            0.33156608815784017,
            0.41945544545048064,
            0.3365649054344032,
            0.13688970462515654,
            0.012956111643703088,
            0.146935192018827,
            0.2508010002535274,
            0.03567983876487476,
            0.003896207215321009,
            0.014716131738971776,
            -0.002607225888701897,
            0.03739263591734443,
            -0.058077889998917144,
            -0.03667054615232661,
            -0.06392267309064947,
            -0.04090524576998355,
            -0.15842551662172494,
            -0.19309431881128458,
            -0.14477675930434852,
            0.010817781304211972,
            0.046924504739759655,
            -0.07395348048488302,
            0.07167132122788963,
            0.022483225654266505,
            0.15453426495987171,
            0.17496956202898775,
            0.06550743704607676,
            -0.03715478881074821,
            0.11658837692513419,
            0.2368499669774868,
            0.09988219731952548,
            -0.003301447626647576,
            0.2618036626222407,
            0.14728893192954326,
            0.3317153379868161,
            0.057284600545002874,
            0.1332201637244929,
            -0.03036534829629956,
            0.010056613144313366,
            0.04371486538422638,
            -0.07875847868171922,
            -0.09444412204169038,
            -0.22676662223604355,
            0.1234040874949902,
            0.021274929166246865,
            0.02757506080592842,
            -0.21764118319698555,
            -0.13040828642846256,
            0.034850538624070546,
            0.05463218209913887,
            -0.0524373176213862,
            -0.21453533940132227,
            -0.044696756083920715,
            -0.021814989821868816,
            0.17763546209689388,
            0.00047099841230413726,
            -0.06673498888825027,
            -0.07134444672774777,
            -0.1121346152822867,
            -0.18527973762365585,
            0.10070513967684419,
            0.028287414461186086,
            0.20040554359895285,
            0.03556319226487155,
            -0.037107986645444985,
            0.017873913449985204,
            -0.02116707249328735,
            -0.07343403794258467,
            0.04786415323341534,
            0.06955204665886598,
            -0.18435439704683235,
            -0.009309703172033681,
            0.3025139277671613,
            0.03066765960767386,
            -0.16137209108227896,
            -0.1588049583934693,
            -0.10584600897644107,
            0.24553410712096937,
            0.1955426723653267,
            0.1866444805153716,
            0.22907844816849063,
            0.13251876167919235,
            0.29090559921404385,
            0.053748121754294345,
            -0.15194522088879642,
            -0.37325091357711665,
            -0.3163774256662825,
            -0.2303337647182705,
            -0.08536514224440903,
            -0.039629854637601616,
            0.028883481736606507,
            -0.03360234545638551,
            -0.015110035645708382,
            -0.02618722721489301,
            -0.014634908719870329,
            -0.04966885478746555,
            -0.022225578751325102,
            -0.006595128275627825,
            0.15365771487595853,
            0.16047816055502317,
            0.4794848948504408,
            0.27560636633368396,
            -0.01755612086613546,
            -0.024686106886910954,
            0.10760137645824519,
            0.3583115946101022,
            0.2567826295627793,
            0.5291531870037207,
            0.46039299351629337,
            0.24999255712042182,
            0.06286785678060505,
            -0.08069748652275856,
            -0.26223387716900354,
            -0.21916952903586093,
            -0.03007165283032404,
            -0.07029155262022398,
            0.09811441568413336,
            0.08375133705938488,
            0.006257191148433479,
            -0.012138673411041762,
            -0.015119537921357269,
            0.019286952364371966,
            0.0017488309693939198,
            -0.06399979465994997,
            0.14269896370673557,
            -0.023065146338021498,
            0.04791044831776134,
            0.012545779767488191,
            0.32772766434848144,
            0.268175997919336,
            0.04683564100434132,
            0.16765363223295932,
            0.26141771993624696,
            0.1934742927496244,
            0.1999362868465995,
            0.29862848097948025,
            0.6016458511191138,
            -0.13111986317031907,
            -0.148069957891386,
            -0.06201688799088236,
            -0.1980496606112866,
            -0.0798572491998362,
            -0.007190877483029169,
            -0.04735236367008883,
            -0.01692262074153634,
            -0.0756279786161417,
            -0.08157732578563161,
            -0.008623545754989958,
            0.006653997248347833,
            -0.04899526968692275,
            -0.060757226558786896,
            -0.08058643451114815,
            -0.04936562514180405,
            -0.019683699559006024,
            -0.032060730035059666,
            -0.19614165583070173,
            0.20107009409183105,
            0.20737421801947767,
            0.24105636693901156,
            0.1517815833007536,
            0.10582621851333547,
            0.39187075984937025,
            0.15299380497929196,
