{
  "Layers": [
    {
      "Type": "Dense",
      "Weights": [
        [
          0.06474931811044932,
          -0.05735142838587329,
          0.0038469815415305805,
          0.056905638819985005,
          0.03083148374992951,
          0.030797893208760283,
          0.09049539601982093,
          -0.02829380295804134,
          0.02712260837405344,
          0.05250821542569284,
          -0.0124169439838581,
          0.012997435258564413,
          0.03619459350535183,
          0.05271703686438156,
          -0.0469543889085091,
          -0.005660705347535058,
          0.05956811301257324,
          -0.03554807579487932,
          0.023366608074885494,
          0.040685613209056275,
          -0.06919772172853585,
          -0.03347590774182546,
          0.05129787594688727,
          0.042763099014772994,
          -0.01821951505976936,
          -0.03065527531656426,
          0.011731868206078086,
          -0.013386184650215729,
          0.0015274411958305987,
          0.04811097385008432,
          0.012186519272583546,
          -0.08061415242435264,
          -0.04148571776401331,
          -0.020418377897809835,
          -0.06302583597955393,
          0.0016954426113681112,
          -0.05683925743224154,
          0.0014729938130436705,
          0.014315411611324984,
          -0.04548881379618936,
          0.04049194899862005,
          -0.0028204086920435955,
          -0.021180355345432104,
          -0.013862854507723727,
          0.0410345034741499,
          -0.05269769320903145,
          -0.06147584769580282,
          0.013205969095734342,
          -0.08237567778406278,
          -0.063291792823762,
          0.015680734704789374,
          -0.004649555061717387,
          -0.037504999831436084,
          -0.007138914460204007,
          -0.023230957949481122,
          0.023208679748534577,
          0.07063129804617271,
          0.05306561723817642,
          0.030907384226692185,
          0.05317107694405201,
          -0.09379317026420728,
          -0.06328430980263097,
          0.07300730671952148,
          0.02780529576018771,
          0.029874543897014876,
          -0.016203201709153753,
          -0.013869400822811436,
          -0.0466978584100818,
          0.06665627598764243,
          -0.07110487224563207,
          0.0823250992406931,
          -0.05469372127238844,
          0.039302091612660954,
          -0.01798254455186886,
          -0.06573571270203797,
          0.030939873682064453,
          -0.027247359414038178,
          0.08495206232676121,
          0.060223350369686575,
          -0.04443529797845266,
          0.02967483613750694,
          0.019723021546956456,
          -0.018983135293041888,
          -0.019389870103822777,
          0.06456235634012204,
          -0.06190363448422565,
          -0.0424090963897313,
          0.03167798142446252,
          -0.07890977046085992,
          0.07969560142781146,
          0.07869861688280341,
          0.07791801626330692,
          -0.04803198155067069,
          -0.019081966830250856,
          -0.03427149835131436,
          -0.02399690947361029,
          -0.028752376415486735,
          0.021981713931091326,
          0.04259385913852106,
          0.08593931489473002,
          0.059808026397101414,
          -0.057796071843202526,
          0.0996403518234368,
          -0.02927754648989926,
          0.011790307308458819,
          -0.05038128451946971,
          0.03737186194181891,
          0.01973126798787095,
          0.08701316168794955,
          0.005979950152301163,
          0.08867593659849844,
          0.07194539580378091,
          -0.06995151305354627,
          0.010252847850505155,
          -0.08752724950594318,
          0.06509943464954929,
          0.08284690968468655,
          -0.010650483303033502,
          -0.0524678927970149,
          0.045771453314655416,
          0.02844244211570579,
          -0.07672282072867136,
          0.05104276678884214,
          0.01074932532453671,
          -0.09954581040757882,
          0.03714547446326461,
          -0.022312904756089325,
          0.14394950780756258,
          -0.04624971926117504,
          0.04461392383686913,
          0.07156343706666864,
          0.05690276434357128,
          -0.0003706041873324307,
          -0.09312361663776084,
          0.06325180657064015,
          -0.01141985802259233,
          -0.0834997216690522,
          -0.024246097874803144,
          -0.007313736898253453,
          0.026092799417168158,
          -0.04602649608099577,
          -0.07816217513227182,
          -0.02378062867410157,
          -0.019759239665361604,
          -0.015227005407431805,
          -0.04945891956953567,
          0.03326265352483743,
          -0.008303965438993912,
          0.041596088703204435,
          -0.0348973010660662,
          -0.026082174756229887,
          0.11833509977443564,
          -0.10032406214385306,
          0.11209402939819813,
          0.10450676395921922,
          0.1068034147614313,
          0.03107027426569868,
          -0.12327906487759543,
          0.007087403930483315,
          -0.06834209976350693,
          -0.062024183341664325,
          -0.06780662814170069,
          -0.062494742607127896,
          -0.06125201602573503,
          -0.05268098277521597,
          -0.051662031091819466,
          0.013557069691653515,
          0.008775065817655314,
          -0.01577931740761076,
          -0.03783442616013972,
          0.0019534635998376465,
          0.09015094391865673,
          0.052735472994233715,
          -0.09637623813741075,
          -0.004494349359751623,
          -0.003170032081000426,
          -0.0012269474147352127,
          0.020770804340745592,
          -0.051252223677424165,
          0.004909681074109704,
          -0.056771306098806845,
          0.05778189636033805,
          0.09266556435573554,
          -0.003744028243403306,
          0.09400626691009577,
          -0.12626839626270298,
          -0.06544362998992367,
          -0.078745285622806,
          -0.11986605914108256,
          0.06879564245370247,
          0.05506680565568168,
          -0.08593193030117131,
          -0.06637715160488292,
          0.012430943041625587,
          -0.011622107793441652,
          -0.05182947390020586,
          -0.003616366461838107,
          -0.032700716024018125,
          -0.013688064844737096,
          -0.07079296525162743,
          0.0010346185725268523,
          0.02789929547283532,
          0.08009588914309117,
          0.03415705150182292,
          -0.047099763939810795,
          -0.08857278836384973,
          -0.10169901935018207,
          -0.14699897412062568,
          -0.04840403244073243,
          0.10542322828453962,
          0.13308220721369504,
          0.07361870344257171,
          -0.06060069336225075,
          -0.09550299422409309,
          -0.02656731889192957,
          -0.16415447825234852,
          -0.11103528596838978,
          0.04242817448442277,
          -0.07077202891081133,
          -0.12622454322609816,
          -0.10044552385299187,
          -0.03856634086454298,
          0.013568832774808626,
          0.05599070202185441,
          0.036123359943200976,
          0.012450326604458457,
          0.10212887235290921,
          0.004317799529422685,
          -0.016519158661671265,
          0.053375078183433386,
          -0.0837518870398775,
          -0.055813647778525995,
          -0.06420967806302796,
          0.0073764130819669455,
          -0.13431149488632002,
          -0.0912327636961086,
          -0.07958285192459384,
          0.06848029753315503,
          0.23973426736728098,
          0.2141663044586797,
          0.04845464018139266,
          -0.07137134630825677,
          -0.005956485776120408,
          -0.12292774983224111,
          -0.0407346576632277,
          -0.03961677931524912,
          -0.07522905719489237,
          -0.060917734680627486,
          -0.06560086225853524,
          -0.014185430300408803,
          -0.011402208855179174,
          0.013036355259660199,
          -0.011415088806753222,
          -0.11723923410011859,
          -0.02748637240557166,
          -0.06453739836137823,
          -0.0641782472474971,
          0.002078445988400184,
          -0.06789910255807727,
          -0.11752233809657767,
          -0.09802241532502441,
          -0.08517794897407718,
          -0.1243063456327195,
          -0.20431433081730796,
          -0.07894847572926637,
          0.09834169548100598,
          0.13516802072481224,
          -0.004803156889296876,
          -0.04695819563019768,
          -0.028692176688178094,
          0.011021341797350913,
          0.0025859248181709683,
          0.01561212463585855,
          0.01556995842982801,
          0.015450667518542906,
          -0.02155887147969433,
          -0.01073448870455352,
          -0.02615477637500799,
          -0.06609392516877144,
          -0.09180503470711969,
          0.02135550079695615,
          -0.09487042203444347,
          0.04041506011579491,
          0.04623605910674102,
          -0.0010895055351582146,
          -0.07783644948819808,
          -0.018124734543181295,
          -0.07773050147133477,
          -0.029161394689244665,
          -0.19720872644387452,
          -0.2032197260893045,
          -0.05227009572904542,
          0.009169234230792822,
          0.08845386580268766,
          0.03529343949509344,
          -0.12284025744572474,
          -0.16417565149028207,
          -0.09993904674132616,
          0.06905147327578673,
          0.1600204192819658,
          0.004671373252111562,
          0.0037616257113631943,
          -0.03615409023132221,
          -0.0922753469060985,
          0.003017044064018356,
          -0.08022462533153975,
          -0.038449790804646514,
          0.06320002039312483,
          -0.059058493775481925,
          0.06170346270522255,
          -0.03370034087175772,
          -0.09263033955402938,
          -0.01916197488391591,
          -0.013148003628641745,
          -0.05828454921260052,
          -0.1276671976310066,
          -0.19579212853018652,
          -0.08487794637033118,
          -0.045054953871129365,
          0.00827430489098467,
          0.13404661833417814,
          0.10050653796325396,
          -0.14248075796597925,
          -0.2142502049191041,
          -0.25613188102192236,
          -0.07148297291810957,
          0.08930391313038687,
          0.1370645177770604,
          0.10843913713268681,
          -0.07842963279609122,
          -0.11050774878809376,
          0.0836842591959458,
          0.06437271665883264,
          0.007884140395289558,
          0.05622804703361377,
          0.0560952338868712,
          -0.017176365645479866,
          -0.042395728162277935,
          -0.028747079635150368,
          -0.055365913174917965,
          0.024517355128188444,
          0.011341185632854332,
          0.0258780311443212,
          -0.09668210118048615,
          -0.050079730021351035,
          0.029608895932484152,
          0.12034833706241717,
          0.14888609390107815,
          0.26673980813999115,
          0.16291114781792124,
          -0.20779026001588738,
          -0.35753425237208053,
          -0.2905511001551546,
          -0.04376083225810821,
          0.02229246066058604,
          -0.0052857141094890085,
          0.016617896495569055,
          -0.05430669344964767,
          0.001252742433224393,
          -0.08573889610640396,
          0.008706642480167557,
          0.004252303784686681,
          -0.04706193737497962,
          -0.03410432202661898,
          0.021663559695790136,
          0.027670156873068043,
          -0.019192229041517357,
          -0.015745149499547598,
          -0.031748697903816334,
          -0.0034960493499763914,
          0.04895342613409778,
          0.10338767917524205,
          -0.04625451718680282,
          0.09452245953872507,
          0.18400341338316245,
          0.15320406287751717,
          0.06838840191478394,
          -0.03917328375439712,
          -0.22608400028870465,
          -0.18667973525106177,
          -0.23716290950152197,
          -0.06385212117718832,
          0.007600944551753993,
          -0.01396688960568594,
          -0.0780635727820734,
          -0.14794623758035946,
          0.0028931901503205805,
          0.012265098371069334,
          0.08670789606298195,
          0.059381475861942305,
          0.04654411784282424,
          0.028979303134089154,
          0.02754359400168565,
          0.022197047573650718,
          -0.02030170304922331,
          0.024645713415658823,
          0.006226793912856544,
          0.05531173672409491,
          0.09972245294340623,
          0.15160983820435414,
          0.11205813003136104,
          0.14632603618664483,
          0.06805598292898328,
          0.16967678872068573,
          0.1268900423959761,
          0.014319463947368624,
          -0.16475382761036347,
          -0.2196997367716583,
          -0.1932827468978623,
          -0.049880497838199755,
          -0.08065034782971779,
          -0.059665884914882554,
          0.021247387065800816,
          -0.12118684807224546,
          -0.04083955758490709,
          0.027697545321878205,
          0.06792974207434929,
          0.03089675775429456,
          4.161936623371287E-05,
          0.0724941371140028,
          -0.031056525478246066,
          -0.02281848656034611,
          0.050052671996339976,
          0.0506640472023191,
          0.012751943995033628,
          0.03820735973305353,
          -0.009471809104786537,
          0.04156387986140979,
          0.008759883101969682,
          0.09705763796052466,
          0.09397772931504156,
          0.04707892625662571,
          -0.012963561036523795,
          -0.20866056299453184,
          -0.23922701992669332,
          -0.18667793344040617,
          -0.12433933997073608,
          0.09509432692020957,
          0.05910507001157185,
          -0.08191396141340349,
          -0.03619707175302453,
          -0.008690233876050304,
          -0.04381576305649076,
          0.013507244550955163,
          0.040605538626182366,
          -0.016413894874776364,
          -0.04519581992772312,
          0.03509048849272127,
          0.04775120505328602,
          0.11567791532197094,
          -0.03400248860033522,
          -0.006482287914717163,
          -0.006387462738703776,
          0.04788847472093119,
          0.04481870835515635,
          0.05863490805796495,
          -0.00567550211756709,
          0.05688804623143387,
          0.05523249391468973,
          0.013811038376796094,
          0.029857849646329253,
          -0.2175105600265055,
          -0.1144302356791349,
          -0.11489597191447029,
          -0.005508637607599655,
          0.05807345790618744,
          0.07894317184594041,
          0.004946835237259401,
          0.02819776274080301,
          0.08134479776795062,
          0.03697950350491262,
          0.0583462458387837,
          0.09012479580015796,
          0.046834847154323477,
          0.06696732330292936,
          -0.020201989129867017,
          -0.07225347252392907,
          0.032765872728958055,
          0.07321795819649574,
          -0.05384423198028372,
          0.04789933214798032,
          0.03989973195174592,
          -0.01133613463766229,
          0.0039212991619488715,
          0.06864136759841317,
          0.12494866819157664,
          -0.009775175606829854,
          -0.03439148612990427,
          -0.09032761269059605,
          -0.25540942910142855,
          -0.1746600893401021,
          -0.04508410567466093,
          0.031160751113968325,
          0.12992042349496996,
          0.11396603575268088,
          0.028220179882232625,
          -0.03278494791483533,
          -0.005188439032167604,
          0.1952193090131222,
          0.06293190921574734,
          0.06441750595466827,
          0.04975213089107103,
          0.03114623390877012,
          0.09339378974655395,
          0.004101453845938692,
          -0.08522153249338915,
          -0.12201209637889887,
          -0.07604401506453218,
          0.03561969124039514,
          -0.0016792858567431204,
          -0.147666627779478,
          -0.07025715330399675,
          -0.01358252447670548,
          0.04837075228485612,
          0.0628106690863355,
          -0.04118047895575193,
          -0.11796702934907904,
          -0.17729686412994525,
          -0.09680783116518371,
          -0.04409258676884206,
          0.04354136194241097,
          0.05596540724439299,
          -0.0047692760500082105,
          -0.06812658322690739,
          0.01948732113588157,
          0.050628253842775306,
          0.024147664370769293,
          -0.06115117318137874,
          -0.03685161870248812,
          0.09326231183572807,
          -0.061609839763034066,
          0.038468314831286876,
          0.05605949627139484,
          -0.03599076908554773,
          -0.04707080731692603,
          -0.030973672156702093,
          -0.013512240711678662,
          -0.012814991085659411,
          -0.0028687692088075222,
          -0.006761295911011519,
          -0.052707601958247995,
          0.02334685736727558,
          0.011141627115013543,
          0.005570233941599072,
          -0.021439795383817798,
          -0.051528995497312886,
          -0.06628692615287726,
          0.05913817792884805,
          0.04225961744125901,
          -0.021740617386497806,
          0.0665345729774,
          0.06952701055515806,
          -0.005024101572982164,
          0.10329474211947082,
          0.09701070964610391,
          0.004926344055922347,
          0.015190156415355052,
          0.04908405214357839,
          0.0969180908896159,
          0.006244132897993358,
          0.05428490389621093,
          -0.07345265552314564,
          0.05694569849620936,
          -0.03676568242251613,
          -0.02638839332647971,
          -0.01328839363241791,
          -0.11308795606821673,
          -0.05047199484847377,
          0.017928800098629502,
          0.002129093075154153,
          0.008051437820850901,
          0.13102744583863504,
          0.19165109409121517,
          0.13221128110482136,
          0.1040593782163281,
          0.03871910303325781,
          0.04355960507085036,
          0.007786404991134473,
          0.05430339731831919,
          0.04806345084844713,
          -0.06049873245452315,
          0.028086810773216692,
          -0.00429962918474242,
          0.020052998673048376,
          -0.0593597762972356,
          0.02419712700777576,
          0.04077690189366542,
          0.03495210045622075,
          -0.012201442258724349,
          -0.005041171715699209,
          0.020315334399145853,
          -0.06134847089010175,
          -0.06695438094835998,
          0.01497541563645352,
          -0.14190908769960217,
          -0.11446408323501675,
          0.0048413325117500575,
          -0.11094652949682308,
          -0.03281027484902172,
          0.15725655113579673,
          0.16784271541106488,
          0.18765351734247102,
          0.07411703177711118,
          0.05013287189245771,
          -0.055486388857804735,
          -0.15668812648027186,
          -0.08529664250694056,
          -0.05512597251344699,
          -0.04508820649481861,
          -0.046713789467112035,
          -0.04768899735620034,
          0.04553520414042376,
          -0.06575541809353003,
          -0.12340233140385894,
          0.056860151316829706,
          0.019039306325874375,
          -0.011565457256493382,
          -0.044027925350701186,
          -0.028625266077790215,
          0.07416398654770792,
          -0.027738113058463052,
          0.0700193336254665,
          -0.012830488747139405,
          -0.0074649926944044594,
          0.04765114709023365,
          0.07610307217613428,
          0.02982211483935774,
          0.000756214614786861,
          0.1408136010161554,
          0.1192128807668392,
          0.08088371570168944,
          0.07076115492208643,
          0.0434035693595734,
          -0.057179808889524585,
          -0.139867661864694,
          -0.030186859008858546,
          -0.06133038925704218,
          -0.06653740023190348,
          -0.08765130499151257,
          0.0008637323409861822,
          0.01526117676263482,
          -0.010748347628599561,
          -0.04644421317923127,
          -0.04899297975289488,
          0.010346479505107017,
          -0.029146369329158997,
          0.008474915991867208,
          0.03777512462074148,
          -0.009865541330227543,
          -0.03728081249691492,
          -0.1192323513464221,
          0.0421319851623444,
          -0.03625181748044578,
          -0.029122897756372213,
          0.08245630767473693,
          0.11829980253228795,
          0.11440259077750546,
          0.06775191090640371,
          0.07659621530485924,
          0.052000017454521444,
          -0.04531375860510298,
          -0.08879922031312364,
          -0.05358877277527513,
          -0.05037943970833821,
          -0.01936753669520476,
          -0.05443303214744554,
          -0.021584715529741196,
          0.02545232784765778,
          0.027059928000667813,
          -0.04271756220456551,
          0.07778563979220268,
          0.12608378974329,
          0.06763011620076462,
          -0.08099213855617056,
          0.02155633600220265,
          0.026759796162327588,
          0.004882974150141939,
          0.07259407463045157,
          -0.054699073553306145,
          -0.04326553663117355,
          -0.07769078315025113,
          0.011809564623031973,
          0.009412926272449251,
          -0.014775510052830577,
          -0.06025520470666499,
          -0.12511247218254398,
          0.04814988461745728,
          0.03246941598108478,
          -0.0016603685288394134,
          -0.08330765141747906,
          0.009596050167802054,
          -0.0605891637582647,
          -0.1067077261836683,
          -0.05841383631948459,
          -0.01278104377103492,
          0.11990436402441083,
          -0.03077336821692234,
          -0.039711789637102465,
          0.04093624795468994,
          -0.0737079763091658,
          0.0012240859588344049,
          -0.10880260444654889,
          0.07546145542245573,
          0.05870512836880649,
          -0.0342841091804763,
          -0.10310711823553109,
          -0.10147913306045207,
          -0.06976862606745231,
          0.12639870223309546,
          0.00017591976215281815,
          0.08216116835681304,
          -0.060887956439656055,
          -0.0031617765473942443,
          -0.04255486258437711,
          -0.09783198517167696,
          -0.027768934708912008,
          -0.17864729053334072,
          -0.03333416950221163,
          -0.01684865943152035,
          -0.06680514417007712,
          -0.03305688946089612,
          -0.09997650941111955,
          -0.05396270751248623,
          0.006150812368106874,
          0.017801561729012254,
          -0.00558797440078887,
          0.03516891417050712,
          -0.04522628410857811,
          0.04856160371777938,
          0.0024078121611996093,
          0.009034674763625202,
          -0.026915471194464646,
          0.019018997379170687,
          -0.04128911077045109,
          -0.0053194741506247655,
          0.05451146715264707,
          0.030486444991316124,
          0.014882402263220934,
          -0.0022885837567199175,
          -0.006594801445711398,
          -0.021139954899009734,
          0.025712821889851432,
          -0.04424395749599928,
          0.06969671685694695,
          0.11599268963861227,
          -0.10033702437433788,
          0.060047209512452224,
          -0.16210550592549522,
          0.056191330132137354,
          -0.1144873206636448,
          0.036587678614521425,
          -0.0755483298077966,
          -0.02947006229472367,
          0.028597350130477477,
          0.013962315826896271,
          -0.032594647293965544,
          -0.01394704298734261,
          -0.05676698206617192,
          -0.06159965358545285,
          -0.04995092000784534,
          -0.029300911071902136,
          -0.06264571263876709,
          0.0980135722131681,
          0.017204384534607937,
          0.08354323833450217,
          -0.019011908110345806,
          0.0067370544202783956,
          0.008900947102002376,
          -0.07360650474046804,
          -0.05040045027538396,
          -0.0159110656016666,
          -0.017814640552736766,
          -0.03427347189065875,
          -0.05412118741558382,
          0.07185126771495584,
          -0.024682546188195133,
          0.00886815164980397,
          0.030570764080462436,
          -0.04011478598779296,
          -0.015486999771485762,
          0.01623406760580656,
          0.01014365502678333,
          0.028286984164612408,
          -0.06456405954115141
        ],
        [
          -0.048866228445949185,
          -0.035913186186459375,
          -0.0028226436485911063,
          -0.0021696608519808525,
          0.004165268010618058,
          0.01856242429930692,
          0.07332556002799402,
          0.031013013447522865,
          0.060117335778738734,
          0.016054123933025174,
          -0.016678275660974823,
          0.035676490198460725,
          -0.08086931778290095,
          -0.09299774747899994,
          0.03205487342051125,
          0.03599342381786644,
          0.028179203064553557,
          0.03169181919421343,
          0.013884380592187473,
          0.08213988648795735,
          0.012542110825925467,
          0.028661020319280462,
          0.07775140196507377,
          0.049375922505643204,
          0.022485526755780284,
          0.07730266295536627,
          -0.050466031210609975,
          -0.048796344900390254,
          0.018873921467215195,
          0.00791548410258203,
          0.06449185151999617,
          -0.022222179897710213,
          -0.02335581370533358,
          -0.06045699207378341,
          0.018022794282272547,
          0.062364812714775654,
          0.00039195264666390216,
          -0.006158444258370663,
          0.0451363628810217,
          -0.1047428265680542,
          0.016294718994221215,
          -0.01640318339793796,
          0.014107291180499207,
          -0.06280353574053033,
          0.0622579079370858,
          -0.005498910478505932,
          0.015631822899810837,
          0.07021155397311754,
          -0.06719213791925581,
          -0.06249641669985554,
          0.04687364099402434,
          -0.04615227048454966,
          -0.015489157508858854,
          0.012170405703538315,
          0.06605007005810447,
          -0.08716284214853141,
          -0.06705503672270043,
          0.06828650911688873,
          -0.020455318781994154,
          -0.0346119623894694,
          0.01808118762418847,
          -0.04715101088921666,
          -0.004431281157906333,
          0.0591954678889575,
          -0.14285902306211623,
          0.01000083431360716,
          -0.003591564184562575,
          -0.038466899873262336,
          0.0481597214037388,
          -0.015019168783954567,
          -0.03267750376726402,
          -0.07292519234966124,
          0.015087462377774176,
          0.023272831040087216,
          0.04065973760070816,
          0.10414392120853509,
          0.0021969692651626358,
          -0.04389259083334012,
          0.04320907270127251,
          -0.033405627823905125,
          0.02004298593736893,
          0.03462476077047358,
          -0.04530578254499517,
          -0.09261327015251479,
          -0.04058822262380535,
          0.018160167092046785,
          -0.04814041306998746,
          0.04014622738445879,
          -0.024191247467897952,
          0.0027866385010377618,
          0.045581334772075606,
          0.027206704094627474,
          0.00980226284067174,
          0.024215360535426594,
          0.02918260155953811,
          0.05688578473919146,
          0.14147923357807957,
          -0.03144443061334615,
          0.10874505926317822,
          0.036952150907154264,
          0.08125459516545365,
          0.10586787641827693,
          -0.02857793042208984,
          0.036840804324426074,
          -0.05824986699335696,
          -0.012181133929124172,
          -0.022520905242039136,
          -0.04864170375348834,
          -0.0018881945315908778,
          0.05653471140045933,
          -0.06214900095679576,
          0.011506274972138485,
          -0.08749400067727638,
          -0.039702453273250116,
          0.05745567808243877,
          0.014982103095941989,
          0.00034529101227655766,
          -0.021444648984663615,
          0.015879739797813805,
          -0.051240226664819574,
          0.01507656291623739,
          -0.030943736936212177,
          0.017639310899556688,
          0.03591739677048154,
          -0.09370937461330374,
          -0.030696292765160192,
          -0.05483262374869724,
          0.00953317622488317,
          -0.02280225296729102,
          -0.06077946289493778,
          0.09356583883860325,
          -0.000971986051658577,
          -0.016591494869117613,
          -0.03974990449647745,
          0.020715304716043312,
          -0.03182318517481984,
          0.012614550535861852,
          0.10054294139763235,
          -0.04715293603651214,
          0.024096862736543344,
          -0.11620378932916517,
          0.06473737627125682,
          0.012765373015620578,
          -0.032661804342197384,
          -0.019247984838021245,
          -0.03773286615846926,
          -0.09675903063228249,
          0.007700163488589511,
          -0.024101629921055412,
          -0.06018747325229141,
          0.016937638720234783,
          -0.010129548993953569,
          -0.06226860302007706,
          -0.04609633427748456,
          -0.16141677860301976,
          -0.06772073106278208,
          0.017778337570853203,
          -0.02839049865657913,
          0.06606599191946178,
          -0.04752348823874797,
          0.014554192010727393,
          -0.05081263749071642,
          0.0007012287422782359,
          -0.037161003218812196,
          -0.03324405982949039,
          0.10944954814025591,
          -0.03583497113134565,
          0.003742480794403375,
          0.010874012426249245,
          -0.032603052679082804,
          -0.06554121741427194,
          0.02086008827220333,
          0.041204911544405406,
          -0.03341836489370641,
          0.010889931216118824,
          0.12987515505776054,
          -0.03081433900967759,
          0.06243159390396339,
          0.07651854651945089,
          0.03875370181649428,
          -0.02302493997406136,
          -0.07583612304231738,
          -0.024324412215137342,
          -0.06383936547896002,
          0.04337299177199327,
          -0.05718752762820217,
          0.07699563232709,
          0.07787562069637616,
          0.09376026753110726,
          -0.017703886715316093,
          -0.014382071085390783,
          0.13009878160513688,
          -0.10976073973337988,
          -0.06814489662568171,
          0.015342107107439055,
          0.0573975242600879,
          -0.12160057861258128,
          -0.03029038703412267,
          0.052036744438131194,
          0.004992798773426894,
          0.13498775582257241,
          0.023336820306107214,
          0.007587211219840174,
          -0.08058820934916637,
          0.046774924638447894,
          0.0619968277513597,
          0.11435899021169241,
          0.03254592598676774,
          0.10016250134107228,
          -0.007240289334060499,
          -0.004413069573212561,
          -0.06466729730471237,
          0.027344682203729317,
          0.04979038192010663,
          0.026566628260684007,
          -0.012066698200382317,
          0.029073953942475268,
          -0.006352871529770224,
          0.04357105736908766,
          0.050468384292714615,
          0.046300679111945874,
          -0.02767615712282384,
          -0.004310276253193445,
          0.014428285742480841,
          0.07589446149599478,
          0.03687774670287312,
          0.03436696952092285,
          0.07260545601127721,
          0.08274986607771324,
          0.06642901235060887,
          0.031005268726306757,
          -0.03852857042877617,
          0.03015290027787478,
          0.02937018723951647,
          0.0855442608203985,
          0.0952539975409497,
          0.04670705516406377,
          -0.159686918669962,
          -0.024840159334192063,
          -0.05160101425302238,
          0.0019996213721779755,
          -0.07574585741348763,
          -0.04689881356460737,
          0.10371029653906272,
          0.03112422911125674,
          -0.015191910998388212,
          0.010445623296582232,
          -0.016503903721006147,
          -0.05156580345767628,
          0.09473873131593717,
          0.05031845137143084,
          0.024897091970280106,
          -0.07665871364368669,
          0.013955680475087693,
          -0.04154828246278252,
          -0.026549265859338894,
          -0.007699193628373204,
          -0.054649959045659724,
          0.04694993730097481,
          -0.050631370920858225,
          -0.028361655190185252,
          -0.05347475413972894,
          -0.06227609988958834,
          0.05066553813987308,
          0.02670397614213762,
          -0.06086971153816991,
          0.004984770619684644,
          -0.039338664161884765,
          -0.13472598310471318,
          -0.004874733179518683,
          -0.037178802800908274,
          -0.10141933841334003,
          -0.05633992338302857,
          0.05106838397818889,
          0.05556342323812803,
          0.06307485605299544,
          -0.004043664697513884,
          0.044362672795442884,
          -0.031098070173010705,
          -0.041736283099773716,
          0.022512669984775073,
          -0.10505972803148778,
          -0.00337831137208856,
          -0.015852760818231896,
          0.06628260914398794,
          0.005562958426737154,
          0.002385811247936356,
          -0.13841800053429926,
          0.01763360912226954,
          0.007393769316739084,
          -0.01295275528792613,
          0.013980014465172014,
          -0.030543787015448964,
          -0.0008468707731113092,
          -0.09441016148299375,
          0.018545532628323577,
          -0.07132734995936424,
          -0.02319111404685955,
          -0.0472228897524977,
          -0.08652123093405562,
          -0.0004479777164290172,
          -0.03153107345687438,
          0.029005074262404822,
          -0.07866786114473776,
          -0.07084645764125788,
          0.13523407600030987,
          0.07238923962460224,
          0.02771283467889161,
          0.07840496318332674,
          0.005851109338778797,
          -0.08109314430514021,
          -0.04043721147244313,
          0.019601285659119488,
          -0.16885729108820896,
          -0.035785286846010705,
          -0.0777625151999433,
          -0.07477020466629886,
          -0.09524137095762801,
          -0.03604918026858018,
          -0.06950596417433928,
          -0.11503480089613224,
          -0.09717160883963154,
          -0.10412097671118523,
          -0.06077082759297001,
          -0.12771535118354727,
          -0.12050630822299586,
          -0.015789453903288123,
          -0.08560011421335977,
          0.0649415363662776,
          -0.017664864472439645,
          0.07386363202542938,
          -0.008973363276208582,
          -0.004891933424645128,
          0.04611471852549962,
          -0.01432825082685937,
          -0.056741995021401676,
          -0.06982437798465427,
          -0.017734569637295566,
          -0.051632121587432925,
          -0.054561598259208234,
          -0.04754766301330697,
          -0.027826106078572842,
          -0.095780809385907,
          -0.20942029445011373,
          -0.06340196497866785,
          -0.005406590608644793,
          -0.08847650982344964,
          -0.04044729274875268,
          -0.05908110387686372,
          0.02055077142091328,
          0.023655372224740623,
          -0.006291254223950956,
          -0.07551292755578824,
          -0.0758936832882951,
          -0.08917646026759288,
          -0.042744416904867966,
          -0.04995827883301218,
          -0.03418344907333823,
          0.022453283874898273,
          -0.10648856832865784,
          0.030053122555950277,
          0.022180708588354477,
          -0.014458009210949991,
          -0.051271703429013764,
          0.0373131044252133,
          -0.09824999240184967,
          -0.08825958868402953,
          -0.020339097068413782,
          -0.0742820801725664,
          -0.05246642422354218,
          -0.18818927577287373,
          0.005690727992459912,
          -0.04293909705655379,
          -0.09630362054269571,
          0.033675946333071166,
          0.024389055953330574,
          0.019211447333109893,
          0.0015796082983129383,
          0.015441618557876808,
          0.023958062385128875,
          -0.06849823834576102,
          -0.053554866736810494,
          -0.08478802597433367,
          -0.013038392890999641,
          -0.04761624815597258,
          -0.08452011458889591,
          0.045233201469083384,
          -0.06236423573659726,
          -0.0644890645768301,
          0.06485281806500581,
          0.06434838994563391,
          0.04172832314136674,
          0.04377313271937903,
          0.02952983884817357,
          0.012320008714766788,
          -0.03322323805726428,
          -0.044588810056472486,
          -0.04466937580008743,
          -0.058714627211190494,
          -0.05303193770653127,
          -0.05111938057068114,
          0.015537000060272387,
          0.07645847325830175,
          0.03387349129915132,
          0.15373828186699612,
          0.0925715731458164,
          0.06676635904940502,
          -0.059985974306393776,
          -0.032793223808449214,
          -0.052704304000108476,
          -0.06675162913117051,
          -0.015323922098111672,
          -0.13966714852086093,
          0.03846636974574956,
          0.05619999039509146,
          -0.006092518144914562,
          -0.02384126489571334,
          0.057596719341321705,
          0.08100426938238135,
          -0.032501433799638005,
          -0.009227482751405778,
          -0.0702959377039415,
          -0.0005749682655545479,
          0.028063535958111497,
          0.06371715285313521,
          -0.056896109364337775,
          -0.028477550724143662,
          0.06805469491863574,
          0.06092391315717689,
          0.02074989854076038,
          0.08142632660136119,
          0.016475206874123505,
          0.12944453391782643,
          0.10791212396939,
          0.07935098847104505,
          0.12808056481991487,
          0.027911935072487765,
          0.014919874791645344,
          -0.010779918317288103,
          -0.016712790175582342,
          -0.06608707631762922,
          -0.03432123177101978,
          0.01606934648868931,
          0.0807338928093434,
          0.03604122000949698,
          0.05001125409702067,
          -0.04921899050175942,
          -0.10793786461219833,
          0.04658407058073702,
          -0.012112008764108844,
          -0.002385412431287549,
          -0.036303890981421796,
          0.003450328917151146,
          0.05786457999227339,
          0.13919026859109124,
          0.13287089409926764,
          0.0796105701635427,
          0.10300250411991883,
          0.016181508211778745,
          0.03725609868485403,
          0.05976391228475702,
          0.0514173019347547,
          0.1662804001867767,
          0.09220368307546016,
          0.12959928063818568,
          -0.0854316931075794,
          -0.06969541097409927,
          -0.02014960153630094,
          -0.04053668060597159,
          0.011550670588803543,
          -0.09383391685851564,
          0.05720074111330915,
          0.08414849504378952,
          0.09586013712158967,
          -0.025997742625426944,
          0.0030322760850505313,
          -0.0052763962975369534,
          -0.02714379943459886,
          -0.03236353217124346,
          0.10930077691213917,
          0.1249046592108841,
          0.06404171603993017,
          0.12818126660280055,
          0.1605707656645589,
          0.00657890988072834,
          0.04350409979462763,
          0.11968844099797937,
          -0.08754478134748206,
          0.16450711390155046,
          -0.016979496179532566,
          -0.0022773728762110965,
          0.08881342295061596,
          -0.03300350843288842,
          -0.02930978008420667,
          -0.023418167119018864,
          -0.07125842279837497,
          -0.09884818368485498,
          0.014725962354254999,
          -0.02444811699380082,
          0.06961347830306255,
          0.03636700021181493,
          0.11986076688851798,
          -0.03746239352935273,
          0.07388799022683076,
          0.05260748545175125,
          -0.044955282531551,
          -0.07521375816231739,
          -0.029651727442917587,
          0.08169880825931417,
          -0.011423315740337637,
          0.010562183378015925,
          0.04603335654746418,
          0.043468893264315044,
          0.08135420494056753,
          0.016275204734624786,
          0.08535889586645244,
          -0.10158382983205884,
          -0.07090528051617269,
          -0.00020681995276049047,
          0.004098441822527055,
          0.054923221208922735,
          -0.07557077724147855,
          0.17283046890985396,
          0.17270919339402097,
          0.02470341516591423,
          2.5111798900558423E-05,
          0.05534047688323961,
          0.1240278675286765,
          0.07774183960555002,
          0.054089322746661,
          -0.041401600863173,
          -0.06267443850958761,
          -0.01005379781070761,
          -0.0788077761654082,
          -0.09088434760232193,
          -0.045320060871544963,
          0.056948491231830566,
          0.06555762610178562,
          0.04198871812095292,
          -0.009067927285551978,
          0.04090441833076067,
          -0.06196240121802969,
          0.0025878183304043445,
          -0.031860818810703975,
          -0.047743350636205835,
          -0.02438708972183024,
          -0.12786450721732706,
          0.0005705988473820175,
          -0.028722503402828475,
          -0.03426306075861339,
          0.12225795536099822,
          -0.010218642473087871,
          0.010609150711775586,
          0.06820097723169531,
          0.01810324501112626,
          0.021832451497622248,
          0.07361247557433126,
          -0.06443326301810623,
          -0.05586067611819078,
          -0.006583357177447002,
          0.04787064257560861,
          -0.03309527978337622,
          -0.02299956422910916,
          0.03270247832059816,
          0.04193760230354872,
          0.055993084131956285,
          -0.07882969484188251,
          -0.03737051650831658,
          -0.06711908885828506,
          -0.011039117885983813,
          -0.06530917605041285,
          -0.06985610334746334,
          -0.02525840319400458,
          -0.08001004040111669,
          -0.04909878716979252,
          -0.18795622346007496,
          -0.018593501520496304,
          -0.0018089631145135267,
          0.002287971276984681,
          -0.04499469583318522,
          0.017367480283757435,
          -0.0013322311438628278,
          -0.04030140883865389,
          -0.05663321244308835,
          -0.10679506615552263,
          -0.010110278000583681,
          -0.08514636456264336,
          0.011200954847084141,
          -0.05229494899389389,
          0.010113280732971035,
          -0.07384067796372827,
          -0.08110101040172323,
          -0.012414141042671259,
          0.06998062696312132,
          -0.0663598078163409,
          0.035694312063437844,
          -0.01839409769405732,
          -0.1996593076612496,
          -0.07014936071080624,
          -0.20036205909624782,
          -0.12110496956107643,
          -0.10824183536621959,
          -0.08457012097468572,
          -0.036813789647068995,
          -0.019376781653351625,
          -0.04248858602392102,
          0.0006431171017910886,
          -0.07939231727809185,
          0.061486923936973206,
          0.07700738651066545,
          -0.03690095463175613,
          0.013859404497892181,
          -0.04001257893547103,
          -0.0826446488927803,
          0.024450759421530577,
          -0.019539436456777658,
          0.09024007272052588,
          0.07726583309742298,
          0.05980309357104166,
          -0.06894078373987601,
          -0.09760428518218212,
          0.031034895476991554,
          0.09485164499937294,
          0.028085552007136874,
          -0.002877461529737672,
          0.004278300945431319,
          -0.08471080558565604,
          -0.019147278184417763,
          -0.11598936839933009,
          -0.0798904007408476,
          -0.010254502337528053,
          0.054042264248715007,
          0.05600841998133531,
          -0.027027392359441554,
          -0.004559366657805534,
          0.04516728299192832,
          0.0623608900146063,
          -0.01343894006957881,
          0.045735155359094906,
          -0.06165155847709715,
          0.0814184154873913,
          0.008210752964137338,
          -0.07446648937492895,
          -0.0033840902701299147,
          0.06523760537980562,
          0.06769145316122625,
          0.01122110048223752,
          0.03811505135459477,
          0.019917160124220755,
          0.04264515425601982,
          -0.01611584860546911,
          0.05081490350144111,
          -0.13898580100783334,
          0.07260001941821745,
          0.044840162929283126,
          -0.050914206930569965,
          0.030861546171963638,
          0.048524985032790374,
          0.056718267706923696,
          -0.00831967242547252,
          0.07748892750109487,
          0.0971806645018059,
          -0.13969122363758513,
          -0.062279170779735105,
          -0.07165387703639557,
          -0.07133542149691394,
          -0.07157651379666119,
          0.038118048760922195,
          0.021518609773407582,
          -0.04964837770708965,
          -0.07978354438844318,
          -0.004308725701555644,
          0.06515496620072245,
          -0.028793234396543854,
          -0.006896879639882136,
          -0.1040404095055855,
          -0.129614137035656,
          0.010366725592927685,
          0.008965131419914875,
          -0.008124220327272913,
          -0.025833850042233115,
          0.06361145123104038,
          0.06637203581071213,
          -0.02365607995743458,
          0.026006276471893738,
          0.03369675595572932,
          -0.026756968377847166,
          -0.01084723452855322,
          0.027510289480590634,
          -0.008359621235039099,
          0.01996715042233679,
          -0.03593825954224455,
          0.008348959315464699,
          0.053878670517550416,
          0.021469454715397022,
          -0.01847227849877959,
          0.032658934285024484,
          0.01705808605242823,
          0.07546903232740099,
          0.0017419169986669961,
          0.020080180403058985,
          0.04178195105826506,
          0.0015134164319898368,
          0.040679675648624285,
          0.0419167318236837,
          0.03588440671295705,
          -0.03917368761027442,
          -0.07170985393175315,
          0.004378045595971564,
          -0.05424682792884577,
          0.033042380467137755,
          0.06209088271379614,
          0.01880708382636021,
          0.03853224614161446,
          0.018341145252455206,
          -0.004335008528981917,
          -0.008983314246155763,
          -0.07803373893106828,
          -0.028321790654802878,
          0.05552355225820015,
          -0.09853835719139974,
          -0.026335811484734753,
          0.017707718393959942,
          0.034570459069452844,
          0.02807449073365539,
          0.013290875144293376,
          -0.052977273912409875,
          -0.042030879082761444,
          -0.02889201068659832,
          0.10644135779745025,
          -0.03462063609682242,
          0.0034302023015751553,
          0.05778413378907255,
          -0.050887832635156595,
          -0.0030899470530927997,
          -0.04741690373102609,
          0.04514606739525148,
          -0.047411490713645484,
          0.037553153319217485,
          -0.11913785773111277,
          0.09488341693662648,
          0.0611676491939308,
          -0.036369371286075446,
          -0.045871828521982995,
          -0.026776576560504254,
          0.01768400999559513,
          0.0332935549791319,
          -0.011184831698180991,
          0.034046234584715805,
          0.024533359140010525,
          0.007488475756045568,
          -0.016025635103870596,
          -0.11801768737425472,
          0.04619596212442192,
          -0.02695721551537865,
          0.07373177930822862,
          -0.0019275921846200815,
          -0.1030463244092786,
          0.019779548756278898,
          -0.021278512220563293,
          -0.0743737631307891,
          0.025811115825688243,
          0.0383426601822142,
          -0.02847132140063416,
          -6.702873611167405E-05,
          -0.05624804882485042,
          0.03621374684058854,
          -0.029118967980111075,
          0.03654868379577382,
          0.08058962688684644,
          0.022531064596207934,
          0.01641459094809684,
          0.004712222108581595,
          0.01660390429524168,
          0.007042582329381901,
          0.027723580777301034,
          0.034259490282820555,
          0.04848332482474187,
          -0.029804815984294693,
          0.01176095508376534,
          -0.08909475426033871,
          0.04286761090206689,
          0.02015980721812292,
          0.07102838978274517
        ],
        [
          -0.07607973592518641,
          -0.056718798234206995,
          0.062112050813316506,
          0.029292064851116094,
          -0.11409717204549064,
          0.007072762254731178,
          -0.06305050011130506,
          0.004075908451715292,
          -0.07840765945348395,
          -0.04903716927396971,
          0.07091184381043875,
          -0.054187549918673784,
          0.08814312307809062,
          0.008881773572012072,
          0.04086186570678615,
          0.020715273933635887,
          0.03947550441453982,
          0.04447049545734142,
          0.017535561040805756,
          0.026058303127778473,
          -0.1423071898742842,
          -0.035316877942352595,
          0.026435186435052164,
          -0.016458771004252453,
          0.09526910192989306,
          -0.07742623427663951,
          0.08491947134281128,
          -0.094761033424599,
          0.004039936339831417,
          0.06541696647976498,
          -0.09652999286788735,
          0.04524640469543441,
          0.009182377686776563,
          -0.05740897860524047,
          -0.041327428227601645,
          0.0501654182514997,
          -0.03512901467302203,
          -0.020050233527438524,
          0.12204332163230791,
          0.08008650000360497,
          -0.11983404428220715,
          0.025828783407662714,
          -0.026565610537401658,
          -0.07587239678287773,
          0.09905599956945962,
          0.044637545180362635,
          0.07246344932421774,
          0.016814253061347643,
          0.0022757934298027966,
          0.0782108462668432,
          0.07689237865071664,
          -0.011782152111654032,
          -0.041421746876887044,
          -0.008066926153519317,
          -0.057195562915261865,
          -0.008507314711523887,
          0.02487468646743551,
          -0.13901811151453244,
          -0.1308512164797458,
          0.07018466825287205,
          0.06658578636937276,
          -0.028986324095878337,
          0.020343790277292443,
          0.010713209696487432,
          -0.008449183738543264,
          -0.030285000351551458,
          -0.015462521467600207,
          0.032070389032438036,
          0.038035642403812284,
          -0.006975520199403937,
          -0.0073231945370472755,
          -0.01933224340098467,
          0.10737703281708273,
          0.09734769751047427,
          -0.014707873508380088,
          0.025529483753866083,
          0.12893797832363357,
          0.0013731534952072058,
          -0.01822411221986142,
          0.10029089889933432,
          0.01479960107612932,
          -0.15423036484011365,
          -0.025158668394065577,
          -0.05571084731045594,
          -0.021239300389576676,
          -0.0863721699684057,
          -0.0056333852421443535,
          0.010833476658040263,
          0.0651225446976522,
          -0.04672852698118794,
          -0.007261188208964537,
          0.02511421622981347,
          -0.03085800869566427,
          0.024945530146376616,
          0.029525060363715584,
          0.11200802417627259,
          0.10684133630999629,
          0.1759536633873234,
          0.07625664739842625,
          0.030369633197974952,
          0.06114326063189441,
          -0.05421581725869986,
          0.11432175775593413,
          0.004743889251805165,
          -0.01538016671083125,
          -0.05289897191901646,
          0.03917384850043445,
          0.01715762620644772,
          -0.01772386157564476,
          -0.01774154422851013,
          -0.0004324871114351026,
          -0.027317175620837512,
          -0.004380951874899731,
          -0.05388991449187736,
          -0.011868366697914537,
          -0.05454046414666979,
          0.02870799549995101,
          0.053070119329569086,
          0.09882730253185097,
          0.06021651148762253,
          0.05522787679023677,
          0.07988348616531592,
          0.07329304913227262,
          0.05266013722381408,
          0.10260930635176556,
          0.15879602460645387,
          0.06916320159963685,
          -0.015607841974986726,
          0.03604986664730625,
          -0.017187689758204373,
          -0.050416183615608755,
          -0.014358032817862652,
          0.07097981389982957,
          -0.004822741701238426,
          -0.0018148761890804529,
          0.032250220957430055,
          -0.016143122745345535,
          -0.04625916942043466,
          0.0027170413177170275,
          0.04385008637503269,
          0.04461586429437801,
          -0.030268284508507732,
          0.02958668570427449,
          -0.10538903592751218,
          0.030580751326428256,
          0.024980463748420362,
          0.004944908850513769,
          0.011627472974605093,
          0.04061867509298437,
          -0.021794884627219464,
          0.002365733707512876,
          0.0906371131914051,
          0.06733672820902274,
          -0.0008735465487333781,
          0.0049743791461815045,
          0.06956848183841857,
          0.19491189092794703,
          0.15968357416892534,
          0.09874429908171149,
          0.1407558505725922,
          0.04032753193687141,
          -0.042403587993151824,
          -0.06258716310258998,
          -0.028358200978568317,
          0.015818449018450642,
          0.015309276676497882,
          0.027603335294859283,
          -0.09630813601944757,
          -0.021663698754539735,
          0.030681648801127826,
          0.013846017919379328,
          -0.01757679723178976,
          -0.010982171144848583,
          -0.03380289115661824,
          -0.06388723028319188,
          -0.13949131446210805,
          -0.10244842131744498,
          -0.02472586007190654,
          -0.0406130574138442,
          -0.08895099040656951,
          0.03291373655885124,
          -0.13006652466809113,
          -0.13663901058028785,
          0.026423427276497324,
          -0.008314843037422158,
          0.036183893240506866,
          -0.028559726877388194,
          0.011504297938273005,
          -0.043259184845235846,
          -0.09721202459412881,
          -0.0068008289026866365,
          -0.10049896607192868,
          -0.06969561315188126,
          0.020154631378071077,
          0.0036157719306779018,
          0.045625551424499707,
          -0.014729157842080362,
          0.07006283636910918,
          -0.010357850590162272,
          -0.03702528317111871,
          -0.16901898728767883,
          -0.05061259117137574,
          -0.07334622347304022,
          -0.16321549785535816,
          -0.03699324358950989,
          0.004866292158194668,
          -0.07451516146307488,
          -0.08935037158370181,
          -0.18847030409454593,
          -0.14311911203765812,
          -0.14951562704765392,
          -0.09641578239480632,
          -0.10579307788905165,
          0.01821833250686847,
          -0.0881161348986981,
          0.014917670782226224,
          -0.07851761647912749,
          -0.030007896672049714,
          -0.09856975938044817,
          -0.11336214513205808,
          -0.02542099983747109,
          0.042883196330597576,
          0.03144488446065906,
          0.01817587922322148,
          -0.012620170251066012,
          0.0029943478751033154,
          -0.0817813998112321,
          0.043349611891241105,
          -0.06746694274590102,
          -0.09841867661701055,
          -0.17052608223070279,
          -0.07206760155680964,
          -0.02017421260468175,
          -0.015665660983064763,
          -0.04482259532303119,
          -0.09909718825366558,
          -0.06231169058058281,
          0.03615843079851922,
          -0.017322896408258036,
          -0.0644828839164115,
          -0.06719258973529654,
          0.010866631052923867,
          0.04583475823353592,
          -0.071694198700359,
          -0.155793127456755,
          -0.11497619663049151,
          -0.009204487128404883,
          0.00022475767607988353,
          -0.04209975348193954,
          -0.0767511161127701,
          0.035646988766597956,
          -0.06341692374130027,
          0.04570899003089333,
          0.0516175986129415,
          -0.023221624571443233,
          -0.10677758211090521,
          0.02078192398245765,
          -0.058583240514192766,
          -0.07789590454807516,
          0.07084896626126434,
          0.014427866199060908,
          0.010673139008772176,
          -0.05556707655564534,
          0.004360954188949439,
          -0.05843130883659789,
          -0.07090240054729575,
          -0.05312221813040317,
          -0.07363055186596204,
          0.011851710091315854,
          0.027248375342739176,
          -0.05119855544200531,
          0.008496458070308159,
          -0.08118182274649392,
          -0.14581359028165589,
          -0.054998557239931654,
          -0.04900374413046637,
          0.04351844737151029,
          -0.09340453137337915,
          0.06293094449255203,
          -0.025265249383161874,
          0.03673723289379827,
          -0.018278693915996323,
          0.053034901370668165,
          -0.03779790235106502,
          0.007362302561902951,
          0.009788264204351653,
          -0.025163893300342594,
          -0.08736164575220601,
          -0.07679283359724956,
          -0.07943752835823643,
          0.04395383893562817,
          -0.08328475834046419,
          -0.01542482502228257,
          -0.1624210582581121,
          -0.023728108428978913,
          -0.18932423734427678,
          -0.10903935661243973,
          -0.08109461681797453,
          0.08036215751208794,
          -0.03291365815929263,
          -0.06871286786397776,
          -0.0034839499196237435,
          -0.025336628443410756,
          -0.07767169803760221,
          0.060253139405977124,
          -0.03701779029517231,
          0.02848431710382893,
          -0.04169164109757506,
          0.01584132577906082,
          0.007776570845896599,
          -0.0832294590909201,
          0.04794283052434636,
          -0.014964083570423245,
          0.11985202785856702,
          0.03646957356771785,
          0.09490075546328236,
          -0.0020503818999749804,
          0.06237479049353156,
          0.03908216523703764,
          -0.13819717472813034,
          -0.05175431272006403,
          -0.10637891588814992,
          -0.045511667505813064,
          -0.15601411306323457,
          -0.033964431465717045,
          -0.1776106102730732,
          -0.07658628902107537,
          -0.05902316082536712,
          -0.09170007569553469,
          0.01784731783807471,
          -0.10450060983309979,
          0.0534510047617785,
          0.035498243328212636,
          0.0002514591983878013,
          -0.030064816677205158,
          0.020095125932294577,
          0.07537933026302006,
          -0.038092684871692074,
          -0.05298022351088452,
          -0.03641811073805801,
          0.013217721660732335,
          -0.005548859922755006,
          -0.131611661516692,
          0.0872209909967279,
          0.043743213674190075,
          -0.022645808379227944,
          -0.07991711771253462,
          -0.01920237794067569,
          -0.055114461608577026,
          0.04543648631424418,
          0.03302926689773649,
          0.021474536354152442,
          -0.06370587614725629,
          -0.07138109829556856,
          -0.10043608790975794,
          -0.06443712323792036,
          -0.021408016901864793,
          -0.042643146970622235,
          0.01889647210081571,
          0.05826572917839999,
          0.039901105973071296,
          -0.04705515413997289,
          0.038772404860292625,
          0.005073540032445059,
          -0.017364702278643836,
          0.018099658543210717,
          0.008947121590050391,
          0.023180684948079327,
          0.00572170974082522,
          0.036573770842961734,
          0.03459091317747643,
          0.09316441188885984,
          0.08135420791987137,
          0.129514377663881,
          0.05420603276611837,
          0.12030559578747052,
          0.10942766873923346,
          0.09942710604499945,
          0.12553184076509044,
          0.08132481611291002,
          0.02136944664116585,
          -0.0979444532493521,
          -0.06900591186333073,
          -0.016988594457551742,
          -0.03980427917694019,
          -0.02745723702775471,
          0.041398347024450916,
          -0.005683614962540969,
          0.038368131315659734,
          -0.016419601394658184,
          -0.02730796971124135,
          -0.0067330708110780405,
          0.03714714257031681,
          0.012945134015777987,
          -0.05142369750588753,
          -0.02672865881300792,
          -0.015782100731008462,
          -0.014362833609092395,
          0.13407854395047775,
          0.04653803277967406,
          0.10590045897264548,
          0.09848072334253245,
          0.11349775624407893,
          0.18809901171165305,
          0.18581064899735894,
          0.18549691154069178,
          0.10538951425944963,
          0.12010676154739075,
          0.04307278136208478,
          -0.05871481183970313,
          -0.18569623502171165,
          -0.027411153466825322,
          -0.014495167081900845,
          -0.14497784476415335,
          0.022331541312932603,
          0.018817899746609766,
          -0.027351835091867432,
          0.0040508573475515645,
          0.01955558790492682,
          -0.12422446110415356,
          0.043822009790495706,
          -0.028205542206336774,
          -0.008862810394209567,
          0.007903332524469852,
          0.0012349942430383567,
          -0.03490442746523658,
          -0.13469726236801852,
          0.07946390041672677,
          -0.001268312508043767,
          0.004229574382232607,
          0.07001494322723513,
          0.24538218627177225,
          0.08121825584405715,
          0.16053153683041618,
          0.08276674840010816,
          0.19112592642189044,
          0.05830785080395631,
          0.09702188415874305,
          -0.014867418491736773,
          -0.0878638775793588,
          -0.16521072786611635,
          -0.10144349257518341,
          -0.05564470063256284,
          -0.05029522061344423,
          0.0409091861686262,
          0.038113529262709785,
          0.07523963103772623,
          -0.00308248349385127,
          -0.006988144482003638,
          -0.053909497570977356,
          0.14656484521228424,
          0.05009301828495051,
          0.016432191779401237,
          -0.06951312775854687,
          0.05906747439643134,
          0.06889928543461145,
          -0.010169840475423943,
          0.030724219807089413,
          0.1620322893474629,
          0.12373843749201521,
          0.2102899747788069,
          0.01958795415217786,
          0.11243163613453173,
          0.17386509853248366,
          0.07888978238016259,
          0.06026601841206552,
          0.03239383866953335,
          -0.16962369921857098,
          -0.1658012151336609,
          -0.042869302952570076,
          -0.07445125622095178,
          -0.047292575876022126,
          0.06562423390529065,
          0.04799919964987843,
          0.09000325565075942,
          -0.014183020453619341,
          -0.05040623527109713,
          0.009472890200331274,
          -0.03672441907529341,
          -0.01899034479785742,
          -0.010534472338028154,
          0.08832729248139622,
          0.1362047498754586,
          0.01087398674916495,
          -0.021944420479013262,
          0.12787574853086187,
          0.08549650190560748,
          0.0927887948562986,
          0.02710667752069925,
          0.03824177954593567,
          -0.07188690424913967,
          -0.06085860522919447,
          0.04478832823669135,
          -0.012498377064417213,
          0.03247807417395905,
          -0.1332291861006113,
          -0.04481576685619529,
          0.14991492032732534,
          0.030312299234825108,
          -0.01393085442585308,
          7.531450049050371E-05,
          0.09773955362102728,
          0.037510592591893245,
          -0.027148103639672513,
          0.011021545277504426,
          -0.01773271934996262,
          0.04672730170324722,
          0.09541891812981805,
          -0.04896739829867856,
          0.10426281696581752,
          0.07549229144649969,
          0.025522360138266472,
          0.0831672298003373,
          0.15194686617127726,
          0.10913957470215135,
          0.014098669316894486,
          0.1460173139990301,
          -0.0008740991531827779,
          -0.03372725078511165,
          -0.0833370789171768,
          -0.04912401609743504,
          0.023923461492209242,
          -0.05038226237061941,
          -0.088750737372582,
          0.052569707836398395,
          0.13879361538181964,
          0.16429212592528036,
          0.07605386387141104,
          0.1671547177461302,
          0.18021119342011094,
          -0.06935970924935224,
          0.04676198681159801,
          -0.10266418060842102,
          -0.14988374539510188,
          0.007175627379032658,
          -0.041442013121047915,
          -0.02026073597327426,
          -0.049745760124011634,
          -0.03990589329150336,
          0.028140402510375463,
          0.01835097442228323,
          0.002391386191930623,
          0.014535860959754633,
          0.07666887475925864,
          0.04503997532949004,
          -0.0789031388018129,
          -0.08225967376389548,
          -0.08272139342828082,
          0.0377243804003791,
          0.035749388465749626,
          0.08334808302780916,
          0.030539805682235147,
          0.057451732657531326,
          0.10341368562059772,
          0.03289471127258823,
          0.04028733310478765,
          0.03177209198264296,
          0.11172886418142472,
          0.14871479056014755,
          -0.028652495283716623,
          0.030222906158527497,
          0.024590290239510475,
          1.981176526029032E-05,
          -0.06825045148349647,
          0.0077446927801991345,
          -0.007717712481317408,
          0.09238034180035806,
          0.023349984654548423,
          0.04920902027092232,
          0.030637807757575495,
          0.02042079035903123,
          0.020156089928199405,
          -0.02828900653329228,
          -0.1210308835472572,
          -0.1327507095881367,
          0.008557349375756477,
          -0.04718286608418851,
          -0.06616577644259997,
          0.0002688096440853401,
          0.056531084319171254,
          0.09198156340114891,
          0.05319312227934892,
          0.057442359686213355,
          0.0615273196593161,
          0.014456818425383272,
          0.07319640348219107,
          0.008949388330788966,
          0.00830504529148181,
          -0.020315875698339363,
          -0.09014431567996946,
          -0.007224817641820073,
          -0.020349726486763066,
          -0.09507832435885,
          -0.09110614255103162,
          -0.037636307143378636,
          -0.021385297935807818,
          0.023476867253382903,
          0.20821159369291675,
          0.0757840638579328,
          0.09990446666699143,
          0.04086487768195382,
          0.058394239943229856,
          -0.025447010956384634,
          -0.019341741832477714,
          0.05273900530185354,
          0.019962851588300537,
          -0.07854163368545053,
          0.035345604826242154,
          0.028106494771795915,
          -0.05347930860603916,
          0.05123214310194281,
          0.18624835106123933,
          0.05644612998635023,
          0.017834665783398332,
          0.12462022485823314,
          0.023911282882672833,
          -0.026176989179062103,
          -0.07910308945242353,
          -0.007470147105087953,
          0.01061157891554726,
          0.01907685534730056,
          -0.012968743255432376,
          0.04084932557079061,
          -0.09606795449404987,
          0.09795632745250535,
          0.05191423602676449,
          0.11498217776040916,
          0.017922088781867473,
          0.22239058181339186,
          0.07980839839329336,
          -0.03247821957669423,
          -0.019834358575656047,
          0.07587366589253461,
          0.07671523452207737,
          -0.009767537854804323,
          -0.013926360570868867,
          0.038303729918968195,
          0.059516589525469496,
          0.0664311888992904,
          -0.051256110724600824,
          0.03352425889316674,
          -0.1003265026157732,
          -0.07735134897954402,
          -0.010791327249389115,
          -0.016429992881635252,
          0.05905430150323935,
          0.03551896190300786,
          0.04161080126101762,
          0.04026399289050919,
          -0.12088818958774386,
          -0.11452834102347018,
          -0.13706294399989927,
          -0.04015405797760833,
          0.012757453811601949,
          -0.0793157758733257,
          0.026522626656513146,
          -0.016373718646156304,
          -0.0004016065661797844,
          -0.012126627724959977,
          -0.05232987342314212,
          -0.07679439471137493,
          -0.09760366728763846,
          0.0563931729355326,
          0.09937917122118878,
          0.07821239295146697,
          -0.0021886288233538636,
          0.03576430656944664,
          0.010835622373841359,
          -0.0257184930080155,
          -0.02808118909831856,
          -0.018864470854523342,
          0.029275078585042115,
          0.016642351634004487,
          -0.04880263857563886,
          0.09900831777178835,
          -0.02765890429499682,
          0.04263284017631444,
          -0.17269562193633448,
          -0.0892559909741895,
          -0.14857095516607416,
          -0.12551273426315193,
          -0.08647318711632578,
          -0.04349546661577267,
          -0.12538214040726345,
          -0.0650756328546889,
          -0.05294242764210354,
          0.07157557638029365,
          -0.007073070149714473,
          -0.043683408048447565,
          -0.0921810028565949,
          -0.08795246526317857,
          -0.009086581486244402,
          0.03316808488700166,
          -0.06730135299532089,
          0.16805858502577,
          -0.03765605955177109,
          -0.06984633086840486,
          0.04239945288344503,
          -0.14541499135436153,
          0.01849882824524412,
          -0.03299658983329411,
          0.030712418853205494,
          -0.04336170370084903,
          -0.018709057612876598,
          -0.022997531616962896,
          -0.03783398329626012,
          -0.009254284908165033,
          -0.10624997602204962,
          -0.07510673812983949,
          -0.09039197137960116,
          -0.1183333241696026,
          -0.06562773341301874,
          -0.08274154699518455,
          -0.12853556876781924,
          -0.058243117942001175,
          -0.13991539580839177,
          0.000970792668677126,
          -0.12731136015012312,
          -0.08368438428199643,
          0.02581733330265327,
          -0.030606702717388475,
          -0.06330064059473887,
          0.041274656505556825,
          -0.0143933433756715,
          -0.09115655345134557,
          0.03240319212555284,
          -0.05437989165621194,
          0.018020538601775833,
          -0.06496536123891965,
          0.006576398547541553,
          0.010486676645350532,
          0.06912229533828301,
          -0.07815330472026201,
          0.041394120503368596,
          -0.02246728377597067,
          0.028961155311143204,
          -0.03273064167633351,
          -0.01021772971015078,
          -0.006820618602922456,
          -0.08267207419005387,
          -0.06243895167580791,
          0.03185291733797386,
          -0.025194220296143852,
          -0.06036300827106441,
          -0.08096407775384992,
          -0.0581585155624257,
          -0.026192911953272627,
          0.002409997639767234,
          -0.041060951249207604,
          0.019867462023146883,
          0.016732116904732284,
          -0.06114509943835614,
          0.023707172902165702,
          -0.016160538838251047,
          0.11320845742299211,
          0.020423813423221936,
          -0.014791943960517378,
          0.0059554281628037276,
          0.07770562393070599,
          -0.0680638671576233,
          0.025601100368642934,
          -0.08545796609045578,
          -0.03647699880401727,
          -0.04478399727006362,
          -0.031876640971329286,
          -0.019665147157641626,
          -0.02312738987803094,
          -0.09751815978422967,
          -0.024808673761705563,
          -0.016873529705938944,
          -0.04553951552300826,
          -0.009604465859585399,
          -0.10287577434354005,
          0.058611347931937625,
          0.03950428082115026,
          0.009294369322053173,
          0.023616539916813173,
          -0.028864575694786922,
          -0.01669512613665026,
          0.02589333057433445,
          0.07752971487042527,
          0.013066401157606412,
          -0.0026730441265287743,
          0.015961177620961463
        ],
        [
          -0.014962647220020614,
          0.0750145447042094,
          0.06570291977368678,
          -0.007245616079603843,
          0.04245160081771058,
          -0.09105206778750453,
          0.06360441245205067,
          -0.01689672311678642,
          0.0020799045444463505,
          0.03731733572408536,
          -0.0380868670659363,
          0.033340979765704784,
          -0.011618094104683691,
          -0.02245352190815031,
          -0.006668736672954847,
          0.04161697380221902,
          -0.014841477451661662,
          -0.03809522173046613,
          0.007264230462564385,
          -0.04814892668560413,
          0.004464282308187532,
          -0.03481047315089524,
          0.03563787152077026,
          -0.08958553519541984,
          0.09313976769009603,
          -0.08639371137217061,
          -0.07064654697305003,
          0.10382758255507607,
          -0.006470454160862302,
          -0.006550326126900697,
          0.02256079789786257,
          -0.024810888768018985,
          -0.05841092269977708,
          0.03814222472220217,
          0.0317012217202536,
          -0.030111153478097515,
          0.06646871359357087,
          0.01595744480282464,
          -0.045301377600658145,
          0.002289409243808159,
          -0.022411749292709598,
          0.06516154000695355,
          -0.031097878635672378,
          0.041641507485709287,
          -0.06442664723085743,
          0.051710760319904625,
          0.011885462015866778,
          0.013525167282166472,
          0.033229733236237964,
          0.03791466071839362,
          -0.035826181941072927,
          0.06323203195694141,
          -0.04891272490813651,
          0.028390601681600975,
          -0.04439633997336189,
          0.007049529960750375,
          -0.07127741669568848,
          -0.033765197266930544,
          0.036953830611714915,
          -0.012585371075171015,
          -0.018995853334212515,
          -0.050052342431479484,
          0.0016156347247613667,
          0.016483705014675026,
          -0.019195443178147246,
          -0.09452675340015129,
          0.05948626286650821,
          0.007808690444644496,
          -0.008438077271971886,
          -0.05507579665011732,
          -0.05690335555590369,
          -0.01824035390634032,
          -0.0013989931900683934,
          0.005933972968818071,
          0.013697163712092893,
          0.0401873707967647,
          0.05362533872338377,
          0.011105252710018455,
          0.015032712338971988,
          -0.10725480034370836,
          -0.06888126031701537,
          -0.023651984535218842,
          -0.03815624137650709,
          0.032387110186109375,
          -0.017948108415064633,
          0.03589969420079795,
          -0.013277325396095444,
          -0.028937382101052,
          -0.039013649854636796,
          0.046788596466610204,
          -0.04096970338090066,
          -0.035125426262851686,
          -0.029529967426159813,
          -0.04028520326406107,
          -0.09228323887321299,
          0.05766017748303093,
          -0.029963451750314896,
          0.012186944305325458,
          0.030961033994234423,
          -0.048486272234582406,
          0.021028478105970787,
          0.04521008453460855,
          0.05547853880364992,
          0.03233380894795421,
          0.13796675041991077,
          0.004513853272875395,
          0.057413278331553796,
          -0.011277255432761053,
          0.013616149187367,
          -0.002655844176869952,
          0.04570257772074114,
          0.06933098343112243,
          0.028546085128396764,
          0.0335827886420511,
          0.06516253235507967,
          -0.03818943270532422,
          -0.06298759316788852,
          -0.08196050573188197,
          0.057924646806438725,
          -0.08273260740750189,
          0.0442882723233024,
          0.001330463753108663,
          -0.11323227313993006,
          -0.05391315250562484,
          -0.04459588432960653,
          -0.09955664821557651,
          -0.04319125083250333,
          -0.05517341624103565,
          0.037959344917138725,
          0.06033076675311652,
          0.11280139138028986,
          0.014528438744382116,
          0.015432223345146713,
          0.03215146453558544,
          -0.016885597028417135,
          0.08073693843827012,
          0.049424756646342397,
          -0.0951564229556685,
          -0.03773524045696374,
          -0.011731589054794943,
          0.009594232696251669,
          -0.09293647840576409,
          0.09485334911029629,
          -0.03454139942590577,
          0.004359494001919068,
          -0.05689412985054796,
          2.90093465924415E-06,
          0.05896265968116393,
          -0.0010489471026091722,
          -0.0566319855265008,
          -0.04550577143062199,
          -0.037521285392876254,
          0.0024884314028860103,
          -0.0649650277273398,
          -0.050417756733531174,
          0.035331956480776035,
          -0.10967352466190544,
          0.07477688246070265,
          0.024656418429947924,
          0.0019291937323008621,
          0.07469946035887975,
          0.0046378151196628786,
          -0.022148174569020643,
          -0.022226024877601523,
          0.052888903727449865,
          0.011661139949216158,
          0.0005798207558995917,
          0.018839448635925585,
          0.032081901988337234,
          0.06533654637818366,
          0.06689688613126621,
          0.044316194426394825,
          0.05101653322751881,
          -0.0053421325325121415,
          0.04937881776847146,
          0.12114793384324099,
          -0.05014463954129772,
          0.10807788238603143,
          -0.14281606057821042,
          0.0076301568443316575,
          0.020673513404299928,
          0.14396956396729116,
          0.03154121428105462,
          -0.0657055837180884,
          0.09604145963074891,
          0.1052621735841447,
          0.015044758284640716,
          0.08367621141075332,
          -0.04026606079397892,
          -0.03305947610371675,
          0.0007115549278198664,
          0.08952769201853301,
          0.010841733332088144,
          0.0448520075928958,
          -0.044322300667000006,
          -0.012131518711159098,
          -0.05305571865280462,
          -0.01189619305447529,
          -0.01738676006175411,
          -0.05746754397504693,
          0.017786728247555672,
          0.038887082210083405,
          0.05433058705368292,
          0.07811480791443835,
          0.020981072402146778,
          -0.03144743029198227,
          0.010732263041130936,
          0.05579026702668434,
          -0.008554373243112754,
          0.08117340924691482,
          0.03456397395283031,
          0.014484651834783025,
          0.07959786548662169,
          0.01933354731521334,
          0.08784537467484835,
          0.06760880913644153,
          -0.0029560419149981046,
          -0.04482013841002839,
          -0.08061625574411162,
          0.022159519990732453,
          -0.008472763852757257,
          -0.014298783202462563,
          0.03647518845704902,
          0.043872942797708474,
          -0.029324721979803514,
          0.02365330820916369,
          -0.08167269216951167,
          -0.07531155191275339,
          -0.0631542777508697,
          -0.01957427162269702,
          0.0647387903244709,
          0.006305805152217118,
          0.03692379517958373,
          0.006767323112731304,
          -0.026964558953929248,
          -0.0300278549819911,
          -0.029042421444570116,
          -0.09150689367823008,
          -0.048988781281561304,
          -0.008260149372169921,
          0.02633802758187985,
          0.03457049340344633,
          0.01870773175534841,
          -0.04830273174236144,
          0.07385591438027005,
          0.033200709015342486,
          0.04590843811371865,
          0.06999615062790103,
          -0.057666461598076514,
          -0.03930479455571226,
          0.026853192069994404,
          -0.004536353589195442,
          -0.05383785625201396,
          -0.08334862499577249,
          -0.03706524883229829,
          -0.05590788366562504,
          0.04188386582265898,
          -0.010457194620456087,
          0.056179757746899886,
          -0.03811960893846356,
          -0.03577280692120712,
          -0.009706962961875511,
          -0.012570997820209756,
          -0.03946135040759628,
          -0.15264089829097927,
          -0.11699373066581553,
          -0.03173407019670932,
          -0.16054204613544776,
          0.054878316372334895,
          -0.13318361905454254,
          0.034184962926190325,
          0.006750738732911344,
          0.0459069693319427,
          0.08615251724872916,
          0.05722219175167831,
          -0.00259922338465628,
          -0.04833173310175269,
          -0.03540323128524961,
          -0.06596867367724661,
          0.0026331002070063337,
          -0.040435114473267406,
          0.03428980606107317,
          0.004979500717385595,
          0.03771290567754094,
          0.02969488819660436,
          0.0415585176494094,
          0.06210662944593149,
          0.08886635768951422,
          0.10811818533519815,
          -0.07036194557336949,
          -0.04127565940860269,
          0.021630833554546886,
          0.049859739337217955,
          -0.01877977046915371,
          -0.02287621582561817,
          0.030035401377971595,
          -0.059762536021988916,
          -0.1487687615176276,
          0.023863709149807635,
          -0.05539677167630126,
          0.04086595057020587,
          0.06623414330948733,
          -0.008295842062454208,
          0.045015694245543275,
          -0.0071854771961303065,
          0.0768828400025425,
          -0.034972297037044686,
          0.009062152474437537,
          -0.016517718191659703,
          0.015211046344184208,
          0.00401604586310233,
          0.05261209081856481,
          0.05885885492035287,
          0.07517915685541394,
          0.12828831095562301,
          -0.0062555068045932,
          -0.04489715349033641,
          -0.034606703875748726,
          -0.10651677350933082,
          -0.030860109821502193,
          0.06620299273258887,
          0.045508644976778735,
          -0.03610908908028689,
          0.0512724518875444,
          0.03921106559420388,
          -0.010696082203716333,
          0.006589375684909581,
          -0.0784697849916293,
          0.01005169843070961,
          -0.023060286295935963,
          -0.04274642250710721,
          -0.026420886346166548,
          -0.015746979383501673,
          -0.01066327329293765,
          -0.08396288062688848,
          -0.025449327915889604,
          0.024580128464188687,
          0.037883222058648795,
          0.05462924746942715,
          -0.031671940237277166,
          0.08728470273076144,
          -0.033546948035474304,
          0.17146509541849786,
          0.06909764172202297,
          0.014152646643738023,
          -0.017440380665178105,
          -0.11551619224454873,
          -0.010105839739785655,
          0.06674867379093852,
          0.03821465150694493,
          0.13315288756488433,
          0.16011407098004196,
          0.08640140529761244,
          0.052753998131318695,
          0.09283093887505516,
          -0.02502678362247504,
          0.019963066787812865,
          -0.12265866239329913,
          -0.0457287124678057,
          0.03298940441138737,
          -0.057955463490695414,
          -0.02690129037240846,
          0.01827965608052362,
          -0.005122095531123246,
          0.04376508365895558,
          -0.05260889706660947,
          -0.025325108790100838,
          -0.048878697899355845,
          0.020196538699747357,
          -0.0024932508180604152,
          0.17987288426398412,
          0.04887689464490401,
          -0.025818086808815227,
          -0.09074819043635653,
          -0.14066745491997673,
          -0.049468065476144935,
          -0.06050336943944742,
          0.0678397228707992,
          0.08726108590248888,
          0.1526894361870719,
          0.23013493353765005,
          0.17286255924014549,
          0.10273301123359327,
          0.12033067538250443,
          0.06405435829120892,
          -0.030964817291382393,
          -0.027186166415454405,
          -0.07600150999422771,
          -0.012934243397886456,
          -0.01815016883035844,
          -0.03710638992558786,
          -0.08505154797384405,
          -0.1041668666744023,
          0.012292652112199768,
          -0.010887141621994818,
          0.004984940918455644,
          0.09237207321891962,
          0.07558262179231828,
          0.09645830207157703,
          0.007491399393806237,
          0.03380600715313223,
          -0.07397565295864801,
          -0.016757205228689075,
          -0.15052145697496766,
          0.055353018593461756,
          0.025540939310668836,
          -0.003794131832558983,
          0.11039688201537877,
          0.023732916519054615,
          0.1567728382200094,
          0.030959171162078185,
          0.11552298018996422,
          0.1593661230028845,
          0.03899940215390182,
          -0.05753977638874163,
          -0.04784988579117902,
          -0.1252604306731308,
          0.0032792733276512335,
          -0.039546037317422365,
          -0.052880747221088396,
          -0.03731316666687269,
          -0.08649300176067767,
          -0.00036835827742688707,
          -0.09602621490575168,
          0.03642585037142627,
          -0.0133074863073053,
          -0.018696320495178848,
          0.13950595952183664,
          -0.06746705559574387,
          -0.04557960213862476,
          -0.00620310389822828,
          -0.042589949009699375,
          0.028225199841471087,
          -0.019263994062840684,
          0.05744454307283045,
          -0.03275770396225266,
          0.005594481069881315,
          0.06942678588382152,
          0.04157159903437394,
          0.0037325186586655832,
          0.051882509776377324,
          0.035640584999064986,
          0.04225150121435435,
          -0.03227546777980608,
          0.004500911301974055,
          0.0043568390812685175,
          0.057434509774762645,
          0.046447894097614954,
          -0.029047672179395898,
          -0.004093556189766776,
          -0.0583733897963622,
          0.04166389280766561,
          0.03730747518159976,
          0.0385326664428476,
          0.07434485316424945,
          0.032750415925989484,
          0.03243384080971309,
          -0.16081273433442084,
          0.024935562943444924,
          0.06612100915302138,
          -0.011725382058161567,
          0.010657474929676078,
          -0.08481946736341893,
          -0.10316951323172206,
          -0.07108807949579449,
          0.05990512176593908,
          0.011792003224063556,
          0.0016194439897987438,
          -0.017174452836785797,
          -0.06201564087938787,
          -0.0328412334443241,
          0.04885110041639099,
          -0.06761687886294236,
          -0.058169841937511554,
          -0.0024790487626881875,
          0.010880361060104175,
          0.03462352964956787,
          0.0018692832076552396,
          -0.001380296575599871,
          0.03137294894054153,
          -0.011022552445450601,
          -0.0939773946837474,
          0.0019402356885418804,
          0.07561005895981061,
          -0.009794195298903798,
          -0.11108108884587281,
          -0.0979242989282035,
          -0.23855881922824235,
          -0.08028927931081302,
          -0.11581335286269699,
          -0.07411915745251564,
          -0.14274920750320977,
          -0.03451201379560154,
          0.1518666980803962,
          0.024049887580295325,
          0.13371799895815395,
          -0.02868838511118176,
          0.041513155416372696,
          -0.039540068309870884,
          -0.06658872103727026,
          -0.09096568813972183,
          0.020174428135107884,
          -0.09296002114399356,
          0.032243101847833036,
          -0.02511039103774425,
          -0.019498518234560815,
          0.012743282405443144,
          -0.014125401462880124,
          -0.0067827329025485685,
          -0.009277007231320232,
          0.06321439780077291,
          0.023648999045164605,
          0.049204935861846065,
          -0.04960164257997432,
          -0.04836028028189329,
          -0.06294441191517183,
          -0.11411236627597184,
          -0.10669773290713921,
          -0.09913664778147055,
          -0.08578765575713658,
          -0.08270843821090507,
          0.056027007543010716,
          0.11856191414220657,
          0.08466558344726711,
          -0.021277265001699734,
          0.016742447264739547,
          -0.05262617752141117,
          -0.14497213841279175,
          0.01488773378042957,
          0.043633415889604336,
          -0.07709755859382564,
          0.023120499830724166,
          -0.021491576483385483,
          0.00128023080084377,
          0.0037130875578937433,
          0.0481034375180871,
          -0.1026818821117987,
          -0.014849779560333915,
          0.11593826160880724,
          -0.05058877767959222,
          3.980800750362941E-05,
          0.036416672426637584,
          -0.050453889648516555,
          0.03973899095925507,
          -0.08421034073903066,
          -0.09960022785324325,
          0.00742771841730923,
          0.009874462749616468,
          0.10421410109831991,
          -0.015080126077746211,
          0.05916046867594421,
          0.05631394894526596,
          0.06847487769119792,
          0.06872915416265175,
          -0.0442606820744665,
          -0.04000621077498336,
          -0.04287258445946201,
          -0.03041954306704465,
          0.031150789671972396,
          -0.052665813363541654,
          -0.08147206974658074,
          -0.05254655596416385,
          0.0114774529513653,
          -0.01733017949212292,
          -0.002950300795473003,
          -0.013692449569288275,
          -0.025267798049573822,
          -0.09611646826302164,
          0.08405177741456044,
          0.05407295391659463,
          0.056376281945614726,
          -0.09598409334078731,
          -0.0015878319233252546,
          -0.046389301570871615,
          0.06841795816148091,
          -0.039287272793755025,
          0.08618179138218961,
          -0.048829669934111655,
          0.015732548149060305,
          0.11130524385046321,
          0.12163302818423362,
          -0.047340327508722885,
          -0.11505792201747224,
          -0.0753983400045089,
          -0.03188536179373633,
          -0.04123158967112961,
          0.026562676160108357,
          0.026273021323366643,
          0.012867622346287112,
          0.015422243390483198,
          0.044324954475832026,
          -0.039169709702948766,
          -0.021912110719322427,
          -0.08224687821766288,
          -0.015372150578842836,
          0.0030055819615342396,
          -0.06649141067361815,
          -0.06747153703915933,
          -0.039531166330146555,
          -0.07062766005572181,
          -0.11785746442755662,
          -0.03601413426572961,
          -0.06598985159045415,
          0.0682353804389812,
          -0.021088771004928498,
          0.03611893169546515,
          0.0747205796599199,
          0.10304806869692348,
          0.013246712691697922,
          -0.04417960552372311,
          0.02144036713005043,
          -0.059638020664700454,
          0.012627097047048126,
          -0.026180419625662085,
          0.0015729726015741346,
          -0.03104624261739526,
          0.05637055337374322,
          -0.011247502741419129,
          -0.005439712810691746,
          0.02085059536231801,
          0.013122994494596592,
          -0.0311521813505011,
          -0.17400671769940732,
          0.020734215398053462,
          -0.05345608934495395,
          -0.09914407153634175,
          -0.06306531922244005,
          -0.1090548293619898,
          -0.1596090857737016,
          -0.07221850685763007,
          -0.017925212091056488,
          0.010519183949535346,
          -0.0728398104951516,
          -0.0216043038915006,
          0.07007044820552412,
          0.0246488384225307,
          0.1086323101842961,
          0.011314368882562688,
          0.01872326008614838,
          -0.005858209959880019,
          -0.0024462828780236804,
          -0.06669177644621932,
          0.04837768176845763,
          0.04262013757824202,
          0.006167122922166683,
          -0.021018746869047547,
          -0.0007686500755135024,
          0.03558564465533736,
          -0.05725083720132253,
          0.05083132283968539,
          -0.02678366759581656,
          -0.019001427228361116,
          0.0008923649757536612,
          -0.06091704044888236,
          -0.10717330435339051,
          -0.07736751882759905,
          -0.23069682932335236,
          -0.01314070767824187,
          -0.07759816114557601,
          0.007482249906113395,
          0.046278810425850775,
          -0.03530288470059738,
          0.08374876437637521,
          0.008488608614170551,
          0.07532392373638992,
          0.08463057021972226,
          -0.022889963013732435,
          -0.017173745105001356,
          0.015999552961341413,
          -0.04295742401007094,
          -0.01913129674348269,
          -0.02390743094467083,
          0.08985950756332836,
          0.028136787184610643,
          -0.019887979001768145,
          -0.0062084007520263555,
          -0.054262520336933476,
          0.04060573175265952,
          0.037581541567181805,
          0.02689695389267262,
          0.005624434721954496,
          -0.07010121850840527,
          -0.03794507104627207,
          -0.02311051060566969,
          -0.173854207119325,
          0.017658155367544733,
          0.01391570017163306,
          -0.004558317569381982,
          0.08087344178574245,
          0.11246196715284994,
          -0.010066331399495936,
          0.009158560155796034,
          0.03130958513173958,
          0.08046546398941537,
          0.028308959457279823,
          -0.08038267880207718,
          -0.022413612684904455,
          0.04490947085109403,
          0.024651996915169082,
          0.06037200834803727,
          -0.056025597126585204,
          0.13136089084056288,
          0.08332637102231172,
          -0.059590800993542185,
          0.05672241207303664,
          -0.04277274764517845,
          0.05783830067334439,
          0.05947942031531851,
          0.011036113757790256,
          0.039043353070205726,
          0.08764826122535539,
          0.08400754824776721,
          0.08956811251264617,
          0.0642029803031714,
          0.0704895229983639,
          0.03821976525482487,
          -0.05028943378597952,
          0.002365479077483305,
          0.07768178866448658,
          0.01656470979511082,
          0.11728227330408857,
          0.09308610875336441,
          -0.025991906042053148,
          0.03576205861877667,
          -0.00039288120465875173,
          0.037199227248031305,
          0.019628323854162376,
          -0.019098576869464708,
          0.03999343155958089,
          0.0009756238219595461,
          -0.10316860051572688,
          0.0015899927493119375,
          -6.767897864807248E-05,
          0.04443209355753427,
          0.03757119998685946,
          0.05158987642142774,
          -0.06207826269819648,
          0.07606909705444936,
          0.06416901301803679,
          0.03597733489786008,
          -0.033336783946017294,
          0.026656780530388082,
          0.020748183499867227,
          -0.0032629146206331785,
          0.08609317945810775,
          -0.0292943240004828,
          0.0650477135145686,
          -0.038611326968269306,
          -0.03199742894435761,
          0.014021496198453666,
          -0.046808031045666616,
          -0.05439219737004283,
          -0.050663946637367396,
          0.043338782080108364,
          -0.04480701664500023,
          -0.0007699309079647008,
          -0.12355231955084592,
          -0.050396352156682436,
          -0.08198235334811264,
          0.0005057930583596166,
          0.0005520547941233838,
          0.0886782334080268,
          0.029650696155862716,
          -0.004961578286577279,
          0.019782484916810558,
          0.09055119254816316,
          -0.01321953312340257,
          -0.04466244895326797,
          -0.0433954185191409,
          0.017043025382534185,
          -0.07314495252232296,
          -0.01513267214573334,
          -0.008139640423567395,
          -0.0834836663673453,
          0.08976044247669072,
          0.0003447339681696555,
          -0.008803658069506955,
          -0.02573977419082072,
          0.04815384476927162,
          0.02671120920541718,
          0.05488347363849735,
          0.018030581738175528,
          0.000624068013885607,
