{
  "Layers": [
    {
      "Type": "Dense",
      "Weights": [
        [
          0.06474931811044932,
          -0.05735142838587329,
          0.0038469815415305805,
          0.056905638819985005,
          0.03083148374992951,
          0.030797893208760283,
          0.09049539601982093,
          -0.02829380295804134,
          0.02712260837405344,
          0.05250821542569284,
          -0.0124169439838581,
          0.012997435258564413,
          0.03619459350535183,
          0.05271703686438156,
          -0.0469543889085091,
          -0.005660705347535058,
          0.05956811301257324,
          -0.03554807579487932,
          0.023366608074885494,
          0.040685613209056275,
          -0.06919772172853585,
          -0.03347590774182546,
          0.05129787594688727,
          0.042763099014772994,
          -0.01821951505976936,
          -0.03065527531656426,
          0.011731868206078086,
          -0.013386184650215729,
          0.0015274411958305987,
          0.04811097385008432,
          0.012186519272583546,
          -0.08061415242435264,
          -0.04148571776401331,
          -0.020418377897809835,
          -0.0630323745407712,
          0.0016850183555620823,
          -0.056841025309282846,
          0.0014726600970544905,
          0.014229116599676662,
          -0.04595659919432678,
          0.040048083473835455,
          -0.0029603796138149103,
          -0.021178008273776913,
          -0.014309185783236747,
          0.039591371321064814,
          -0.053445825830652244,
          -0.061521835984088266,
          0.012950587709850615,
          -0.08258755212445582,
          -0.0633031321353047,
          0.015678342070063377,
          -0.004649555061717387,
          -0.037504999831436084,
          -0.007138914460204007,
          -0.023230957949481122,
          0.023208679748534577,
          0.07063129804617271,
          0.05306561723817642,
          0.030907384226692185,
          0.053137215706281105,
          -0.09380481741612402,
          -0.06316675337233556,
          0.0736125621694642,
          0.027703794850124773,
          0.029742834179792697,
          -0.017042553847954636,
          -0.016955982799042386,
          -0.048417668666873116,
          0.0663478243764283,
          -0.06928154939916688,
          0.08414156252968978,
          -0.05040627176473477,
          0.043219663247249025,
          -0.014883480680353698,
          -0.06448439961427051,
          0.030630626254634828,
          -0.02797019277970705,
          0.08450058175103906,
          0.059704197613308564,
          -0.04465679069658986,
          0.029660542663240523,
          0.019706594684803548,
          -0.018983135293041888,
          -0.019389870103822777,
          0.06456235634012204,
          -0.06190363448422565,
          -0.0424090963897313,
          0.03157966967182996,
          -0.07894451063661566,
          0.08177683016023177,
          0.0809326388612938,
          0.08110457496044447,
          -0.041328639544540496,
          -0.0101609548071311,
          -0.02408343248045733,
          -0.018059957270036456,
          -0.027974380410038434,
          0.013199594317854228,
          0.028605597073433634,
          0.07372387860016319,
          0.034792081531961304,
          -0.07310744634272694,
          0.09579099712351641,
          -0.030754237546769963,
          0.013837952023575475,
          -0.047217814264874834,
          0.03978917103838701,
          0.018862380215557976,
          0.08653098324041619,
          0.007503601195784482,
          0.08920329758528821,
          0.07194539580378091,
          -0.06995151305354627,
          0.010252847850505155,
          -0.08752727844200532,
          0.065087464834219,
          0.08268123444223854,
          -0.008662533594034013,
          -0.05243542155002901,
          0.04867500606274638,
          0.036986689341452224,
          -0.06359005748123724,
          0.07369441719005974,
          0.02690686479064747,
          -0.07990905769136689,
          0.06107505994025075,
          -0.018316875030065398,
          0.13110411630353488,
          -0.06924376456284274,
          0.021978677350002678,
          0.06386632290765556,
          0.0639647614005847,
          0.009361251296237681,
          -0.08835100905837633,
          0.06768972793953434,
          -0.0011924124006390117,
          -0.06746574976343751,
          -0.018293929257767294,
          -0.006141195668125378,
          0.026092799417168158,
          -0.04602649608099577,
          -0.07816217513227182,
          -0.02378028680551085,
          -0.020102131742205372,
          -0.016400463602874945,
          -0.05041828668406563,
          0.029157930920202472,
          -0.004607670053490668,
          0.044870105755997876,
          -0.02711755837105419,
          -0.021999303009239045,
          0.13253559121895025,
          -0.08034856097623773,
          0.10788516848959835,
          0.07376914363700587,
          0.060778525625545664,
          0.033695254368095076,
          -0.12044108980939926,
          -0.007382993374112132,
          -0.07794435065367317,
          -0.044506169236197955,
          -0.04605959329534663,
          -0.04111543078867896,
          -0.045088055061822035,
          -0.038914750941923294,
          -0.04415296813798435,
          0.014921260022906254,
          0.009076204509230653,
          -0.01577931740761076,
          -0.03783442616013972,
          0.001953607134944389,
          0.08986488952604847,
          0.052100437103228106,
          -0.10064779761640827,
          -0.011210155227291933,
          -0.008346437074502633,
          -0.011424620025101945,
          0.020251882034171442,
          -0.054087160191525735,
          0.00045479168460855536,
          -0.06066965945828996,
          0.027166517737498074,
          0.05084577871726681,
          -0.03242316712456125,
          0.09333558674084434,
          -0.11510949257935231,
          -0.05764361184791083,
          -0.07596843030283557,
          -0.10533239579867475,
          0.08436072995281386,
          0.0773561581586537,
          -0.05195563012535901,
          -0.04755427341973605,
          0.020223580875357108,
          -0.008937117044710823,
          -0.05113729884471095,
          -0.003616366461838107,
          -0.03270080591915642,
          -0.013687234765402588,
          -0.07075932307294158,
          -0.00034465642759631837,
          0.022806972550313807,
          0.06857769777728015,
          0.02343115881932735,
          -0.06519143002606766,
          -0.09822102441758725,
          -0.09007295265535177,
          -0.15737815961103124,
          -0.056351505807716105,
          0.07464331601133181,
          0.04689975449196926,
          -0.0016664247472949385,
          -0.0985504077343358,
          -0.10598741271014799,
          -0.022789596321806844,
          -0.16677667815696304,
          -0.11169815972977962,
          0.04555895483312473,
          -0.04922309986987242,
          -0.10108865671386645,
          -0.08287127049734497,
          -0.032057773344748866,
          0.016240331402122034,
          0.0563845741120552,
          0.03473468182562752,
          0.012437331212308375,
          0.10177536448350222,
          0.004138717552115819,
          -0.015392760600080303,
          0.05442618841639721,
          -0.08144733107213721,
          -0.05968971683877588,
          -0.0731248758027959,
          0.023356700849493813,
          -0.11605100794726082,
          -0.06255416398794125,
          -0.0685956454343888,
          0.05974897325314852,
          0.15837215266145185,
          0.14806383757331418,
          0.023074737009669135,
          -0.05546138465644491,
          0.0037562430190742533,
          -0.12094569195912426,
          -0.03805186138177535,
          -0.0424181411556718,
          -0.05543119808967452,
          -0.036444573717442016,
          -0.052599550521691685,
          -0.013900889349954695,
          -0.00941860853282983,
          0.013572586618568892,
          -0.011416438309504588,
          -0.11724304303918576,
          -0.027546289210674098,
          -0.0648894972302165,
          -0.06380430387417142,
          0.006402698483634239,
          -0.058153173188698254,
          -0.11932673342476173,
          -0.10852818054468305,
          -0.06697687511528273,
          -0.0959999352177412,
          -0.13835746620612815,
          -0.04757368058349647,
          0.06555299121575572,
          0.07902906261691196,
          0.015363076599692903,
          -0.009755766404400215,
          0.012010343394582998,
          0.0007781293744786188,
          -0.03339916833578212,
          -0.020147315322202448,
          0.00839425915078731,
          0.039180889737088616,
          -0.007615540603025084,
          -0.010804929579143393,
          -0.028163159480450898,
          -0.06492823656446638,
          -0.09165901967693965,
          0.021353931266582277,
          -0.09487230171018167,
          0.04039779682481456,
          0.045292548217598434,
          0.0024833959400019996,
          -0.07411762456327829,
          -0.0033654200230919555,
          -0.09194744570125243,
          -0.03924795445569473,
          -0.1767719022412584,
          -0.12862535203410772,
          -0.003148253111457372,
          -0.01324906892333749,
          0.015419510728327665,
          0.02569800682493132,
          -0.05358960075157466,
          -0.11074246609872809,
          -0.12597890533576894,
          -0.0033362833699652926,
          0.11135011749493409,
          -0.03824088460612056,
          -0.02028769333852642,
          -0.027629894079931147,
          -0.07194688414514443,
          0.0023225727397100356,
          -0.07897051417200934,
          -0.03711623117420692,
          0.0633497581346367,
          -0.05905866246332585,
          0.06170346270522255,
          -0.032778935132191454,
          -0.09582883531988597,
          -0.017803630444567824,
          -0.01192233178114553,
          -0.05794861469200319,
          -0.12974529584003236,
          -0.1803328834069788,
          -0.05803072313667448,
          -0.01678706657391961,
          -0.0186027554387999,
          0.05529005812266434,
          0.04127814196311893,
          -0.09471574286980128,
          -0.13422869707892718,
          -0.2045121923311319,
          -0.11543688142760149,
          0.007977244897410054,
          0.07531571583989352,
          0.09573210200467308,
          -0.09473185068904465,
          -0.10980488833238977,
          0.0978021767127696,
          0.07337467305363164,
          0.008336549334318186,
          0.05771265757180659,
          0.05609701267809442,
          -0.017176365645479866,
          -0.0424224791640529,
          -0.028521813227396494,
          -0.05827290068390315,
          0.024167817089685857,
          0.0021870480046926252,
          0.014970891524684539,
          -0.0901666884848873,
          -0.030035112947650933,
          0.028984067851862024,
          0.09783443778305251,
          0.06947203025417487,
          0.16712615079313883,
          0.12686514420431244,
          -0.1723166935217444,
          -0.29666363316130584,
          -0.29884653061627786,
          -0.10036458158422787,
          -0.0588475091739706,
          -0.03785278443072478,
          0.0207401060499808,
          -0.06080887103020762,
          0.004550357997779237,
          -0.07076980487551848,
          0.017164353241600323,
          0.0037249271337471343,
          -0.04343410512025494,
          -0.03410248841515228,
          0.021663559695790136,
          0.02764681906746242,
          -0.019314788388028893,
          -0.021859562789760593,
          -0.03648655168826605,
          -0.018963821478358487,
          0.023853738656346803,
          0.09367498791685283,
          -0.04632686182041151,
          0.06970858034020926,
          0.1312876814895344,
          0.08992376402368972,
          0.02734007500935297,
          -0.014638940655408654,
          -0.18723932558451506,
          -0.15262453773864365,
          -0.2573310655594256,
          -0.10509426633617577,
          -0.01841055508401516,
          -0.021867775883327754,
          -0.05544302063275683,
          -0.13905337656508462,
          0.012137511345631565,
          0.02438698551358062,
          0.08656607873643106,
          0.05114116224941812,
          0.047251581375200906,
          0.02896858869566137,
          0.027530563927222893,
          0.0221881158224874,
          -0.02040191885171597,
          0.02038814426166118,
          0.0022656751208913247,
          0.03627718327459277,
          0.07620948515881719,
          0.12571349449367064,
          0.09654931371231153,
          0.12908756555850376,
          0.04009758754118849,
          0.14386018482924787,
          0.10537501190641042,
          0.03322213355512748,
          -0.11965909097709489,
          -0.19853179284378794,
          -0.20655762145099618,
          -0.07224991671531106,
          -0.06428784943015374,
          -0.03442977132164384,
          0.05471898002101673,
          -0.11332398764599123,
          -0.03150711478263276,
          0.03830703062247422,
          0.06077220521042521,
          0.02463633473888301,
          -0.0012007931633103606,
          0.07248581040526404,
          -0.031060791962804667,
          -0.02281848656034611,
          0.049689600069730964,
          0.045781132564361456,
          0.012673550514231358,
          0.03193438808099847,
          -0.01382551101863149,
          0.02173156548934355,
          0.01728594696290968,
          0.09301790922738676,
          0.09157729910807239,
          0.0341795115293211,
          -0.05601966702135135,
          -0.19162243098836024,
          -0.1763364032490864,
          -0.16772491286158103,
          -0.1671172393546542,
          0.04031156946145857,
          0.07844683534145198,
          -0.05134393053825607,
          -0.012213792739832838,
          -0.020339261424800806,
          -0.04393427842562727,
          0.0211122637565101,
          0.03269842187457139,
          -0.01957574084740683,
          -0.04550608683343684,
          0.03522013107664185,
          0.04775120505328602,
          0.11567791532197094,
          -0.03421440931857138,
          -0.01213200533195138,
          -0.011826501642084286,
          0.054342630396976,
          0.07193729495999673,
          0.027744211149154104,
          -0.020220777003672752,
          0.05656951722933239,
          0.08087317025217616,
          -0.01868749015793848,
          -0.008604987410949757,
          -0.17920430026217612,
          -0.052925685929437465,
          -0.12098466566638745,
          -0.0535787671051685,
          0.030968084446734875,
          0.06949998234520129,
          0.015472371374115699,
          0.023065576328254934,
          0.05218340929628044,
          0.02588426077353009,
          0.06959383863130349,
          0.07857035863268798,
          0.03936470739319144,
          0.06692022057235283,
          -0.019956740700857192,
          -0.07225347252392907,
          0.032765872728958055,
          0.07053474501064805,
          -0.06164888031218235,
          0.040824659400700056,
          0.05984274225560716,
          0.02387367590191956,
          -0.02108157788567753,
          0.04996300670951695,
          0.12797701380416568,
          -0.012489830376101962,
          -0.0437176534353427,
          -0.1203079738388922,
          -0.21967719219499235,
          -0.13257291828186563,
          -0.019904671599350467,
          0.040192062719858875,
          0.12952936957742045,
          0.0974537659498006,
          -0.0024646266316989086,
          -0.05735320762367771,
          -0.04411491768217634,
          0.17106600230484012,
          0.06433413542006451,
          0.054508875302450195,
          0.04292031023832195,
          0.030909499521061996,
          0.09269469908006425,
          0.004041860838376,
          -0.08522153249338915,
          -0.1234955015802638,
          -0.08049374401435307,
          0.03848220665934739,
          0.022745794541536538,
          -0.10321491188648058,
          -0.06620041782443094,
          -0.03445511337222739,
          0.019927429579404275,
          0.040181097560758175,
          -0.05534272724560441,
          -0.11925143627677467,
          -0.15116802827657724,
          -0.07038076516331733,
          -0.05042109986547116,
          0.04382152675985375,
          0.07083411634147846,
          -0.024505558254205657,
          -0.10696727534599931,
          -0.018078752060743438,
          0.016773791496229144,
          0.0017225756337442002,
          -0.06109680363308211,
          -0.03639092794107247,
          0.09414408261221274,
          -0.06190992646070357,
          0.03870538244315136,
          0.05605949627139484,
          -0.036147740427288126,
          -0.046714977147335926,
          -0.03169108145498262,
          -0.004237498220941883,
          0.0007271176016977863,
          0.031810533792295356,
          0.014715979818065482,
          -0.06437418111732589,
          0.01613891163131332,
          0.004973083310648765,
          0.001733905319581259,
          -0.03478008876724872,
          -0.04070100463656678,
          -0.08770993640324011,
          0.047362905533288334,
          0.053852595029388814,
          -0.020902237321643723,
          0.04252976304472775,
          0.024638071201638863,
          -0.044787236217214726,
          0.06844170355246607,
          0.07276214585933378,
          0.006266925730602771,
          0.024656850972045657,
          0.051396335232838236,
          0.0967528164123747,
          0.006238317300280519,
          0.05428490389621093,
          -0.07377213928587235,
          0.05756658858792163,
          -0.0381103924146023,
          -0.01831395731870247,
          -0.003962028910858479,
          -0.09173705999701251,
          -0.0406289100267176,
          -0.002956034133729528,
          -0.011449737675837129,
          0.007277206304754622,
          0.09605833732093377,
          0.13194326036381424,
          0.08107391895939513,
          0.04374446880086924,
          0.015332618833603671,
          0.043269445329474104,
          0.018751037188631227,
          0.03922133380836094,
          0.014670005804490533,
          -0.07508206411724376,
          2.4893565716470417E-05,
          -0.022876680691427363,
          0.025324245610494997,
          -0.05137746864443912,
          0.02521591733195939,
          0.040665920034349955,
          0.03495210045622075,
          -0.012201442258724349,
          -0.005049637436540451,
          0.02114303481581557,
          -0.06466781577810679,
          -0.066393747056656,
          0.021899182276667113,
          -0.1257278040013178,
          -0.09468690417418443,
          -0.011523432531549813,
          -0.11372687204998427,
          -0.036082793118885605,
          0.1384771555499536,
          0.13050716417052133,
          0.14988358120103623,
          0.039836653083333985,
          0.0057173550659495136,
          -0.06596485442891604,
          -0.13260478123802807,
          -0.08390399222994237,
          -0.04557508154105809,
          -0.05511289395775555,
          -0.06740560004676321,
          -0.05622826198838158,
          0.04768035551880958,
          -0.06471372952135815,
          -0.1232534963141992,
          0.055768209647455665,
          0.019039306325874375,
          -0.011565457256493382,
          -0.044027925350701186,
          -0.028666037803528624,
          0.07164566991870482,
          -0.0344844805847086,
          0.0626847324451599,
          -0.011057140637403193,
          -0.002625557325793898,
          0.04832763788552123,
          0.07387974954968211,
          0.014875992834047643,
          -0.02691323445903836,
          0.1185101009611752,
          0.10327656413759775,
          0.0612720755860783,
          0.04065551264697917,
          0.046509204424218895,
          -0.03529685117267638,
          -0.12348904900702007,
          -0.018236956871714127,
          -0.05954886768817927,
          -0.0772691279266133,
          -0.09200915022244924,
          0.0010707706817083276,
          0.01807933594330326,
          -0.010727223878471213,
          -0.04655718109689238,
          -0.04899297975289488,
          0.010346479505107017,
          -0.029146369329158997,
          0.008475187785269957,
          0.03664003392233863,
          -0.014525593658189746,
          -0.0424425957077597,
          -0.1257373686000526,
          0.03986622412568284,
          -0.04080763466941001,
          -0.034477452248907324,
          0.05931232172015609,
          0.11025435402899829,
          0.10544667692911545,
          0.06354589510082935,
          0.059277848031596865,
          0.06037140068701702,
          -0.004788676504899423,
          -0.05998809373680048,
          -0.03243184527544236,
          -0.0353215727885708,
          -0.02236660793798948,
          -0.062477312643560115,
          -0.024007275999903228,
          0.025924895210584525,
          0.02705290634846867,
          -0.04275175761926261,
          0.07775912372601432,
          0.12608378974329,
          0.06763011620076462,
          -0.08099213855617056,
          0.02144376021590091,
          0.026563965297578637,
          0.004104101329481575,
          0.07200609759439937,
          -0.051177419314938175,
          -0.0365029221319299,
          -0.07335391007230499,
          0.014902824867273103,
          0.04060589619320454,
          0.019673013835422953,
          -0.03206371235267134,
          -0.10245201801610251,
          0.05070589212687461,
          0.025866050767597216,
          -0.000279467344015552,
          -0.09018618974918695,
          5.1079048661755604E-05,
          -0.06218774311110223,
          -0.1035937534262684,
          -0.058475235311202745,
          -0.014049114141656466,
          0.11927561511553317,
          -0.030861710312680878,
          -0.0398922727510125,
          0.04090387897742309,
          -0.0737079763091658,
          0.0012240859588344049,
          -0.10880260444654889,
          0.07546145542245573,
          0.05870512836880649,
          -0.0342841091804763,
          -0.10063441876006476,
          -0.09919191878448999,
          -0.06701214130866932,
          0.12770914891469975,
          0.004695746597684766,
          0.09429440934983918,
          -0.049902214322549224,
          0.00977637316066875,
          -0.031202570021805168,
          -0.09683925017831044,
          -0.028522301695245736,
          -0.1715119091048626,
          -0.030391768360678015,
          -0.014951368684875411,
          -0.0628478210162542,
          -0.02703959660549354,
          -0.09799497414050477,
          -0.054072773826897055,
          0.0060245602303861745,
          0.01773574371032119,
          -0.00558797440078887,
          0.03516891417050712,
          -0.04522628410857811,
          0.04856160371777938,
          0.0024078121611996093,
          0.009034674763625202,
          -0.026915471194464646,
          0.019018997379170687,
          -0.03810152945415041,
          -0.0022181788187202642,
          0.05562728142242433,
          0.02996786395458522,
          0.01311485336739185,
          -0.0017228842363179618,
          0.0028688581879923666,
          -0.02243271919940651,
          0.013624987223611613,
          -0.05235708054712664,
          0.06695999647505112,
          0.12058259826966021,
          -0.09563143128981287,
          0.06102136784736288,
          -0.1620807919445786,
          0.05646161176303458,
          -0.11402371699426428,
          0.036523866756940845,
          -0.07555042888205912,
          -0.02947006229472367,
          0.028597350130477477,
          0.013962315826896271,
          -0.032594647293965544,
          -0.01394704298734261,
          -0.05676698206617192,
          -0.06159965358545285,
          -0.04995092000784534,
          -0.029300911071902136,
          -0.06264631823614725,
          0.09882018537157519,
          0.02173804571561147,
          0.08753563115717329,
          -0.018395538279622467,
          0.005508566676498671,
          0.007780917302283724,
          -0.07407340103465059,
          -0.0510470698081851,
          -0.016484563692422672,
          -0.01812496760348795,
          -0.03461227681308573,
          -0.05414568328125845,
          0.07185115757420887,
          -0.024682546188195133,
          0.00886815164980397,
          0.030570764080462436,
          -0.04011478598779296,
          -0.015486999771485762,
          0.01623406760580656,
          0.01014365502678333,
          0.028286984164612408,
          -0.06456405954115141
        ],
        [
          -0.048866228445949185,
          -0.035913186186459375,
          -0.0028226436485911063,
          -0.0021696608519808525,
          0.004165268010618058,
          0.01856242429930692,
          0.07332556002799402,
          0.031013013447522865,
          0.060117335778738734,
          0.016054123933025174,
          -0.016678275660974823,
          0.035676490198460725,
          -0.0808528090195374,
          -0.09300949659649882,
          0.03200157253752894,
          0.035991202947742176,
          0.028179203064553557,
          0.03169181919421343,
          0.013884380592187473,
          0.08213988648795735,
          0.012542110825925467,
          0.028661020319280462,
          0.07775140196507377,
          0.049375922505643204,
          0.022485526755780284,
          0.07730266295536627,
          -0.050466031210609975,
          -0.048796344900390254,
          0.018873921467215195,
          0.00791548410258203,
          0.06449185151999617,
          -0.022222179897710213,
          -0.02335581370533358,
          -0.06045699207378341,
          0.01802286512611433,
          0.06236539136533026,
          0.000372160053365521,
          -0.0061763451787455945,
          0.04512824807991587,
          -0.1038860582429428,
          0.01847272469621289,
          -0.015498493442811501,
          0.014968071199339473,
          -0.06280481686346916,
          0.06078652235819219,
          -0.007919109727034638,
          0.01509931349805724,
          0.07024023396896982,
          -0.0670555684620383,
          -0.06303157937289855,
          0.04614146602000047,
          -0.046212175250289644,
          -0.015489157508858854,
          0.012170405703538315,
          0.06605007005810447,
          -0.08716284214853141,
          -0.06705503672270043,
          0.06828650911688873,
          -0.020455318781994154,
          -0.0346119623894694,
          0.018082039776484267,
          -0.04715085213941772,
          -0.00442788730013751,
          0.05919196099278891,
          -0.14290100751981677,
          0.009943518353988389,
          -0.0036387249324799195,
          -0.03605344815797859,
          0.05241199928353255,
          -0.008575393770604879,
          -0.026946815205331032,
          -0.07210620689545863,
          0.012487124866987841,
          0.019771365730006693,
          0.038366275649061435,
          0.10346119240039804,
          0.001465238570793879,
          -0.04401237827052971,
          0.043660672391292975,
          -0.03339623143742792,
          0.019869695279346913,
          0.03451263152116522,
          -0.04530578254499517,
          -0.09261327015251479,
          -0.04058822262380535,
          0.018160167092046785,
          -0.04814041612262567,
          0.0401462218694947,
          -0.024191094843606167,
          0.002787059617293208,
          0.04561468444079124,
          0.02721635497748,
          0.009830467325058786,
          0.023962822106736278,
          0.02915064902821239,
          0.060688780206481,
          0.14657180501435238,
          -0.02677969313756344,
          0.11348463505806611,
          0.04077998559275604,
          0.07785658483553048,
          0.09542652787963188,
          -0.03594359930081774,
          0.03569256344901912,
          -0.059363292088991076,
          -0.012873377065659816,
          -0.022086561576128535,
          -0.04822061870261866,
          -0.001879904480050419,
          0.056431603830990135,
          -0.06214900095679576,
          0.011506274972138485,
          -0.08749400067727638,
          -0.039702453273250116,
          0.05745566667785205,
          0.014951481747803422,
          0.0019916997351161047,
          -0.019017245414204936,
          0.018149042382689003,
          -0.04913712664393162,
          0.01614202227822525,
          -0.028516688680806167,
          0.023082953854278266,
          0.04667739102890784,
          -0.0815854389521121,
          -0.01629390005536171,
          -0.04308440134511901,
          0.012575558040997971,
          -0.024830073115237848,
          -0.06601928829282853,
          0.08658321517260306,
          0.001702991208794502,
          -0.009963680993687265,
          -0.0387988921589158,
          0.0195810374674436,
          -0.030759012830920484,
          0.018286814054753388,
          0.10238915748254886,
          -0.04715301076250051,
          0.024096862736543344,
          -0.11620378932916517,
          0.06473737627125682,
          0.012765373015620578,
          -0.032586303768686896,
          -0.01727836289556167,
          -0.03554040877323486,
          -0.0939753413453335,
          0.007860224791083241,
          -0.02577873502195972,
          -0.06091952524471218,
          0.025245930287252714,
          0.006403794527866446,
          -0.03630830168872615,
          -0.024324220664544118,
          -0.14720236893359367,
          -0.0613306090061267,
          0.012837958170382356,
          -0.030067735651300626,
          0.06756202055359346,
          -0.04583232600629431,
          0.015833292092281608,
          -0.04605311100201492,
          -0.005364433932359382,
          -0.03768272339552837,
          -0.028329605101053666,
          0.11268215958125441,
          -0.0356887863329052,
          0.0037424780034600274,
          0.010874012426249245,
          -0.032603052679082804,
          -0.06562476955746321,
          0.02085842267451677,
          0.0432315267785319,
          -0.030542080682308195,
          0.0117787372627746,
          0.12832748170065175,
          -0.029078029942391996,
          0.05895481725050071,
          0.07022840798100409,
          0.03788552702681221,
          -0.01280031850259528,
          -0.07126136160492903,
          -0.02531367163400564,
          -0.06973107914794191,
          0.03693719673533134,
          -0.04683141510689426,
          0.08116944949300518,
          0.07425946184534468,
          0.08873837110151221,
          -0.032685069999878864,
          -0.022645742915279297,
          0.12490264555526351,
          -0.11284976160774289,
          -0.06550035227289679,
          0.015309123077586296,
          0.05740674909219514,
          -0.12160057861258128,
          -0.030353923702016512,
          0.05205978805183662,
          0.005198091809626708,
          0.1367610603743868,
          0.02698465359824019,
          0.013880082698665494,
          -0.08233530303308238,
          0.05521029165124131,
          0.06115549025083497,
          0.09088937735150732,
          0.006241767544472997,
          0.1042251048417423,
          0.006885605220202868,
          -0.015963277012841812,
          -0.06284710635004763,
          0.03670399791490257,
          0.05638257160212013,
          0.03720966800964858,
          -0.002256635029451712,
          0.02614233834169808,
          -0.024352349911990225,
          0.02624644019494868,
          0.03710048652560746,
          0.03901461311536504,
          -0.027284489484710003,
          -0.0043020869913319194,
          0.014431344272648758,
          0.07589446149599478,
          0.03677782578926229,
          0.034337552784995985,
          0.07224407600807917,
          0.08492954765997401,
          0.07909980417673032,
          0.0520396197961742,
          -0.024828423196025955,
          0.051366698065240704,
          0.03430561555266462,
          0.07959590280453933,
          0.09912661024504137,
          0.07445032215196443,
          -0.13405007033339816,
          -0.004451771109062659,
          -0.04209247233429546,
          0.0013546278744177892,
          -0.06945612038464438,
          -0.03876045412384851,
          0.10375185447969364,
          0.030553348411469863,
          -0.022207828328934632,
          -0.014677036121597816,
          -0.028844155216782453,
          -0.05209585316016841,
          0.09684188805505256,
          0.05067388533042675,
          0.024896944460894473,
          -0.07665871364368669,
          0.01384109725350136,
          -0.04214200868915659,
          -0.026265674162526682,
          0.000513745511592164,
          -0.02664693002328077,
          0.07949891458078945,
          -0.03660132583951958,
          -0.009428879131699552,
          -0.03133626383521101,
          -0.059359828900394894,
          0.05072778939969556,
          0.039289599320827914,
          -0.03615612337258748,
          0.023976453657758055,
          -0.016796780633441484,
          -0.12102052252382023,
          -0.004023364425185796,
          -0.0313173530540137,
          -0.09282332924008384,
          -0.03921872179017706,
          0.0552845920007331,
          0.04124639465406866,
          0.057430297465912696,
          -0.004110783032839052,
          0.04886764756041539,
          -0.0314986873090073,
          -0.04447235461451194,
          0.022512669984775073,
          -0.10511674811805917,
          -0.0036111466614674927,
          -0.015354522022375663,
          0.08038328040315174,
          0.04164744183619209,
          0.03994698137584409,
          -0.12680407818801515,
          0.02978713990151804,
          0.02020143038988459,
          -0.02911817115313663,
          -0.006671058952284022,
          -0.038574259321049555,
          0.008165870745951593,
          -0.08396309274083867,
          0.03147794299618442,
          -0.05302404135253803,
          -0.020067434383369342,
          -0.0427110153693,
          -0.06762319999213982,
          0.01740432080997275,
          -0.01969135131415759,
          0.03267673752427797,
          -0.08126602379078361,
          -0.07707695076668168,
          0.13009162153317427,
          0.06950631888487396,
          0.026967978512605253,
          0.07840496318332674,
          0.005809330964743561,
          -0.08104338720925641,
          -0.03744613421776954,
          0.040579757977890915,
          -0.12431080568058853,
          0.003489712032814748,
          -0.04848618644796706,
          -0.057059861727339053,
          -0.07990234071162647,
          -0.045939063924865076,
          -0.07310526339202293,
          -0.09549833559388997,
          -0.08379208089583667,
          -0.0999694843889884,
          -0.03709596583368908,
          -0.10476274220473826,
          -0.1111565665953172,
          0.0014055492243903013,
          -0.07181408097319054,
          0.06794920203351071,
          -0.01970479068483553,
          0.07413829103542188,
          -0.008642752464369302,
          -0.0134155649604883,
          0.04132129299113346,
          -0.015044340605792258,
          -0.056740855902089146,
          -0.06982437798465427,
          -0.017741271299139105,
          -0.05158303452356024,
          -0.04882816349933217,
          -0.022921477375037566,
          0.005733011249915689,
          -0.05519834944981864,
          -0.1608267751201323,
          -0.028874789860093255,
          0.007467096977938517,
          -0.10621921762163218,
          -0.05621259945372873,
          -0.05149165828874112,
          0.01862231730730839,
          0.02237020610028143,
          0.014666062625414087,
          -0.0557053791028632,
          -0.0574673361214632,
          -0.07602716694184977,
          -0.039189319505302855,
          -0.048654559611189835,
          -0.025440946203574226,
          0.03455431035204651,
          -0.09926824464112802,
          0.027069418047793475,
          0.01573138836810545,
          -0.01664528065389221,
          -0.051551794654049916,
          0.0373131044252133,
          -0.09824928485587797,
          -0.08825888393468222,
          -0.015866683883149362,
          -0.054005803548714766,
          -0.02282785631146425,
          -0.15424019009330692,
          0.04291057646772709,
          -0.018231846101773443,
          -0.09887152557026166,
          -0.0009214414178022848,
          -0.002974542846983093,
          0.0042177790935002835,
          -0.011669418754602852,
          0.017892357315516978,
          0.04121674426424978,
          -0.04748672833798298,
          -0.03063080290988993,
          -0.06370324898233456,
          -0.010094362682957186,
          -0.04469419833137868,
          -0.07132016721994602,
          0.060676695716384614,
          -0.058427963326003626,
          -0.07676909277661297,
          0.05657576617770064,
          0.05852304833321215,
          0.040446742754226876,
          0.04377313271937903,
          0.029379838397674083,
          0.012212955932770574,
          -0.03217104137347291,
          -0.037069991977339116,
          -0.029660341676936805,
          -0.0449906177209782,
          -0.04481114259842904,
          -0.048636262645694386,
          -0.0060881421406063915,
          0.05349609160997062,
          0.018133582364128667,
          0.1163078965268744,
          0.06817748490575427,
          0.05729151710681601,
          -0.0742412624194234,
          -0.04639199148996904,
          -0.05803311998232518,
          -0.0597871738801777,
          -0.003180587587122747,
          -0.13885535877588578,
          0.04697952532027661,
          0.06304697359338648,
          -0.016385230002071833,
          -0.041828096568332064,
          0.04829966379661076,
          0.07775768469727316,
          -0.03262775357519615,
          -0.009227482751405778,
          -0.0706391186848372,
          -0.001082254074126156,
          0.026690888307783947,
          0.05652843530689774,
          -0.06701129084506095,
          -0.03759198779812427,
          0.053721979027480264,
          0.05393848543147666,
          0.023332797055863996,
          0.085290212525303,
          0.016684867819511586,
          0.10422265809223843,
          0.09179374982274795,
          0.0675856594177461,
          0.11608774699330184,
          0.02474432677040213,
          0.01644279027398486,
          0.00246429150138607,
          0.006099561514111287,
          -0.04368801658004566,
          -0.019007907232153606,
          0.026841774628512564,
          0.070528849898295,
          0.019261975997836505,
          0.039089993419163964,
          -0.05242019736374841,
          -0.10841434771389144,
          0.04658407058073702,
          -0.012274496199457079,
          -0.0030805290275674985,
          -0.041041668097666205,
          -0.015895369490664238,
          0.025144145987496983,
          0.10935632911388463,
          0.110868200730727,
          0.07612931656026653,
          0.09206293011005952,
          -0.004619258114738356,
          0.020773398186995626,
          0.0370213647775327,
          0.04115983219925234,
          0.14946206648877186,
          0.06342422732748636,
          0.1263352106375619,
          -0.08405115007839997,
          -0.060373064800464095,
          -0.005225014184031685,
          -0.009200274555185425,
          0.03297793368949715,
          -0.09227922751699379,
          0.03243973225634623,
          0.06373393430206772,
          0.08162917798724305,
          -0.032874527601646185,
          0.0017745057144278858,
          -0.0052763962975369534,
          -0.02719998667859778,
          -0.03337485816040408,
          0.10089460017208911,
          0.1076157275587391,
          0.028567518954939353,
          0.09175027765448114,
          0.1416317856145907,
          -0.0004397947285214841,
          0.020631169872658558,
          0.07601323906788537,
          -0.11184720975019773,
          0.14722696445083366,
          -0.0336969240550202,
          -0.017959657174945357,
          0.07169822497266982,
          -0.036056238853771995,
          -0.02017446025124207,
          -0.034685731570482804,
          -0.06180636955287462,
          -0.0697788324249729,
          0.03886227068303484,
          -0.0295021107557662,
          0.05098283535948964,
          0.026610665071483016,
          0.11583711620450388,
          -0.03840515185952376,
          0.07348520218003708,
          0.05260748545175125,
          -0.044955282531551,
          -0.07565262302856368,
          -0.036960985445718124,
          0.07272338503270169,
          -0.029901670262816205,
          -0.003458099795050949,
          0.04174479639822038,
          0.03067755140785275,
          0.04501688012410162,
          -0.03791479021339829,
          0.060005980693291314,
          -0.12229506771752985,
          -0.07301220318831797,
          -0.0003504006605338047,
          0.004818169428833369,
          0.04569925724826388,
          -0.06971299611573263,
          0.15630819163634824,
          0.16490337897080212,
          0.038040425197386034,
          0.020240131260925966,
          0.05406105267570011,
          0.1182502392466611,
          0.07246891205223834,
          0.04936956356306226,
          -0.04255583118296997,
          -0.06348534145609826,
          -0.01005379781070761,
          -0.07880783710042265,
          -0.09076852001530282,
          -0.04683859498373562,
          0.05782442233845289,
          0.05579525372678577,
          0.041045331163011504,
          -0.0192368425731998,
          0.027631077569312636,
          -0.08066092390249281,
          -0.0021931901689347024,
          -0.03156988295182054,
          -0.044243809715727785,
          -0.004256576094870605,
          -0.10115890439183026,
          0.011582233454696143,
          -0.03141049955645539,
          -0.02410918978030457,
          0.12777073086480759,
          -0.011643674759275215,
          0.005094066875610693,
          0.06195015824458372,
          0.014067137292767682,
          0.024207256586024628,
          0.06917491056734315,
          -0.06981005318810421,
          -0.05625577894373322,
          -0.006583357177447002,
          0.04787064257560861,
          -0.033095405904685196,
          -0.022922997309675508,
          0.03031874442187193,
          0.04197318613233562,
          0.057608668073794736,
          -0.07728362940305068,
          -0.027832080849538015,
          -0.06115800415296772,
          -0.00321424606826472,
          -0.04291983133026443,
          -0.045935079322403205,
          -0.00258836631510321,
          -0.0608416710245746,
          -0.03140371057238627,
          -0.1685792190848627,
          -0.010134933480430873,
          0.018844461187036615,
          0.022767812062872303,
          -0.03580650741419827,
          0.010351838639001057,
          -0.01141043031793148,
          -0.03262307258510157,
          -0.047634757436622155,
          -0.11131428270799311,
          -0.015279548483121018,
          -0.08517562688471479,
          0.011200954847084141,
          -0.05229494899389389,
          0.010113204918476316,
          -0.07385857589424209,
          -0.08348918149271176,
          -0.014725918683105,
          0.06697632717599386,
          -0.06303707919058574,
          0.054085616772112446,
          0.005841519568335762,
          -0.17359563809887563,
          -0.03887611988913378,
          -0.1743071431313635,
          -0.0986145907835431,
          -0.09640512419898294,
          -0.07454041723586645,
          -0.024338157288371534,
          -0.012385216097063466,
          -0.02971840778159003,
          0.022130209734459394,
          -0.07158365253503834,
          0.05140685540570783,
          0.06720216275683819,
          -0.030476041793617837,
          0.021454430192571396,
          -0.04183361957350081,
          -0.08707591905507177,
          0.024419981443653364,
          -0.019539436456777658,
          0.09024007272052588,
          0.07726583026323626,
          0.05980125258294738,
          -0.07028843464098737,
          -0.09665422014050469,
          0.020058877318993397,
          0.09345988485435833,
          0.04914512958958498,
          0.015648554452156023,
          0.031378611343862536,
          -0.05305910968935634,
          0.002117485514164158,
          -0.10219503691809616,
          -0.06595031472930643,
          0.002237480038966412,
          0.061913027525132086,
          0.04619196809642961,
          -0.034398253520506655,
          0.021871968861717942,
          0.06319321501768237,
          0.06288783465952033,
          -0.01644531138801865,
          0.04536695383240091,
          -0.0543692182747474,
          0.08630463360447434,
          0.009111952452787432,
          -0.0745495930592308,
          -0.0033840902701299147,
          0.06523760537980562,
          0.06769145316122625,
          0.011219562110862877,
          0.03779550120121327,
          0.020956397058478488,
          0.03792311071374465,
          -0.020992604863116788,
          0.06484958306306766,
          -0.12585935762386513,
          0.08903598481721535,
          0.058933602355180255,
          -0.0398055418553163,
          0.03057433558978248,
          0.054927034615273714,
          0.06972031873540979,
          0.00041619289659503353,
          0.065989059857379,
          0.09252222156920166,
          -0.1121393428304301,
          -0.029528885888843937,
          -0.05921346721893826,
          -0.070893321810764,
          -0.07017135385656403,
          0.043176589499747536,
          0.027451069402811532,
          -0.04888954859311124,
          -0.07983607516632985,
          -0.004308725701555644,
          0.06515496620072245,
          -0.028793234396543854,
          -0.006897093917717275,
          -0.10404554558670165,
          -0.12897245495837276,
          0.01117471490410176,
          0.009427942890734108,
          -0.004120760566719372,
          -0.015982852541611782,
          0.0731225280223853,
          0.06617805833208086,
          -0.019962631787250718,
          0.024768608003350727,
          0.035261951793692445,
          -0.027830799076950137,
          -0.00888273414863032,
          0.02480942573687287,
          -0.007179513975333947,
          0.0382204072520474,
          -0.020207108379392682,
          0.014707125928350077,
          0.055088203907476214,
          0.01755708573436094,
          -0.01727115206616783,
          0.03358713380097813,
          0.017020450559132334,
          0.07545163478804723,
          0.0017419169986669961,
          0.020080180403058985,
          0.04178195105826506,
          0.0015134164319898368,
          0.04062079452005189,
          0.04266629113929647,
          0.036909377504856886,
          -0.03947724786251296,
          -0.07300771965836764,
          0.003282800101151391,
          -0.053074497643741614,
          0.03255526098832969,
          0.06536139449013932,
          0.01899742996529092,
          0.04305915735589868,
          0.018468688751606167,
          -0.008108738903467907,
          -0.0015942574538159579,
          -0.07467043307803763,
          -0.019759040773698743,
          0.05632593188632193,
          -0.09997187178067915,
          -0.02109906276432077,
          0.018816682316070445,
          0.035221028442464476,
          0.028041905744533708,
          0.013275430389969119,
          -0.05299573660723428,
          -0.042030879082761444,
          -0.02889201068659832,
          0.10644135779745025,
          -0.03462063609682242,
          0.0034302023015751553,
          0.057790101378764,
          -0.05070440171554572,
          -0.002931081832552269,
          -0.047311297558194014,
          0.04758403660565685,
          -0.04674790503490916,
          0.037255970903512035,
          -0.11904785239671403,
          0.09585999850358186,
          0.06998911456643271,
          -0.0252772074508218,
          -0.04052378117653731,
          -0.025242040235867087,
          0.014556645073274739,
          0.032808080180814256,
          -0.008231855179422416,
          0.03741126781277621,
          0.028274697634420205,
          0.008631832235488609,
          -0.016038738797075344,
          -0.11801768737425472,
          0.04619596212442192,
          -0.02695721551537865,
          0.07373177930822862,
          -0.0019275921846200815,
          -0.1030463244092786,
          0.019779548756278898,
          -0.021278512220563293,
          -0.0743737631307891,
          0.025811115825688243,
          0.0383426601822142,
          -0.02847132140063416,
          -6.702873611167405E-05,
          -0.05624804882485042,
          0.03621630547741619,
          -0.02911684092057966,
          0.036548693954553006,
          0.08059104737421928,
          0.022531345959507055,
          0.01641458641934092,
          0.004712222108581595,
          0.01672118225861285,
          0.008910652745936986,
          0.028645050489503093,
          0.034259490282820555,
          0.04848332482474187,
          -0.029804815984294693,
          0.01176095508376534,
          -0.08909475426033871,
          0.04286761090206689,
          0.02015980721812292,
          0.07102838978274517
        ],
        [
          -0.07607973592518641,
          -0.056718798234206995,
          0.062112050813316506,
          0.029292064851116094,
          -0.11409717204549064,
          0.007072762254731178,
          -0.06305050011130506,
          0.004075908451715292,
          -0.07840765945348395,
          -0.04903716927396971,
          0.07091184381043875,
          -0.054187549918673784,
          0.08810121528395093,
          0.00875402854611321,
          0.04082182528436468,
          0.020713605582701657,
          0.03947550441453982,
          0.04447049545734142,
          0.017535561040805756,
          0.026058303127778473,
          -0.1423071898742842,
          -0.035316877942352595,
          0.026435186435052164,
          -0.016458771004252453,
          0.09526910192989306,
          -0.07742623427663951,
          0.08491947134281128,
          -0.094761033424599,
          0.004039936339831417,
          0.06541696647976498,
          -0.09652999286788735,
          0.04524640469543441,
          0.00918224791223442,
          -0.057418026325935,
          -0.041691796230542484,
          0.04962090590969937,
          -0.03528195241814641,
          -0.02010558207975012,
          0.1218563648970613,
          0.07936598157903352,
          -0.12121265790302829,
          0.025561316372127864,
          -0.024756204410738558,
          -0.07335253292328803,
          0.09720619274511173,
          0.04214833087046543,
          0.07193676846332323,
          0.015981978410515445,
          0.0016114532969313709,
          0.07711004920261395,
          0.07570137928595762,
          -0.011892649512866725,
          -0.041421746876887044,
          -0.008066926153519317,
          -0.057195562915261865,
          -0.008507314711523887,
          0.02487468646743551,
          -0.13901811151453244,
          -0.130852801311701,
          0.07018466825287205,
          0.06658362680260674,
          -0.029207135434961118,
          0.018848813232183473,
          0.009296848725676942,
          -0.011004975670472606,
          -0.037518502438097574,
          -0.02379054115453985,
          0.022449478074719677,
          0.03420810463165646,
          -0.0007367513317902674,
          -0.004579734583031293,
          -0.009099794494206673,
          0.11141950612119646,
          0.09358521869210243,
          -0.016927364229700252,
          0.027427803425372762,
          0.12651029423417953,
          -0.002565990363728301,
          -0.02151012001732628,
          0.0982565776266923,
          0.01464493341893934,
          -0.15430234880983898,
          -0.025158668394065577,
          -0.05571084731045594,
          -0.021239300389576676,
          -0.0863721699684057,
          -0.005624146392598818,
          0.010826566231908915,
          0.06450984030613546,
          -0.04856419702993176,
          -0.01072995210440354,
          0.022601428985543466,
          -0.036603837879741995,
          0.001640255050484273,
          -0.003038171810852243,
          0.07207644428910644,
          0.0976668887124866,
          0.18111190958317647,
          0.07723973143326815,
          0.031846608996790135,
          0.06403835023864408,
          -0.04223490340933828,
          0.12201268532778561,
          0.011363639359723154,
          -0.016134367631835213,
          -0.06851065250153952,
          0.030135182933097446,
          0.007262747699895704,
          -0.020795599796059862,
          -0.0170170329933186,
          -0.00022838685904696422,
          -0.027317175620837512,
          -0.004380951874899731,
          -0.05388991449187736,
          -0.011821146656195273,
          -0.05446968060461333,
          0.02973595688568873,
          0.05330476672545041,
          0.09822576896245301,
          0.05781595288608623,
          0.05272630218492133,
          0.05821687344505865,
          0.03740272142232109,
          0.012554534565947304,
          0.05956323989721244,
          0.13680344824138155,
          0.05161461906242968,
          -0.006617208192272625,
          0.03659452954625695,
          -0.010634348745237552,
          -0.037978393945174764,
          0.002516818233802113,
          0.08347169755329861,
          -0.00022797677144604145,
          0.0022671621457886217,
          0.03045839646084912,
          -0.015197269587681392,
          -0.04497799883175926,
          0.0023133209471014947,
          0.04327880192968341,
          0.04461586429437801,
          -0.030268284508507732,
          0.02946286747313799,
          -0.10579059269333305,
          0.029739040409976183,
          0.029544363827830846,
          0.007900672486136195,
          0.013141047067756767,
          0.04429375574021339,
          -0.022097438455140863,
          -0.02111292028822152,
          0.05872678263660958,
          0.043038491180466515,
          0.012303435572735515,
          0.00711122529037352,
          0.06991963652211902,
          0.15596293360286465,
          0.12292859502007124,
          0.08669879511558669,
          0.14189082176990458,
          0.041721394275021514,
          -0.03916940163877152,
          -0.05019086191129462,
          -0.020781680825044748,
          0.017432360088295594,
          0.014537097439446513,
          0.025918104816701846,
          -0.09715276922218243,
          -0.021663698754539735,
          0.03068129539681249,
          0.0138464345797672,
          -0.018029541290454892,
          -0.01078741751847325,
          -0.028862776739642368,
          -0.05507790727589538,
          -0.12386868867438706,
          -0.08578172210501188,
          -0.02592436733026638,
          -0.04325851882574353,
          -0.07521691502361755,
          0.05263405661227467,
          -0.06231622006937136,
          -0.09316995205328686,
          0.01945607125071757,
          -0.03634751206715969,
          0.029366495240706624,
          -0.014930188401961048,
          0.03177686315952957,
          -0.0146993861096772,
          -0.058612156114095655,
          0.021817740178432108,
          -0.08233044107797557,
          -0.06344761301814396,
          0.020948077516968665,
          0.004676051674180495,
          0.045351300695239245,
          -0.014729157842080362,
          0.07008056305393738,
          -0.010243421955726542,
          -0.03580671009260907,
          -0.168801023193347,
          -0.045299914083314914,
          -0.05717240379733213,
          -0.1426993962489086,
          -0.056906407262399705,
          -0.010707204312642854,
          -0.06926957900001146,
          -0.06422272421022196,
          -0.14348798121423847,
          -0.10309776808604418,
          -0.15455340338925666,
          -0.11933156103242255,
          -0.129368936322175,
          0.01457759195812246,
          -0.05886260961230064,
          0.043443738112067455,
          -0.05218733403538599,
          0.002919948213091883,
          -0.07841197177419831,
          -0.08897559434823223,
          -0.012530717385771804,
          0.04643437238332145,
          0.03336005313925046,
          0.017880178139891043,
          -0.012620170251066012,
          0.0029325912309875113,
          -0.08095642760600398,
          0.04518151693832722,
          -0.06778780302510326,
          -0.0938651134392749,
          -0.15881925809240105,
          -0.07400409883225617,
          -0.036768162355206996,
          -0.029903790590199437,
          -0.02757073547413813,
          -0.07488833206272753,
          -0.035003674979689134,
          0.010075887290015,
          -0.048302676097976914,
          -0.07277143790190035,
          -0.08677426450884958,
          -0.01193993839383746,
          0.05690651680723316,
          -0.06621155100402613,
          -0.14992118728081907,
          -0.08721952340726696,
          0.021076335197025568,
          0.016544088645063248,
          -0.02955462872835987,
          -0.06598215736767764,
          0.0366824826358517,
          -0.06364689780601446,
          0.04570899003089333,
          0.05160128558648209,
          -0.023118982217570135,
          -0.10644264180464792,
          0.023061518513782134,
          -0.059795342218619506,
          -0.07573472740410434,
          0.05559745978983355,
          0.010639505404518551,
          0.01927068148523951,
          -0.022076199669906447,
          0.020929032711809417,
          -0.06312179933148379,
          -0.07089061014615934,
          -0.06254201495599566,
          -0.07016238869699641,
          0.009313950606381455,
          0.009947397234752544,
          -0.07258937209378315,
          0.002580443451717436,
          -0.07343876253347938,
          -0.12860417738279487,
          -0.03765209810614405,
          -0.02868342316561153,
          0.05279678125222477,
          -0.09167012794013797,
          0.06557692665440952,
          -0.02059087659393049,
          0.03673723289379827,
          -0.018305479502651895,
          0.053046419255501784,
          -0.037948489255019854,
          0.010942876080828237,
          0.0023262565105485375,
          -0.035326283661512525,
          -0.09035143387865625,
          -0.07063265203724388,
          -0.0501663471567152,
          0.06585192382143958,
          -0.09807078756030446,
          -0.016113072702274887,
          -0.1316811427646783,
          -0.022865430818479457,
          -0.18401576587920665,
          -0.11734419153454452,
          -0.10586682068225006,
          0.06411166229095296,
          -0.039491438190726785,
          -0.066828814110273,
          0.01388291406689302,
          0.006631160037035126,
          -0.06310855907386276,
          0.06335742922995834,
          -0.029448526513288876,
          0.030635389959847457,
          -0.04049963053063851,
          0.01584132577906082,
          0.007774876681142788,
          -0.08321221254764113,
          0.04992554710993199,
          -0.00025399891606217606,
          0.13570191930104186,
          0.04032170549922115,
          0.10446216838189887,
          0.006691679220831169,
          0.07571397341986741,
          0.049991986608391985,
          -0.12345860712899266,
          -0.008410620823460252,
          -0.07080396664629654,
          -0.04144728738497519,
          -0.1533120393868778,
          -0.03332126296250509,
          -0.15656850391626684,
          -0.04024253924440185,
          -0.04834626371627537,
          -0.07500472941167047,
          0.050132625335946986,
          -0.06620125360489136,
          0.07427013180780154,
          0.03564392184674801,
          -0.004972008722634576,
          -0.029975734933293433,
          0.020413283848652472,
          0.07537933026302006,
          -0.03809245770152999,
          -0.052413845026259356,
          -0.03443200324119836,
          0.032945571077097495,
          0.01697878882685481,
          -0.12169860031714395,
          0.08346793582647656,
          0.04995054287132847,
          -0.02790537438354599,
          -0.08006812302268716,
          -0.004239635853621148,
          -0.010281126199613102,
          0.05556279987966525,
          -0.0001387705573054352,
          0.01184349332523039,
          -0.06226659062398922,
          -0.04674993747322698,
          -0.05919731381824243,
          -0.033777571747502844,
          0.013609387956941119,
          -0.0027735204429687826,
          0.044141113031554303,
          0.07438486211949216,
          0.038449003546847035,
          -0.04877279717354814,
          0.04020522792805518,
          0.005956676385150681,
          -0.017364702278643836,
          0.018100107559234215,
          0.009128001536504988,
          0.02836092472799962,
          0.026902863084176342,
          0.054961185132433,
          0.04331291811942107,
          0.08610204673395788,
          0.046868243471525003,
          0.10269234130376988,
          0.04879440510422259,
          0.11222462532019943,
          0.094137724331627,
          0.0618348777091231,
          0.10293464840126831,
          0.07380267841590316,
          0.0069815061959841935,
          -0.08095000918569759,
          -0.06221872460447474,
          -0.009345567798849146,
          -0.03144232649309951,
          0.020456727993323282,
          0.0659586268937922,
          0.006758105616421204,
          0.04210146371067961,
          -0.0179815445627772,
          -0.030845618721887236,
          -0.007148422408440136,
          0.03714714257031681,
          0.01310406443352479,
          -0.051317238886367515,
          -0.02573436863939038,
          -0.004541743425755859,
          -0.006279107674329224,
          0.13543567650107396,
          0.0472154272987519,
          0.08388604084289995,
          0.07611432657008596,
          0.07812451313187956,
          0.14236829084477698,
          0.14325945415649344,
          0.13659488468331465,
          0.09323914129640838,
          0.11465731744457804,
          0.000650636368165971,
          -0.06531558789490678,
          -0.19810235046623978,
          -0.028653531116328932,
          0.020326111847833866,
          -0.10630665211862884,
          0.03328212925637526,
          0.0222076963448443,
          -0.031134645575866652,
          -0.007595653049907579,
          0.01533816379684632,
          -0.12428909299693738,
          0.043822009790495706,
          -0.027843210935155953,
          -0.008912246323499911,
          0.0045868142229392745,
          0.005397379737467978,
          -0.03211324384936729,
          -0.13385958565596118,
          0.08020492163763424,
          -0.014656395313736385,
          -0.01076900879452185,
          0.042975084585145686,
          0.20467501515536274,
          0.03811345970715289,
          0.11043188770488706,
          0.06359969640909098,
          0.1964754252802876,
          0.006487518307636328,
          0.06143065544656706,
          -0.0442846405710977,
          -0.0946348225598673,
          -0.15022186287140182,
          -0.08279058619859404,
          -0.05347494472979995,
          -0.05606230794002952,
          0.029645331895753052,
          0.016656640941783558,
          0.06868926574442083,
          -0.004111905974440568,
          -0.006988144482003638,
          -0.053737939827150395,
          0.14680659895888884,
          0.04546080911473649,
          0.017617053533199256,
          -0.07157632695375524,
          0.04407509066532556,
          0.05971573361621099,
          -0.010553100584703537,
          0.012746627200753823,
          0.137206299403489,
          0.10827070775102487,
          0.2007269959063964,
          0.036101777958755826,
          0.1281549914799228,
          0.16977237955950916,
          0.06893457830246974,
          0.03235311061326524,
          0.030236115832876703,
          -0.13750742035897057,
          -0.14895345720667214,
          -0.05159490157718157,
          -0.10003692060385987,
          -0.0656403443171576,
          0.04264546812308995,
          0.015710977774791947,
          0.08222473530132232,
          -0.016119746853129686,
          -0.05040623527109713,
          0.00953245900631758,
          -0.03760567525902511,
          -0.024265755149763656,
          -0.01251830781523612,
          0.08380406925272256,
          0.11856276029696451,
          0.019507617962242017,
          -0.04448253781765302,
          0.11264540278371406,
          0.06839223410563201,
          0.10487578210345969,
          0.05429728525613112,
          0.0776725317958767,
          -0.0353553688107249,
          -0.020688916102307334,
          0.07165529653681833,
          -0.01126641454103595,
          0.053331191264181635,
          -0.08140392652883205,
          -0.02877383025766588,
          0.1288568204659294,
          0.002991464939949552,
          -0.020475472953668018,
          -0.006641463884535398,
          0.08233522226424597,
          0.036015760413787595,
          -0.028173090088891954,
          0.011021583846110494,
          -0.017732531470958213,
          0.04611370195289591,
          0.09270263337751515,
          -0.04815732525833475,
          0.10597548651490693,
          0.05860674009943212,
          0.0015585556675848456,
          0.055984426972981484,
          0.13579296259959647,
          0.10076808046307563,
          0.033967427582533814,
          0.15540982708780687,
          0.025715023787383502,
          -0.001903316558395056,
          -0.032984159404688115,
          -0.028797708757422134,
          0.03378505270665816,
          -0.019737962645912193,
          -0.042431717684451316,
          0.06148266618566542,
          0.13157692828376014,
          0.15831872674427294,
          0.06663756270122545,
          0.15630497824191164,
          0.1743775256221787,
          -0.06894673454331568,
          0.04670748534749197,
          -0.10266398776539068,
          -0.14983247648400236,
          0.007349894315854165,
          -0.03807262822164275,
          -0.01963529108169699,
          -0.049075133505955514,
          -0.03591620173286409,
          0.02251586038030472,
          0.024242928115660176,
          0.02579236769821449,
          0.04590842640988114,
          0.10720666485931692,
          0.11165539597517678,
          -0.007853500844442848,
          -0.03240582656035494,
          -0.04899444494196485,
          0.047347100634092365,
          0.030066415019654263,
          0.09809759541912506,
          0.051879592311650694,
          0.0475141501682859,
          0.0907985529152409,
          0.011922381087402607,
          0.012463865259835036,
          0.027710165425066536,
          0.10958592622264013,
          0.1473811338277742,
          -0.02836743684479445,
          0.030222906158527497,
          0.02471750639263979,
          6.805181442912257E-05,
          -0.06782096858148937,
          0.015165965237158685,
          -0.008024755354949245,
          0.10070012329346723,
          0.024006218266739147,
          0.07628130195543036,
          0.08465064740968742,
          0.04604019626410249,
          0.030657639226339215,
          0.019713953926684635,
          -0.057271713826761,
          -0.08885409551231666,
          -0.0009738976779006092,
          -0.052499581223805526,
          -0.06697764167963031,
          0.019730904792486292,
          0.07934760274471918,
          0.08403809145742025,
          0.052120100260917006,
          0.05889248612532118,
          0.04870883028903149,
          0.012182869010070747,
          0.07274407779884284,
          0.008308668046690136,
          0.008305068223053614,
          -0.020315719014437274,
          -0.09014388281632471,
          -0.007274132882714786,
          -0.02153524937091602,
          -0.09126474638489782,
          -0.08463869657368198,
          -0.04457575652344009,
          -0.031024199463073734,
          0.04166625128899161,
          0.22212164173417864,
          0.09651310711692843,
          0.10387116082773293,
          0.06813733425658725,
          0.07403228720295123,
          -0.0444343224755241,
          -0.0608483128017138,
          0.022888422066877655,
          0.010450472016491344,
          -0.05282168247920635,
          0.05508125195482156,
          0.030115926092395426,
          -0.06703779307722149,
          0.041001045081849666,
          0.17811273210223733,
          0.06197312304371209,
          0.021392193404869763,
          0.12462265820338339,
          0.02391132207647835,
          -0.026176837391531954,
          -0.07910304048870413,
          -0.007486722849517831,
          0.009730595119244121,
          0.01608790079032126,
          -0.01035085872875976,
          0.03304300401391877,
          -0.11085160681205054,
          0.1004492004268229,
          0.0436589263806822,
          0.10782303403851537,
          6.162098826289578E-05,
          0.19834761778445417,
          0.0541624460875515,
          -0.057664817253000177,
          -0.06193861688281407,
          0.0521570177377854,
          0.07561416545830936,
          0.01801582776988502,
          0.009799257408898475,
          0.044494269740102205,
          0.049872379514849845,
          0.06368354478876734,
          -0.048966208745796214,
          0.04019723285747821,
          -0.0945663611521571,
          -0.07622926558495656,
          -0.010791254891594316,
          -0.016429992881635252,
          0.05905430150323935,
          0.03549223874481587,
          0.04112647321751653,
          0.039914887373348175,
          -0.1144826503941008,
          -0.10862640239871318,
          -0.12661150136087446,
          -0.04566262648781823,
          0.010551493217134182,
          -0.05777541953942029,
          0.05216080462915058,
          -0.006872944727252866,
          0.0010779457175656574,
          -0.024468236682733926,
          -0.06792099164848422,
          -0.06807207670412198,
          -0.07220604814216934,
          0.07959585677445015,
          0.11733542571190893,
          0.07682072282073982,
          -0.0028501886273101023,
          0.030991460152780138,
          0.009763769672205463,
          -0.018562533084925392,
          -0.02475343467460903,
          -0.016150204393098944,
          0.029275078585042115,
          0.016642351634004487,
          -0.04880263857563886,
          0.09900808740290129,
          -0.027755430464086406,
          0.04684158971091992,
          -0.16763696776193576,
          -0.08529892158365161,
          -0.14469677987457413,
          -0.10816012862552372,
          -0.06727639959534723,
          -0.027429158626937063,
          -0.11494375213306805,
          -0.05094450886058568,
          -0.04196082701114668,
          0.06496940810954557,
          0.013664894910938816,
          -0.00901277462747196,
          -0.05399149221906688,
          -0.05745560057428736,
          0.006364788701790238,
          0.04741583643816606,
          -0.056393134896062194,
          0.1703717786043707,
          -0.037042227573410406,
          -0.06974276949059216,
          0.04219135058911508,
          -0.1455551449427101,
          0.01849882824524412,
          -0.03299658983329411,
          0.030712418853205494,
          -0.04336170370084903,
          -0.018709057612876598,
          -0.018912441091728634,
          -0.03240892674106194,
          -0.004265785949511814,
          -0.09962150016950344,
          -0.05848876025853128,
          -0.06422736495897241,
          -0.10496219582858075,
          -0.0665317491278116,
          -0.08112674722378227,
          -0.1211088961599795,
          -0.04795170893435149,
          -0.13130419712278657,
          0.010368136390694204,
          -0.11998718015342787,
          -0.07559372117761062,
          0.03655016030169204,
          -0.023674286421890352,
          -0.058572913670313566,
          0.042734621486321525,
          -0.015734874101001255,
          -0.09218094548364555,
          0.032257164004392186,
          -0.05455445400794422,
          0.018020538601775833,
          -0.06496536123891965,
          0.006576398547541553,
          0.010486676645350532,
          0.06912851291579278,
          -0.07781017631450089,
          0.04180440172402907,
          -0.021740891089378475,
          0.030212676225545264,
          -0.029894386010666324,
          -0.0031665860079732296,
          -0.003015059035092547,
          -0.08356258476258646,
          -0.06166775541405158,
          0.032165630492043976,
          -0.023030520759833018,
          -0.05646891547200909,
          -0.07771230011791104,
          -0.06004606470284902,
          -0.02843294831051887,
          0.003982057977343639,
          -0.03883359620210734,
          0.02428457539128789,
          0.018970134447050445,
          -0.06108121809805695,
          0.023764872012740704,
          -0.016160538838251047,
          0.11320845742299211,
          0.020423813423221936,
          -0.014791943960517378,
          0.0059554281628037276,
          0.07770562393070599,
          -0.0680638671576233,
          0.025601100368642934,
          -0.08545796609045578,
          -0.03623696939598013,
          -0.04341992770731598,
          -0.030635513300503105,
          -0.01943097212541027,
          -0.022859470872909727,
          -0.09731417599623966,
          -0.02478977891259427,
          -0.016575768449108495,
          -0.04435271474274369,
          -0.009528409869257636,
          -0.10287577434354005,
          0.05925524827812543,
          0.041197133451203655,
          0.00976464719536869,
          0.02376636659385347,
          -0.026571204005969618,
          -0.015236626944510952,
          0.02589333057433445,
          0.07752971487042527,
          0.013066401157606412,
          -0.0026730441265287743,
          0.015961177620961463
        ],
        [
          -0.014962647220020614,
          0.0750145447042094,
          0.06570291977368678,
          -0.007245616079603843,
          0.04245160081771058,
          -0.09105206778750453,
          0.06360441245205067,
          -0.01689672311678642,
          0.0020799045444463505,
          0.03731733572408536,
          -0.0380868670659363,
          0.033340979765704784,
          -0.011618094104683691,
          -0.02245352190815031,
          -0.006668736672954847,
          0.04161697380221902,
          -0.014841477451661662,
          -0.03809522173046613,
          0.007264230462564385,
          -0.04814892668560413,
          0.004464282308187532,
          -0.03481047315089524,
          0.03563787152077026,
          -0.08958553519541984,
          0.09313976769009603,
          -0.08639371137217061,
          -0.07064654697305003,
          0.10382758255507607,
          -0.006470454160862302,
          -0.006550326126900697,
          0.02256079789786257,
          -0.024810888768018985,
          -0.05841092269977708,
          0.038146522403791905,
          0.031940647170481846,
          -0.029737069229338234,
          0.06650809583034407,
          0.015944496265648506,
          -0.04517056912102263,
          0.001906687324927147,
          -0.024045618434786142,
          0.06468593495954632,
          -0.029865819051016797,
          0.0430313478066517,
          -0.06423923481674738,
          0.051200373460339926,
          0.011356129289501506,
          0.013473029026768961,
          0.03298730431382787,
          0.03781924277107803,
          -0.03583173647688767,
          0.06323203195694141,
          -0.04891272490813651,
          0.028390601681600975,
          -0.04439633997336189,
          0.007049529960750375,
          -0.07127741669568848,
          -0.033765197266930544,
          0.036954612879166564,
          -0.012585371075171015,
          -0.01899585721896415,
          -0.050150491306079535,
          0.001516603323315143,
          0.016699649104374947,
          -0.018970697976849686,
          -0.0937912603845659,
          0.061657037385020666,
          0.006845917621774492,
          -0.009286399621210936,
          -0.05449860295721837,
          -0.053472669763012994,
          -0.014234678178001864,
          0.0012208191136308993,
          0.006200694347475155,
          0.012268873775644763,
          0.0387778054875325,
          0.05409550077595104,
          0.011319924240570751,
          0.014711436725896707,
          -0.10645880876565383,
          -0.06888755743255465,
          -0.023651984535218842,
          -0.03815624137650709,
          0.032387110186109375,
          -0.017948108415064633,
          0.03589969420079795,
          -0.013275542912628068,
          -0.028984454962051494,
          -0.03968056530384938,
          0.0465110029107657,
          -0.04081515215936951,
          -0.035239217784673434,
          -0.028870190199122122,
          -0.036890496104855994,
          -0.09023566059983021,
          0.06113978911055539,
          -0.021871786724167334,
          0.031389505952748344,
          0.05022180713126067,
          -0.035201184578764554,
          0.03713891368568941,
          0.05721089352140091,
          0.06012710483656388,
          0.0322034283923704,
          0.13761499349881934,
          0.006834292188964681,
          0.06246984858193298,
          -0.0076699597591301585,
          0.013405535669468909,
          -0.002648980114214705,
          0.04570257772074114,
          0.06933098343112243,
          0.028546085128396764,
          0.03358277482749104,
          0.06516161625809615,
          -0.0382596808725999,
          -0.06483884705199183,
          -0.0844806167359433,
          0.057799861138294724,
          -0.08202121681676078,
          0.04410825659587041,
          0.008499106475927238,
          -0.11600367452350546,
          -0.049802920095086654,
          -0.0338650816512139,
          -0.0829984548310031,
          -0.02246083230035475,
          -0.04004706569580055,
          0.05868650804772029,
          0.06446824649803984,
          0.10952524574798707,
          0.018716105151876727,
          0.028234050895927877,
          0.0329436889809417,
          -0.015472605910301397,
          0.08220153566546692,
          0.04765424326845785,
          -0.09549019581677849,
          -0.037736977313124476,
          -0.011731589054794943,
          0.009594232696251669,
          -0.09293647840576409,
          0.09505014344793596,
          -0.03462710509550059,
          0.004486626969180709,
          -0.06096447210721676,
          -0.004332900282554645,
          0.05650015328813533,
          -0.0012293878111026225,
          -0.05678293695321471,
          -0.042052406355990175,
          -0.04371550038052483,
          -0.0005050585675715002,
          -0.0474896801135609,
          -0.03816391232491155,
          0.044369742875042424,
          -0.08812192046009927,
          0.08579386357267475,
          0.02216746539798126,
          -0.014004391710609436,
          0.07332846379857398,
          0.021057525886001967,
          -0.014156896320065985,
          -0.024759535750144026,
          0.050076107665097236,
          0.011056690942587547,
          0.0005698332519220751,
          0.018839448635925585,
          0.032081901988337234,
          0.06533654458924983,
          0.06689455781526808,
          0.046942617089499344,
          0.04904527904938382,
          -0.015841843900874026,
          0.03235971458237742,
          0.10442419159822784,
          -0.06666923080775716,
          0.08729800830534276,
          -0.15691172909389012,
          -0.009605140274586515,
          -4.7811683085116425E-05,
          0.1279292470602225,
          0.026207037552540977,
          -0.07360459772231691,
          0.07510038480033465,
          0.07893566245790681,
          0.008479644112056709,
          0.06231314419892401,
          -0.06178974077684349,
          -0.02450926545184741,
          0.007838317084962262,
          0.08607536613640948,
          0.007155207234992822,
          0.043931695773815956,
          -0.044332869605547075,
          -0.012131518711159098,
          -0.05305571865280462,
          -0.011982685756681826,
          -0.01754143379123717,
          -0.058219781179120224,
          0.016510155043727735,
          0.03858843049426148,
          0.030622743608358944,
          0.06109752833140867,
          0.004478605622779365,
          -0.04546016358677522,
          -0.003477133364718477,
          0.04753778032135333,
          -0.01885676066274682,
          0.08315634040602976,
          0.04476447101507594,
          0.011435854037188352,
          0.0651969713643584,
          0.014638969793881042,
          0.09018664885544775,
          0.06806441231494713,
          -0.019571358995839287,
          -0.05355902584016843,
          -0.07292202248127497,
          0.030196868431451147,
          -0.010783569124514735,
          -0.014267991440766823,
          0.036475720508015994,
          0.043872942797708474,
          -0.029324721979803514,
          0.023665368467090657,
          -0.08229768666962292,
          -0.07799085417425429,
          -0.06065664386274616,
          -0.018945858562710402,
          0.054552102546732255,
          -0.003696095618961102,
          0.034471059953899416,
          0.00837772354449672,
          -0.014347361510477217,
          -0.02404455984788346,
          -0.033992603710174256,
          -0.07880231477604639,
          -0.02291164011332124,
          0.003870243930753394,
          0.03696724152093631,
          0.04605554022237824,
          0.02912190642827315,
          -0.04236035654991549,
          0.05805152909973379,
          0.004426721968962662,
          0.05008514801101415,
          0.0743330768765122,
          -0.06029527395511199,
          -0.03930292870689668,
          0.02685067553911606,
          -0.004536353589195442,
          -0.053837881346324334,
          -0.08332633509690995,
          -0.03719128180821037,
          -0.0597983458869869,
          0.03686455825203973,
          -0.004217880467675423,
          0.03702394551364509,
          -0.050379919600668774,
          -0.05177940048749009,
          -0.00923788599012468,
          0.008071022051153011,
          -0.028478854811615,
          -0.16042951183402096,
          -0.0954098772778245,
          0.006632811570824635,
          -0.13806945993743672,
          0.05296823580953419,
          -0.15006425747314614,
          0.020116254082455633,
          0.005680409948024887,
          0.018069512028715002,
          0.05983743116688518,
          0.045876053770537335,
          -0.0003985699142785126,
          -0.04486105821491962,
          -0.03540225430612151,
          -0.06655179946161027,
          0.0026331002070063337,
          -0.04043517539491577,
          0.03431456846761279,
          0.004661719031677542,
          0.029493985492746132,
          0.02669454919675539,
          0.04092209751997959,
          0.04033144183207851,
          0.061653888954408174,
          0.09793340058360776,
          -0.0635956950150478,
          -0.03498618232034947,
          0.026941774320084846,
          0.045147816515297756,
          -0.01623841015199757,
          -0.011314504776766777,
          0.042729722463023895,
          -0.04848609454174913,
          -0.15445618062185368,
          0.015527337553367321,
          -0.0553344016405552,
          0.032182443655294095,
          0.05658578336638732,
          -0.02669725541891574,
          0.04372435424795406,
          -0.007243481495058989,
          0.07607533550210017,
          -0.03557603066939685,
          0.009062152474437537,
          -0.016518182964754418,
          0.01531262477365877,
          0.0031876191751161907,
          0.04633678735503063,
          0.049160750123439206,
          0.06490820689383475,
          0.10563919421002732,
          -0.023832749299161824,
          -0.048079135980983796,
          -0.04092504114700668,
          -0.1084999684894582,
          -0.03150528174831125,
          0.05400033580969672,
          0.028433783798356746,
          -0.050836526052431594,
          0.055470049546741014,
          0.04980936392731084,
          -0.03151899929425249,
          -0.011093279720394804,
          -0.06474129952200257,
          0.025984210520514358,
          -0.009331357517913719,
          -0.05463046183764577,
          -0.03440200962108041,
          -0.016143088851746902,
          -0.01069514331557331,
          -0.08447252467845077,
          -0.025451964680770267,
          0.02457974521028785,
          0.03795093158270787,
          0.054588321460807304,
          -0.033294349153797864,
          0.07610322696216328,
          -0.04874614760155475,
          0.15787634653377322,
          0.06810292709543841,
          0.02415107986000248,
          0.0016506204657362068,
          -0.10164618714472161,
          -0.0022290418341801717,
          0.05698921640730579,
          0.025726347907504422,
          0.1280165413256582,
          0.162539440571626,
          0.09330807718385034,
          0.03585468305172856,
          0.0651687901495255,
          -0.017397263628329974,
          0.046921923112480085,
          -0.0995175914519779,
          -0.0384399314559939,
          0.025786918450858884,
          -0.05220015082781603,
          -0.02619816495306131,
          0.020035465684365473,
          -0.0051319101559568195,
          0.04376508365895558,
          -0.05258541196640244,
          -0.02526463657720909,
          -0.046615014789446935,
          0.018423347862235782,
          -0.01534076466064126,
          0.1793301089838259,
          0.051994869115782286,
          -0.014389452784918984,
          -0.05774651422666322,
          -0.12328570992346609,
          -0.03582426632571846,
          -0.058017030273953496,
          0.0537549589595126,
          0.08486057409908124,
          0.14436531188168947,
          0.20132096176831268,
          0.13059534775831555,
          0.0740371190874213,
          0.11244674601000944,
          0.07186255923665638,
          -0.01173480429631073,
          -0.012784490037693469,
          -0.07748501526734917,
          -0.009517924869697386,
          -0.017827440941421496,
          -0.03587956800746561,
          -0.08505154797384405,
          -0.10415454428039897,
          0.01230076050864998,
          -0.01060859000216466,
          0.007544278911100286,
          0.09493078110402259,
          0.07057448072857954,
          0.08963433841990263,
          0.008715249319666973,
          0.038398445080889416,
          -0.053454290465339324,
          -0.0011109682077716624,
          -0.1264302027457257,
          0.05643657074794166,
          0.019363759690132338,
          0.0018198373962741857,
          0.09621533655035618,
          -0.006401458021098504,
          0.1250896117694683,
          0.014136934146659381,
          0.09948381407482852,
          0.15418482134512815,
          0.03798673564505442,
          -0.0680296651733018,
          -0.06017796498597416,
          -0.1246311372935235,
          0.00036411045233493617,
          -0.03972755532593063,
          -0.0528731560768594,
          -0.03730913190069461,
          -0.08649301691055701,
          -0.001390713006675547,
          -0.09398057483980317,
          0.03932401665526365,
          -0.014485438047955629,
          -0.02972263141273452,
          0.1317057412007372,
          -0.08767449175462759,
          -0.03213330556990414,
          0.004771074103248857,
          -0.04872150091605701,
          0.021323647333593834,
          -0.027262974828312234,
          0.04557938985635269,
          -0.04984565549892382,
          -0.013871362899181382,
          0.05396332748928958,
          0.028842116418430593,
          0.0018974850561046615,
          0.04448295727749432,
          0.01960878946372662,
          0.021668617548531815,
          -0.04656549590568271,
          -0.0010227709227198355,
          0.0013463111353593904,
          0.0566141654121468,
          0.046476174831017104,
          -0.029047672179395898,
          -0.004092415608343375,
          -0.060409033725189826,
          0.04482679808915304,
          0.04575140735986797,
          0.039602354766233694,
          0.05935166030307502,
          0.032750096637790056,
          0.023242158326109878,
          -0.1461125339252598,
          0.0356518391253301,
          0.07626909445391647,
          -0.012410287798011236,
          0.007827483547435447,
          -0.0835260354505551,
          -0.09194907025833797,
          -0.07019773213022228,
          0.04868001552804829,
          -0.015329180661810366,
          -0.007911927345089944,
          -0.03078025817278756,
          -0.06049188763286686,
          -0.037598378868125344,
          0.04041508319486389,
          -0.07486133695141363,
          -0.05627486158582903,
          -0.0022958516886081672,
          0.010881998365722194,
          0.03462352964956787,
          0.0018660941100841187,
          -0.002473196342152542,
          0.034997048195199935,
          0.006707628133735151,
          -0.0869048927054825,
          -0.002857808184041522,
          0.06924778832270923,
          -0.004506876720004032,
          -0.10180587897539431,
          -0.07651367464362664,
          -0.21965716237971628,
          -0.052070002614272914,
          -0.08723086966988458,
          -0.04193645646288758,
          -0.11759841709235457,
          -0.039712833934636156,
          0.12175333149387729,
          -0.01481835485554639,
          0.10709052115039644,
          -0.03358645237355088,
          0.05790099521276344,
          -0.025745601442711964,
          -0.061616322180511086,
          -0.08676559231788467,
          0.023659601939674344,
          -0.09309741830875312,
          0.032243101847833036,
          -0.02511039103774425,
          -0.019502088405289365,
          0.011952190700013321,
          -0.011574844865220145,
          0.0006444135359512901,
          -0.009648104536220916,
          0.043062631512820485,
          0.012134261958689024,
          0.05624305535824439,
          -0.04987958601737588,
          -0.06283929272726513,
          -0.07964172811916688,
          -0.10694064302777984,
          -0.09495873121889252,
          -0.09735600517107003,
          -0.08092167922202145,
          -0.08548378893005129,
          0.039227260558732664,
          0.09259234550422864,
          0.07077070092542892,
          -0.016293761685072024,
          0.01656403168947358,
          -0.0517786697845198,
          -0.13838416626818628,
          0.022598845470874176,
          0.046073649476830944,
          -0.07698845642244165,
          0.023120499830724166,
          -0.021491576483385483,
          0.0014544417743573052,
          0.003485059774277733,
          0.045364951887220575,
          -0.10172534528599524,
          -0.019720575953877384,
          0.1036241788966848,
          -0.05464908658081873,
          -0.00612216626844697,
          0.006581286045409652,
          -0.11041347435629124,
          -0.0003035471641932895,
          -0.0913828200361317,
          -0.10441660422033733,
          -0.008208294706730408,
          0.00014986582107958312,
          0.09483462586329358,
          -0.014680256732728955,
          0.0324024671073877,
          0.032682015298246395,
          0.060970687991295,
          0.06955224623502519,
          -0.02547400322902364,
          -0.030978642679478655,
          -0.03512642781366504,
          -0.028033108060815375,
          0.03148291873875442,
          -0.05266579637811882,
          -0.08147206974658074,
          -0.052099098444351795,
          0.011643829498724882,
          -0.013421648527122847,
          -0.0024665594324169864,
          -0.010049982636614102,
          -0.03383008205427492,
          -0.08320176449573366,
          0.08447844757946221,
          0.02619021847856956,
          0.02205419732557905,
          -0.12612930270735573,
          -0.011112339438031705,
          -0.05876227319926643,
          0.036418520915827146,
          -0.0633403343955079,
          0.07849566216496372,
          -0.04606335875262831,
          -0.010550647264663633,
          0.08353494264520245,
          0.11497356374651961,
          -0.031794534457542226,
          -0.10429165254178394,
          -0.06750538268970019,
          -0.028790940657231374,
          -0.03906724565450957,
          0.027014744861051095,
          0.02627308795848699,
          0.012867622346287112,
          0.015440262326500417,
          0.04327167725557811,
          -0.038003485102434245,
          -0.02021126234674031,
          -0.07662254672624644,
          -0.007859251876888521,
          0.015566068586222214,
          -0.053694078074266,
          -0.04258267059670681,
          -0.01537089952461986,
          -0.059082459762683684,
          -0.10941086438843153,
          -0.024929762684681535,
          -0.0656469807385013,
          0.059391070234147816,
          -0.021611069365083745,
          0.034468778516027226,
          0.038877597076606686,
          0.07252597459024467,
          -0.008140216298693527,
          -0.03560912007338936,
          0.02354176165314298,
          -0.05869074566553366,
          0.014175270681714303,
          -0.023112962761228914,
          0.0016249279756399935,
          -0.03104624261739526,
          0.05637055337374322,
          -0.011247572431435012,
          -0.00560955352750583,
          0.020748111294104744,
          0.01762991686239166,
          -0.023961102311925327,
          -0.16312329546244608,
          0.034055335354107215,
          -0.026276400240081915,
          -0.06469226864061012,
          -0.02446709540534702,
          -0.06867895931102254,
          -0.12929204422564827,
          -0.04425036212991495,
          -0.01415856146859706,
          -0.0022379280267681998,
          -0.06682316785914193,
          -0.029247872123357794,
          0.03446334493029799,
          -0.0108209815993352,
          0.07541571116792357,
          0.0017618628000772123,
          0.00608978466442015,
          -0.013534511919911441,
          -0.0049229535135862056,
          -0.06537971824564558,
          0.04837824758038158,
          0.04262013757824202,
          0.006167122922166683,
          -0.021018746869047547,
          -0.0005052674387438945,
          0.035924493619257966,
          -0.054802644400852,
          0.05538836379217037,
          -0.0222202187179029,
          -0.01808866479297253,
          0.006115151143789311,
          -0.03866946021055973,
          -0.08396150046118808,
          -0.049139494582453196,
          -0.1964379616391176,
          0.005409521982201404,
          -0.08123045511103122,
          -0.0026149570397775435,
          0.038357011262757666,
          -0.050167572366244896,
          0.05252669692097818,
          -0.01735398377442597,
          0.042823216381782804,
          0.06885754549134547,
          -0.028650742188985768,
          -0.020080009071885806,
          0.015194491420809631,
          -0.04250788653553904,
          -0.01913136529968726,
          -0.02390743094467083,
          0.08985950756332836,
          0.028136787184610643,
          -0.020059627676129402,
          -0.006257727719399895,
          -0.056433142129286316,
          0.038352827298271594,
          0.03891105948616138,
          0.027328678360457787,
          0.015731784907570105,
          -0.051671097395851094,
          -0.015996206158425844,
          0.006889382151528858,
          -0.14088721461540515,
          0.026184268664196816,
          0.008536088681146102,
          -0.018811140175617667,
          0.06225931236205512,
          0.09784584217074523,
          -0.008891380586084328,
          -0.002025331608609142,
          0.008787217935298543,
          0.07164078167615635,
          0.027707349809424773,
          -0.08407301888341874,
          -0.021552277088853305,
          0.04531001989476919,
          0.024811881869493964,
          0.06037200834803727,
          -0.056025597126585204,
          0.13136089084056288,
          0.08332575640896739,
          -0.05973083802664552,
          0.054054682966286245,
          -0.04654451677760877,
          0.058794097773827624,
          0.06159565254429933,
          0.017355729159284,
          0.04717341547003938,
          0.09546877766567662,
          0.09143366729450679,
          0.09068615589158702,
          0.04559010898312151,
          0.04572310972561582,
          0.016821001513647564,
          -0.05654243635998957,
          0.005475145810116481,
          0.07780941862388543,
          0.00964361309456003,
          0.10356964759354188,
          0.08055962702404738,
          -0.03173907254971056,
          0.033813945364260654,
          -0.00041127147121588267,
          0.03734023244120321,
          0.019797997683241843,
          -0.019098576869464708,
          0.03999343155958089,
          0.0009756238219595461,
          -0.10316860051572688,
          0.0015866206028014337,
          -0.0006703765844894319,
          0.04354725048092847,
          0.036690226292791984,
          0.05103285608581645,
          -0.06274336136261864,
          0.07443656200931982,
          0.062664387454059,
          0.03548288827571723,
          -0.03339840132155365,
          0.023745898466491097,
          0.014752523849234858,
          -0.010254453329961674,
          0.08155398507967715,
          -0.03073495573608435,
          0.06461818733186696,
          -0.03922539755890681,
          -0.03523094660785532,
          0.00884724082215472,
          -0.05068977658182248,
          -0.05466779050402467,
          -0.050691069694098374,
          0.043338782080108364,
          -0.04480701664500023,
          -0.0007699309079647008,
          -0.12355231955084592,
          -0.050396352156682436,
          -0.08198235334811264,
          0.0005057930583596166,
          0.0005521504339605923,
          0.08868003690209987,
          0.029652267381759714,
          -0.004958024973812403,
          0.019794189479686308,
          0.09056667049426337,
          -0.013454722418744361,
          -0.044884646249633446,
          -0.043264504880709494,
          0.017196948630444398,
          -0.07333096632712287,
          -0.015312583413417383,
          -0.008375630479478804,
          -0.08372192466288285,
          0.08928003512391042,
          -3.146818692848036E-05,
          -0.00969192574766561,
          -0.02778461778321108,
          0.04424398195652208,
          0.025949422656614148,
          0.05488347363849735,
          0.018030581738175528,
